{"learner":{"attributes":{"best_iteration":"29","best_ntree_limit":"30"},"feature_names":[],"feature_types":[],"gradient_booster":{"model":{"gbtree_model_param":{"num_parallel_tree":"1","num_trees":"150","size_leaf_vector":"0"},"tree_info":[0,1,2,3,4,0,1,2,3,4,0,1,2,3,4,0,1,2,3,4,0,1,2,3,4,0,1,2,3,4,0,1,2,3,4,0,1,2,3,4,0,1,2,3,4,0,1,2,3,4,0,1,2,3,4,0,1,2,3,4,0,1,2,3,4,0,1,2,3,4,0,1,2,3,4,0,1,2,3,4,0,1,2,3,4,0,1,2,3,4,0,1,2,3,4,0,1,2,3,4,0,1,2,3,4,0,1,2,3,4,0,1,2,3,4,0,1,2,3,4,0,1,2,3,4,0,1,2,3,4,0,1,2,3,4,0,1,2,3,4,0,1,2,3,4,0,1,2,3,4],"trees":[{"base_weights":[-3.4808195E-1,1.4035088E0,-3.4814405E-1,-3.4916395E-1,-2.544505E-1,-3.492698E-1,4.9222794E-1,1.235955E0,-2.6242656E-1,3.4798533E-1,-3.4939495E-1,1.2831858E0,-4.7619045E-1,1.0678056E-2,-2.9853413E-1,-5.1724136E-1,1.111111E0,1.8930957E-1,-3.4955564E-1,8.77193E-2,1.728395E0,7.2664356E-1,-1.18085764E-1,9.523809E-1,-3.0744335E-1,1.5702479E0,-3.508772E-1,-2.4590163E-1,9.467455E-1,-3.4961542E-1,9.589041E-1,-4.9586776E-1,1.3989637E0,8.757062E-1,-2.367879E-1,8.77193E-2,1.3013698E0,8.4070796E-1,-3.1627703E-1],"categories":[],"categories_nodes":[],"categories_segments":[],"categories_sizes":[],"default_left":[1,0,1,1,1,1,1,0,1,1,1,1,0,1,1,0,1,1,1,0,0,1,1,1,1,0,0,0,0,0,0,0,0,0,0,0,0,0,0],"id":0,"left_children":[1,-1,3,5,7,9,11,-1,13,15,17,19,-1,21,23,-1,25,27,29,-1,-1,31,33,35,37,-1,-1,-1,-1,-1,-1,-1,-1,-1,-1,-1,-1,-1,-1],"loss_changes":[6.8740234E0,0E0,5.520996E0,5.3442383E0,7.883404E0,5.1879883E0,6.524392E0,0E0,6.2484474E0,7.7849355E0,5.0913086E0,2.2540784E0,0E0,6.9927154E0,6.5271378E0,0E0,4.65903E0,6.1532235E0,4.8774414E0,0E0,0E0,1.0195086E1,7.7996E0,1.1532252E0,5.9071007E0,0E0,0E0,0E0,0E0,0E0,0E0,0E0,0E0,0E0,0E0,0E0,0E0,0E0,0E0],"parents":[2147483647,0,0,2,2,3,3,4,4,5,5,6,6,8,8,9,9,10,10,11,11,13,13,14,14,16,16,17,17,18,18,21,21,22,22,23,23,24,24],"right_children":[2,-1,4,6,8,10,12,-1,14,16,18,20,-1,22,24,-1,26,28,30,-1,-1,32,34,36,38,-1,-1,-1,-1,-1,-1,-1,-1,-1,-1,-1,-1,-1,-1],"split_conditions":[-6.3272834E-1,4.2105266E-1,2.3354456E-1,3.9632064E-1,-3.7120223E-1,-7.1168685E-1,-1.9618408E-1,3.7078652E-1,-4.080952E-3,1.9713788E-1,-2.614479E-1,8.6419776E-2,-1.4285713E-1,-3.7439156E-1,5.442775E-2,-1.5517241E-1,3.620572E-1,2.001073E-1,6.406845E-1,2.6315792E-2,5.185185E-1,-5.8158077E-2,-6.8835445E-2,1.0644515E-2,-4.9601215E-1,4.7107437E-1,-1.05263166E-1,-7.377049E-2,2.8402367E-1,-1.0488463E-1,2.8767124E-1,-1.4876033E-1,4.1968912E-1,2.6271188E-1,-7.1036376E-2,2.6315792E-2,3.9041096E-1,2.522124E-1,-9.4883114E-2],"split_indices":[105,0,236,472,480,11,435,0,160,501,553,20,0,190,398,0,167,575,305,0,0,193,194,0,591,0,0,0,0,0,0,0,0,0,0,0,0,0,0],"split_type":[0,0,0,0,0,0,0,0,0,0,0,0,0,0,0,0,0,0,0,0,0,0,0,0,0,0,0,0,0,0,0,0,0,0,0,0,0,0,0],"sum_hessian":[5.8708164E4,1.2800001E0,5.8706883E4,5.8072004E4,6.3488007E2,5.8065285E4,6.7200003E0,2.5600002E0,6.3232007E2,9.920001E0,5.8055363E4,3.5200002E0,3.2000003E0,7.3920006E1,5.584E2,4.8E0,5.1200004E0,1.6960001E1,5.8038402E4,1.2800001E0,2.2400002E0,1.056E1,6.3360004E1,3.2000003E0,5.552E2,3.8400002E0,1.2800001E0,1.1200001E1,5.76E0,5.8036484E4,1.9200001E0,3.8400002E0,6.7200003E0,6.0800004E0,5.7280003E1,1.2800001E0,1.9200001E0,3.5200002E0,5.5168005E2],"tree_param":{"num_deleted":"0","num_feature":"768","num_nodes":"39","size_leaf_vector":"0"}},{"base_weights":[-2.5463828E-1,-2.547651E-1,4.7169808E-1,-2.548561E-1,7.6642334E-1,-5.03876E-1,1.1801242E0,8.4070796E-1,-2.5493613E-1,-4.3209875E-1,1.728395E0,1.7768594E0,-3.8461536E-1,1.6438355E0,-3.8461536E-1,8.733624E-2,-2.5519907E-1,1.6438355E0,-1.8231539E-2,-3.3138007E-1,-2.5388688E-1,4.6511626E-1,-3.6979967E-1,-3.700962E-1,-1.553829E-1,6.896551E-1,-2.539774E-1],"categories":[],"categories_nodes":[],"categories_segments":[],"categories_sizes":[],"default_left":[1,1,1,1,1,0,1,1,1,0,0,0,0,0,0,1,1,0,1,1,1,0,0,0,0,0,0],"id":1,"left_children":[1,3,5,7,9,-1,11,13,15,-1,-1,-1,-1,-1,-1,17,19,-1,21,23,25,-1,-1,-1,-1,-1,-1],"loss_changes":[5.528076E0,5.6503906E0,7.920531E0,5.3603516E0,7.064973E0,0E0,6.696663E0,5.080336E0,5.3046875E0,0E0,0E0,0E0,0E0,0E0,0E0,7.5556507E0,5.7783203E0,0E0,7.6285152E0,6.686928E0,5.0996094E0,0E0,0E0,0E0,0E0,0E0,0E0],"parents":[2147483647,0,0,1,1,2,2,3,3,4,4,6,6,7,7,8,8,15,15,16,16,18,18,19,19,20,20],"right_children":[2,4,6,8,10,-1,12,14,16,-1,-1,-1,-1,-1,-1,18,20,-1,22,24,26,-1,-1,-1,-1,-1,-1],"split_conditions":[4.329887E-1,7.11472E-1,-5.2352004E-2,-3.174679E-1,3.1610918E-1,-1.511628E-1,1.8794766E-1,1.7295575E-1,-2.9777843E-1,-1.2962963E-1,5.185185E-1,5.3305787E-1,-1.15384616E-1,4.9315068E-1,-1.15384616E-1,-1.1736571E-1,-1.610913E-1,4.9315068E-1,-2.27965E-2,-1.1124118E-1,-5.9874237E-1,1.3953489E-1,-1.10939905E-1,-1.11028865E-1,-4.661487E-2,2.0689654E-1,-7.619322E-2],"split_indices":[197,398,21,226,163,0,683,401,4,0,0,0,0,0,0,322,119,0,39,253,0,0,0,0,0,0,0],"split_type":[0,0,0,0,0,0,0,0,0,0,0,0,0,0,0,0,0,0,0,0,0,0,0,0,0,0,0],"sum_hessian":[5.8708164E4,5.8698562E4,9.6E0,5.8694086E4,4.4800005E0,4.1600003E0,5.4400005E0,3.5200002E0,5.8690562E4,2.2400002E0,2.2400002E0,3.8400002E0,1.6000001E0,1.9200001E0,1.6000001E0,4.4800003E1,5.8645766E4,1.9200001E0,4.2880005E1,9.8880005E2,5.7656965E4,1.7920002E1,2.4960001E1,8.0960004E2,1.7920001E2,4.8E0,5.7652164E4],"tree_param":{"num_deleted":"0","num_feature":"768","num_nodes":"27","size_leaf_vector":"0"}},{"base_weights":[-2.1127196E-1,-2.1186228E-1,2.1407545E-2,1.235955E0,-2.1194668E-1,3.342128E-1,-1.1428571E-1,-2.2626194E-1,-2.0426303E-1,-1.3869625E-2,8.843537E-1,-4.4516826E-1,6.362059E-2,-2.2698458E-1,2.4590163E-1,-1.9897752E-1,-2.500482E-1,1.111111E0,-1.5037593E-1,-3.1007752E-1,1.2759644E0,-5.230596E-1,9.6491224E-1,-3.4941763E-1,2.7753684E-1,2.0629749E-1,-2.2775677E-1,-4.2056072E-1,6.639839E-1,8.851674E-1,-1.9923694E-1,6.0830855E-1,-2.5292996E-1,-5.797101E-1,2.8985506E-1,-4.639175E-1,8.77193E-2,1.6037735E0,5.154639E-2,-6.0283685E-1,-1.9138755E-1,9.6491224E-1,-4.6572933E-1,1.1940298E0,8.188331E-2,1.2360939E-2,1.3138685E0,-2.3195493E-1,-1.586379E-1,-5.7093424E-1,5.2631575E-1,1.7768594E0,2.8678304E-1,1.4963503E0,-2.0618556E-1,-1.994286E-1,7.988165E-1,-2.1459226E-2,1.6279069E0,-2.551109E-1,6.031128E-1,8.196721E-2,1.1538461E0,1.9617224E0,1.8518518E-1,5.2631575E-1,-3.8461536E-1,-2.5423726E-1,8.77193E-2,3.0927834E-1,-5.9356135E-1,1.7241379E0,-1.2345678E-1,-2.5911707E-1,4.4698542E-1],"categories":[],"categories_nodes":[],"categories_segments":[],"categories_sizes":[],"default_left":[1,1,1,0,1,1,1,1,1,1,1,1,1,1,1,1,1,0,1,1,1,1,0,1,1,1,1,1,1,1,1,1,1,0,1,0,0,1,1,0,1,0,1,1,1,0,0,0,0,0,0,0,0,0,0,0,0,0,0,0,0,0,0,0,0,0,0,0,0,0,0,0,0,0,0],"id":2,"left_children":[1,3,5,-1,7,9,11,13,15,17,19,21,23,25,27,29,31,-1,33,35,37,39,-1,41,43,45,47,49,51,53,55,57,59,-1,61,-1,-1,63,65,-1,67,-1,69,71,73,-1,-1,-1,-1,-1,-1,-1,-1,-1,-1,-1,-1,-1,-1,-1,-1,-1,-1,-1,-1,-1,-1,-1,-1,-1,-1,-1,-1,-1,-1],"loss_changes":[8.0686035E0,7.4179688E0,6.3829594E0,0E0,6.3947754E0,8.72143E0,6.209262E0,7.031128E0,9.174194E0,4.595956E0,8.646793E0,4.5509553E0,6.2076488E0,6.876709E0,9.117583E0,9.788818E0,9.901855E0,0E0,5.195597E0,3.5647136E-1,5.327873E0,8.255377E-1,0E0,4.1244297E0,8.172241E0,7.896938E0,5.8760986E0,2.128717E0,7.8356056E0,5.8847823E0,6.6953125E0,8.690579E0,7.4879456E0,0E0,2.3840852E0,0E0,0E0,5.019209E0,1.0058851E0,0E0,1.6895089E-1,0E0,2.438427E0,5.8280754E0,4.9812803E0,0E0,0E0,0E0,0E0,0E0,0E0,0E0,0E0,0E0,0E0,0E0,0E0,0E0,0E0,0E0,0E0,0E0,0E0,0E0,0E0,0E0,0E0,0E0,0E0,0E0,0E0,0E0,0E0,0E0,0E0],"parents":[2147483647,0,0,1,1,2,2,4,4,5,5,6,6,7,7,8,8,9,9,10,10,11,11,12,12,13,13,14,14,15,15,16,16,18,18,19,19,20,20,21,21,23,23,24,24,25,25,26,26,27,27,28,28,29,29,30,30,31,31,32,32,34,34,37,37,38,38,40,40,42,42,43,43,44,44],"right_children":[2,4,6,-1,8,10,12,14,16,18,20,22,24,26,28,30,32,-1,34,36,38,40,-1,42,44,46,48,50,52,54,56,58,60,-1,62,-1,-1,64,66,-1,68,-1,70,72,74,-1,-1,-1,-1,-1,-1,-1,-1,-1,-1,-1,-1,-1,-1,-1,-1,-1,-1,-1,-1,-1,-1,-1,-1,-1,-1,-1,-1,-1,-1],"split_conditions":[4.5757896E-1,-3.1515914E-1,-1.3756359E-1,3.7078652E-1,8.786306E-2,-8.835927E-2,-2.5678752E-2,2.1338148E-1,4.1657782E-1,3.3858135E-2,-2.2090551E-1,-1.4187166E-1,-2.1595705E-1,-4.420337E-1,5.9550673E-2,-6.4065015E-1,-2.7955535E-1,3.333333E-1,-5.0235037E-2,4.0635353E-1,2.0425014E-2,2.4586055E-1,2.8947368E-1,-3.2672256E-1,-1.3731657E-1,-9.8441485E-3,6.2786627E-1,2.7639103E-1,-6.4194836E-2,9.180245E-2,5.495209E-1,2.5907463E-1,2.2411796E-1,-1.7391305E-1,4.0436393E-1,-1.3917525E-1,2.6315792E-2,2.8769936E-2,2.6381606E-1,-1.8085106E-1,-1.3917404E-1,2.8947368E-1,-1.266555E-1,-1.4273636E-1,2.3071687E-1,3.7082818E-3,3.9416057E-1,-6.9586486E-2,-4.759137E-2,-1.7128028E-1,1.5789473E-1,5.3305787E-1,8.603492E-2,4.489051E-1,-6.185567E-2,-5.9828583E-2,2.3964496E-1,-6.4377678E-3,4.883721E-1,-7.653327E-2,1.8093385E-1,2.4590164E-2,3.4615386E-1,5.885167E-1,5.5555556E-2,1.5789473E-1,-1.15384616E-1,-7.6271184E-2,2.6315792E-2,9.27835E-2,-1.7806841E-1,5.172414E-1,-3.7037037E-2,-7.7735126E-2,1.3409564E-1],"split_indices":[271,524,117,0,711,516,628,755,2,631,240,661,682,533,406,519,129,0,153,1,723,377,0,373,27,101,752,171,546,103,30,244,354,0,420,0,0,698,1,0,0,0,92,625,181,0,0,0,0,0,0,0,0,0,0,0,0,0,0,0,0,0,0,0,0,0,0,0,0,0,0,0,0,0,0],"split_type":[0,0,0,0,0,0,0,0,0,0,0,0,0,0,0,0,0,0,0,0,0,0,0,0,0,0,0,0,0,0,0,0,0,0,0,0,0,0,0,0,0,0,0,0,0,0,0,0,0,0,0,0,0,0,0,0,0,0,0,0,0,0,0,0,0,0,0,0,0,0,0,0,0,0,0],"sum_hessian":[5.8708164E4,5.8559684E4,1.4848001E2,2.5600002E0,5.8557125E4,4.4480003E1,1.0400001E2,2.044256E4,3.8114562E4,2.7840002E1,1.6640001E1,3.5840004E1,6.816E1,2.0411842E4,3.0720001E1,3.4174723E4,3.9398403E3,2.2400002E0,2.5600002E1,4.1600003E0,1.24800005E1,3.456E1,1.2800001E0,2.304E1,4.5120003E1,3.5840004E1,2.0376002E4,1.1840001E1,1.8880001E1,7.3600006E0,3.4167363E4,1.24800005E1,3.9273604E3,1.2800001E1,1.2800001E1,2.88E0,1.2800001E0,9.6E0,2.88E0,2.7200003E1,7.3600006E0,1.2800001E0,2.1760002E1,7.0400004E0,3.808E1,3.1360003E1,4.4800005E0,1.9207041E4,1.1689601E3,1.056E1,1.2800001E0,3.8400002E0,1.5040001E1,4.4800005E0,2.88E0,3.41616E4,5.76E0,8.320001E0,4.1600003E0,3.9180803E3,9.280001E0,1.1200001E1,1.6000001E0,7.3600006E0,2.2400002E0,1.2800001E0,1.6000001E0,6.0800004E0,1.2800001E0,2.88E0,1.8880001E1,4.8E0,2.2400002E0,1.9840002E1,1.8240002E1],"tree_param":{"num_deleted":"0","num_feature":"768","num_nodes":"75","size_leaf_vector":"0"}},{"base_weights":[-5.3920034E-2,-2.4124399E-1,-5.3036775E-2,9.4890505E-1,-2.644408E-1,1.0089105E-2,-5.5552114E-2,1.5979381E0,-3.8461536E-1,4.9822062E-1,-2.963304E-1,-3.6341948E-3,3.2081044E-1,-5.6258813E-2,1.5541834E-1,1.1801242E0,-3.4482756E-1,-3.1676334E-1,5.590062E-1,1.659751E-1,-2.5075015E-2,1.1959287E0,1.4492753E-1,2.3906179E-1,-5.6726124E-2,2.09205E-2,5.7607734E-1,1.6279069E0,-3.508772E-1,8.77193E-2,-4.8672566E-1,-5.0835148E-2,-3.8805968E-1,1.4197531E0,-2.3809522E-1,8.966537E-2,8.034321E-1,7.648725E-1,-3.0953536E-2,1.4492753E0,-4.109589E-1,-3.3680342E-2,8.778626E-1,-4.4715446E-1,3.7106246E-1,1.7040843E-1,-5.732733E-2,3.3891848E-1,-1.6107966E-1,1.1050328E0,2.1276595E-1,5.2631575E-1,1.85567E0,1.0619469E0,-1.4740108E-1,-2.387327E-1,-5.03738E-1,8.77193E-2,-4.109589E-1,5.9950554E-1,-0E0,2.2364216E-1,1.2606232E0,1.5819209E0,-4.975124E-2,-2.846771E-1,-1.609406E-2,1.7647058E0,-1.2345678E-1,1.1570247E0,-1.2687051E-1,-0E0,1.4806867E0,-5.78635E-1,5.2631575E-1,9.161793E-1,1.6245486E-1,3.042198E-1,-4.511278E-1,-5.750515E-2,6.8249255E-1,1.3632365E-1,1.442786E0,1.3686912E-1,-4.596704E-1,1.5916954E0,2.3316061E-1,5.509355E-1,-4.6184736E-1],"categories":[],"categories_nodes":[],"categories_segments":[],"categories_sizes":[],"default_left":[1,1,1,1,1,1,1,0,0,1,1,1,1,1,1,1,1,1,1,1,1,1,1,1,1,1,1,1,0,0,0,1,1,0,1,1,1,1,1,1,0,1,1,1,1,1,1,1,1,1,1,0,0,0,0,0,0,0,0,0,0,0,0,0,0,0,0,0,0,0,0,0,0,0,0,0,0,0,0,0,0,0,0,0,0,0,0,0,0],"id":3,"left_children":[1,3,5,7,9,11,13,-1,-1,15,17,19,21,23,25,27,29,31,33,35,37,39,41,43,45,47,49,51,-1,-1,-1,53,55,-1,57,59,61,63,65,67,-1,69,71,73,75,77,79,81,83,85,87,-1,-1,-1,-1,-1,-1,-1,-1,-1,-1,-1,-1,-1,-1,-1,-1,-1,-1,-1,-1,-1,-1,-1,-1,-1,-1,-1,-1,-1,-1,-1,-1,-1,-1,-1,-1,-1,-1],"loss_changes":[9.700928E0,7.8496704E0,9.279022E0,5.3575244E0,6.7327785E0,9.552971E0,8.387131E0,0E0,0E0,6.8685637E0,4.730194E0,7.8092427E0,1.4411982E1,7.743225E0,1.0617773E1,4.9861765E0,3.9868528E-1,4.816515E0,4.7565374E0,1.1651205E1,8.875915E0,6.9951973E0,1.0507441E1,8.198647E0,7.6460876E0,8.353967E0,8.505032E0,3.1798458E-1,0E0,0E0,0E0,6.075255E0,3.3517933E0,0E0,2.7259934E-1,9.8909E0,6.5145893E0,9.476792E0,7.133009E0,7.063875E0,0E0,7.394832E0,8.318973E0,2.1937125E0,8.370728E0,1.2436218E1,7.376526E0,1.1548777E1,8.236996E0,7.3852234E0,6.687819E0,0E0,0E0,0E0,0E0,0E0,0E0,0E0,0E0,0E0,0E0,0E0,0E0,0E0,0E0,0E0,0E0,0E0,0E0,0E0,0E0,0E0,0E0,0E0,0E0,0E0,0E0,0E0,0E0,0E0,0E0,0E0,0E0,0E0,0E0,0E0,0E0,0E0,0E0],"parents":[2147483647,0,0,1,1,2,2,3,3,4,4,5,5,6,6,9,9,10,10,11,11,12,12,13,13,14,14,15,15,16,16,17,17,18,18,19,19,20,20,21,21,22,22,23,23,24,24,25,25,26,26,27,27,31,31,32,32,34,34,35,35,36,36,37,37,38,38,39,39,41,41,42,42,43,43,44,44,45,45,46,46,47,47,48,48,49,49,50,50],"right_children":[2,4,6,8,10,12,14,-1,-1,16,18,20,22,24,26,28,30,32,34,36,38,40,42,44,46,48,50,52,-1,-1,-1,54,56,-1,58,60,62,64,66,68,-1,70,72,74,76,78,80,82,84,86,88,-1,-1,-1,-1,-1,-1,-1,-1,-1,-1,-1,-1,-1,-1,-1,-1,-1,-1,-1,-1,-1,-1,-1,-1,-1,-1,-1,-1,-1,-1,-1,-1,-1,-1,-1,-1,-1,-1],"split_conditions":[-4.0078145E-1,-2.7228132E-1,-6.6727495E-1,-6.241194E-2,-5.0083953E-1,-1.665469E-1,6.86401E-2,4.7938144E-1,-1.15384616E-1,-7.974267E-2,-1.9572986E-2,-2.4521062E-1,-3.7291425E-1,-5.358225E-1,3.4364948E-1,-1.2416166E-2,-2.9172176E-1,-6.125314E-1,8.0684364E-2,4.109403E-2,-6.390469E-1,6.082256E-1,3.9204434E-2,-4.180929E-1,-4.5250005E-1,6.287719E-2,6.954381E-2,-2.5912672E-1,-1.05263166E-1,2.6315792E-2,-1.460177E-1,-6.850099E-2,2.6428336E-1,4.2592594E-1,-9.474237E-2,-9.371988E-2,-1.06920704E-1,-1.827912E-1,-8.402258E-1,-2.4681598E-2,-1.2328767E-1,-1.5114483E-1,1.0775988E-1,3.429358E-1,-1.2651905E-2,2.0033348E-1,2.016528E-1,4.435119E-2,7.438654E-2,1.0333198E-1,-5.008598E-3,1.5789473E-1,5.56701E-1,3.1858408E-1,-4.4220325E-2,-7.161981E-2,-1.5112141E-1,2.6315792E-2,-1.2328767E-1,1.7985167E-1,-0E0,6.709265E-2,3.7818697E-1,4.7457626E-1,-1.4925373E-2,-8.540313E-2,-4.8282184E-3,5.2941173E-1,-3.7037037E-2,3.4710744E-1,-3.8061157E-2,-0E0,4.4420603E-1,-1.735905E-1,1.5789473E-1,2.748538E-1,4.873646E-2,9.126595E-2,-1.3533835E-1,-1.7251546E-2,2.0474778E-1,4.0897094E-2,4.3283582E-1,4.106074E-2,-1.3790113E-1,4.7750863E-1,6.994819E-2,1.6528066E-1,-1.3855422E-1],"split_indices":[510,170,432,342,510,581,585,0,0,216,729,413,255,279,429,536,0,587,437,0,126,663,128,88,76,269,124,14,0,0,0,544,321,0,0,713,536,325,227,678,0,552,143,358,145,159,485,468,624,245,372,0,0,0,0,0,0,0,0,0,0,0,0,0,0,0,0,0,0,0,0,0,0,0,0,0,0,0,0,0,0,0,0,0,0,0,0,0,0],"split_type":[0,0,0,0,0,0,0,0,0,0,0,0,0,0,0,0,0,0,0,0,0,0,0,0,0,0,0,0,0,0,0,0,0,0,0,0,0,0,0,0,0,0,0,0,0,0,0,0,0,0,0,0,0,0,0,0,0,0,0,0,0,0,0,0,0,0,0,0,0,0,0,0,0,0,0,0,0,0,0,0,0,0,0,0,0,0,0,0,0],"sum_hessian":[5.8708164E4,2.7424002E2,5.8433926E4,4.4800005E0,2.6976E2,2.23904E3,5.6194883E4,2.88E0,1.6000001E0,1.0240001E1,2.5952002E2,2.1452803E3,9.376001E1,5.6008004E4,1.8688002E2,5.4400005E0,4.8E0,2.5408002E2,5.4400005E0,2.4000002E2,1.9052802E3,1.4720001E1,7.904001E1,8.768001E1,5.5920324E4,1.4240001E2,4.4480003E1,4.1600003E0,1.2800001E0,1.2800001E0,3.5200002E0,5.4080006E1,2.0000002E2,2.2400002E0,3.2000003E0,2.1536002E2,2.4640001E1,1.3120001E1,1.8921602E3,1.2800001E1,1.9200001E0,6.432001E1,1.4720001E1,1.3760001E1,7.3920006E1,1.4688E2,5.5773445E4,5.1520004E1,9.0880005E1,1.728E1,2.7200003E1,1.2800001E0,2.88E0,3.5200002E0,5.0560005E1,8.864001E1,1.1136001E2,1.2800001E0,1.9200001E0,3.1360003E1,1.8400002E2,1.152E1,1.3120001E1,6.0800004E0,7.0400004E0,1.0368001E2,1.7884801E3,1.056E1,2.2400002E0,3.8400002E0,6.0480003E1,6.4000006E0,8.320001E0,1.24800005E1,1.2800001E0,1.952E1,5.4400005E1,1.2128001E2,2.5600002E1,5.5760965E4,1.24800005E1,4.4480003E1,7.0400004E0,4.5760002E1,4.5120003E1,1.056E1,6.7200003E0,1.8240002E1,8.960001E0],"tree_param":{"num_deleted":"0","num_feature":"768","num_nodes":"89","size_leaf_vector":"0"}},{"base_weights":[8.6791223E-1,8.54259E-1,8.882193E-1,8.560674E-1,6.1825967E-1,8.924166E-1,7.427612E-1,9.653397E-1,8.5272896E-1,7.3673505E-1,1.4440432E-1,9.051383E-1,8.493338E-1,6.029106E-1,8.746629E-1,4.3755695E-1,9.8791546E-1,8.532083E-1,8.137432E-2,4.7074348E-1,9.221765E-1,-7.455731E-2,8.308605E-1,9.010584E-1,1.1063069E0,8.551996E-1,3.6923075E-1,7.029135E-1,2.6808953E-1,1.1731296E0,7.4404263E-1,1.7241379E0,2.3541452E-1,-5.109489E-1,9.9529934E-1,1.0508757E0,8.512008E-1,-5.6224895E-1,5.6231E-1,3.333333E-1,1.4468864E0,1.0548851E0,3.3225283E-1,1.1904762E0,-2.064451E-1,1.6863904E0,-2.5906734E-2,6.436808E-1,9.035553E-1,7.627118E-1,1.209106E0,1.0740796E0,8.4326065E-1,4.1938487E-2,9.618717E-1,3.6925218E-1,8.71659E-1,-8.733624E-2,7.677902E-1,-0E0,1.2728431E0,-5.325444E-1,7.7770185E-1,1.9469026E0,5.2631575E-1,-3.030303E-2,1.4406779E0,1.0056984E0,-1.8315017E-2,-5.1724136E-1,1.0751842E0,8.534622E-1,6.83533E-1,-3.726708E-1,1.26943E0,8.8573955E-3,7.2204125E-1,1.9617224E0,-1.6853932E-1,7.64109E-1,1.4798425E0,-2.2662888E-1,9.8615915E-1,1.6438355E0,8.77193E-2,-3.28874E-1,7.438016E-1,2.0437956E0,8.77193E-2,8.0246913E-1,-5.109489E-1,5.569782E-1,1.5176151E0,7.957559E-2,9.042273E-1,-1.7615175E-1,9.5293427E-1,1.2352217E0,-1.7241378E-1,7.4292946E-1,1.2520554E0,7.866281E-1,8.873955E-1,-1.3812155E-1,8.80829E-1,1.159844E0,-4.4943818E-1,1.0364683E0,1.5389256E-1,3.670162E-1,1.0338765E0,6.2322944E-1,-3.9167684E-1,9.5744675E-1,-4.9586776E-1,-4.0540537E-1,1.1538461E0,1.6244725E0,8.968985E-1,4.6916887E-1,9.161065E-1],"categories":[],"categories_nodes":[],"categories_segments":[],"categories_sizes":[],"default_left":[1,1,1,1,1,1,1,1,1,1,1,1,1,1,1,1,1,1,1,1,1,1,1,1,1,1,1,1,1,1,1,1,1,0,1,1,1,0,1,1,1,1,1,1,1,1,1,1,1,1,1,1,1,1,1,1,1,1,1,1,1,0,1,0,0,0,0,0,0,0,0,0,0,0,0,0,0,0,0,0,0,0,0,0,0,0,0,0,0,0,0,0,0,0,0,0,0,0,0,0,0,0,0,0,0,0,0,0,0,0,0,0,0,0,0,0,0,0,0,0,0],"id":4,"left_children":[1,3,5,7,9,11,13,15,17,19,21,23,25,27,29,31,33,35,37,39,41,43,45,47,49,51,53,55,57,59,61,63,65,-1,67,69,71,-1,73,75,77,79,81,83,85,87,89,91,93,95,97,99,101,103,105,107,109,111,113,115,117,-1,119,-1,-1,-1,-1,-1,-1,-1,-1,-1,-1,-1,-1,-1,-1,-1,-1,-1,-1,-1,-1,-1,-1,-1,-1,-1,-1,-1,-1,-1,-1,-1,-1,-1,-1,-1,-1,-1,-1,-1,-1,-1,-1,-1,-1,-1,-1,-1,-1,-1,-1,-1,-1,-1,-1,-1,-1,-1,-1],"loss_changes":[1.5519531E1,1.4464844E1,1.3734375E1,1.1894531E1,1.5094124E1,1.1787109E1,1.1780914E1,1.1792175E1,1.2441406E1,1.0238037E1,8.388987E0,1.3508789E1,1.4439209E1,1.0763199E1,1.2427551E1,1.1006099E1,1.1388733E1,1.25234375E1,7.1632147E0,1.1712984E1,9.548241E0,7.4066467E0,9.9243965E0,1.05546875E1,1.1331451E1,1.2618408E1,1.2567503E1,1.3823921E1,1.371434E1,1.1945679E1,1.0728424E1,5.229435E-1,1.2559404E1,0E0,1.0333496E1,1.3353363E1,1.2111328E1,0E0,9.173731E0,1.0209841E1,9.412567E0,1.1567032E1,9.242953E0,1.955574E0,4.865549E0,3.6832027E0,3.5118954E0,1.2032997E1,9.4296875E0,1.491964E1,9.785614E0,1.463147E1,1.1580322E1,6.6047554E0,6.969837E0,1.22151985E1,1.321946E1,1.0148538E1,8.153505E0,4.6777544E0,1.0985031E1,0E0,9.574509E0,0E0,0E0,0E0,0E0,0E0,0E0,0E0,0E0,0E0,0E0,0E0,0E0,0E0,0E0,0E0,0E0,0E0,0E0,0E0,0E0,0E0,0E0,0E0,0E0,0E0,0E0,0E0,0E0,0E0,0E0,0E0,0E0,0E0,0E0,0E0,0E0,0E0,0E0,0E0,0E0,0E0,0E0,0E0,0E0,0E0,0E0,0E0,0E0,0E0,0E0,0E0,0E0,0E0,0E0,0E0,0E0,0E0,0E0],"parents":[2147483647,0,0,1,1,2,2,3,3,4,4,5,5,6,6,7,7,8,8,9,9,10,10,11,11,12,12,13,13,14,14,15,15,16,16,17,17,18,18,19,19,20,20,21,21,22,22,23,23,24,24,25,25,26,26,27,27,28,28,29,29,30,30,31,31,32,32,34,34,35,35,36,36,38,38,39,39,40,40,41,41,42,42,43,43,44,44,45,45,46,46,47,47,48,48,49,49,50,50,51,51,52,52,53,53,54,54,55,55,56,56,57,57,58,58,59,59,60,60,62,62],"right_children":[2,4,6,8,10,12,14,16,18,20,22,24,26,28,30,32,34,36,38,40,42,44,46,48,50,52,54,56,58,60,62,64,66,-1,68,70,72,-1,74,76,78,80,82,84,86,88,90,92,94,96,98,100,102,104,106,108,110,112,114,116,118,-1,120,-1,-1,-1,-1,-1,-1,-1,-1,-1,-1,-1,-1,-1,-1,-1,-1,-1,-1,-1,-1,-1,-1,-1,-1,-1,-1,-1,-1,-1,-1,-1,-1,-1,-1,-1,-1,-1,-1,-1,-1,-1,-1,-1,-1,-1,-1,-1,-1,-1,-1,-1,-1,-1,-1,-1,-1,-1,-1],"split_conditions":[-4.2281814E-2,-1.0412623E-1,1.9096445E-2,-1.0516863E-1,1.4511628E-1,1.5819979E-1,-1.7725834E-1,-2.4585414E-1,4.7314867E-1,2.290054E-1,-8.465827E-2,-1.6450245E-2,3.4407842E-1,2.1304649E-1,4.546853E-2,-8.4384196E-2,-9.1721065E-2,-2.2602734E-1,1.3464287E-2,1.025056E-1,2.4979278E-2,-4.0303566E-2,-8.516239E-3,-1.7196664E-1,-2.7472895E-2,-7.594191E-2,1.4194107E-1,-1.8467244E-2,2.8242576E-1,-1.1253327E-1,-1.9538203E-1,1.7915583E-1,4.5640618E-1,-1.5328467E-1,1.9994034E-1,-6.2457013E-1,3.302519E-1,-1.6867469E-1,-1.4807056E-1,1.03919365E-1,1.1932056E-1,-2.399368E-1,1.6655868E-1,9.1804355E-2,3.4305835E-1,-1.1143662E-2,-1.4766155E-1,3.5400993E-1,-5.221859E-1,-3.7234065E-1,-4.849413E-2,-2.0647895E-2,-2.8628904E-1,1.6641685E-1,1.2797785E-1,-1.3321045E-1,6.2278282E-2,-6.970833E-2,2.6543346E-1,1.2417717E-2,-7.5339586E-2,-1.5976332E-1,1.6466743E-1,5.840708E-1,1.5789473E-1,-9.090909E-3,4.3220338E-1,3.0170953E-1,-5.494505E-3,-1.5517241E-1,3.2255527E-1,2.5603867E-1,2.0505992E-1,-1.11801244E-1,3.8082904E-1,2.6572188E-3,2.1661238E-1,5.885167E-1,-5.0561797E-2,2.2923271E-1,4.4395277E-1,-6.798867E-2,2.9584774E-1,4.9315068E-1,2.6315792E-2,-9.8662205E-2,2.231405E-1,6.131387E-1,2.6315792E-2,2.4074075E-1,-1.5328467E-1,1.6709347E-1,4.5528454E-1,2.387268E-2,2.7126822E-1,-5.2845526E-2,2.858803E-1,3.7056655E-1,-5.1724136E-2,2.2287884E-1,3.7561664E-1,2.3598845E-1,2.6621866E-1,-4.1436464E-2,2.642487E-1,3.4795323E-1,-1.3483146E-1,3.109405E-1,4.616777E-2,1.1010487E-1,3.1016296E-1,1.8696883E-1,-1.17503054E-1,2.8723404E-1,-1.4876033E-1,-1.21621616E-1,3.4615386E-1,4.8734176E-1,2.6906955E-1,1.4075066E-1,2.7483198E-1],"split_indices":[212,345,138,558,511,120,411,694,404,327,490,438,404,555,115,560,573,151,192,8,443,496,37,721,386,406,386,468,639,633,739,0,287,0,185,615,624,0,230,599,241,564,251,0,324,59,95,276,319,190,722,72,329,613,159,183,721,530,717,38,732,0,301,0,0,0,0,0,0,0,0,0,0,0,0,0,0,0,0,0,0,0,0,0,0,0,0,0,0,0,0,0,0,0,0,0,0,0,0,0,0,0,0,0,0,0,0,0,0,0,0,0,0,0,0,0,0,0,0,0,0],"split_type":[0,0,0,0,0,0,0,0,0,0,0,0,0,0,0,0,0,0,0,0,0,0,0,0,0,0,0,0,0,0,0,0,0,0,0,0,0,0,0,0,0,0,0,0,0,0,0,0,0,0,0,0,0,0,0,0,0,0,0,0,0,0,0,0,0,0,0,0,0,0,0,0,0,0,0,0,0,0,0,0,0,0,0,0,0,0,0,0,0,0,0,0,0,0,0,0,0,0,0,0,0,0,0,0,0,0,0,0,0,0,0,0,0,0,0,0,0,0,0,0,0],"sum_hessian":[5.8708164E4,3.5131203E4,2.357696E4,3.486144E4,2.6976E2,2.291072E4,6.6624005E2,1.0249601E3,3.383648E4,2.1536002E2,5.4400005E1,1.767232E4,5.2384004E3,3.2608002E2,3.4016003E2,4.2880005E1,9.820801E2,3.3815363E4,2.112E1,8.9920006E1,1.2544001E2,4.1920002E1,1.24800005E1,1.73264E4,3.4592E2,5.1744004E3,6.400001E1,2.5024002E2,7.5840004E1,1.0112001E2,2.3904002E2,4.8E0,3.808E1,4.4800005E0,9.776001E2,3.3472003E2,3.348064E4,8.960001E0,1.2160001E1,8.000001E1,9.920001E0,1.0176001E2,2.3680002E1,3.2000003E0,3.872E1,5.76E0,6.7200003E0,1.6896E2,1.7157441E4,8.1600006E1,2.6432E2,2.6304E2,4.9113604E3,4.1920002E1,2.2080002E1,8.512E1,1.6512001E2,4.4800003E1,3.1040003E1,8.000001E0,9.312001E1,5.76E0,2.3328001E2,3.5200002E0,1.2800001E0,3.2000004E1,6.0800004E0,9.6768005E2,9.920001E0,4.8E0,3.2992E2,3.3031043E4,4.4960004E2,5.4400005E0,6.7200003E0,4.4160004E1,3.5840004E1,7.3600006E0,2.5600002E0,6.2080006E1,3.9680004E1,1.3120001E1,1.056E1,1.9200001E0,1.2800001E0,3.488E1,3.8400002E0,4.4800005E0,1.2800001E0,2.2400002E0,4.4800005E0,1.5520001E2,1.3760001E1,1.4080001E1,1.7143361E4,1.3760001E1,6.7840004E1,2.5952002E2,4.8E0,9.376001E1,1.6928001E2,2.15936E3,2.7520002E3,3.52E1,6.7200003E0,1.952E1,2.5600002E0,1.9840002E1,6.528001E1,4.0960003E1,1.2416001E2,1.3120001E1,3.1680002E1,2.7200003E1,3.8400002E0,6.4000006E0,1.6000001E0,4.64E1,4.6720005E1,7.3600006E1,1.5968001E2],"tree_param":{"num_deleted":"0","num_feature":"768","num_nodes":"121","size_leaf_vector":"0"}},{"base_weights":[-3.064548E-1,1.1089981E0,-3.0651763E-1,-3.0753553E-1,-2.1455815E-1,-3.0779734E-1,7.271769E-2,-2.6034808E-1,5.709557E-4,-3.0804807E-1,6.4715065E-2,-9.705376E-2,1.4305578E0,-2.8858218E-1,1.9027235E-1,5.654385E-1,-1.10210374E-1,-3.081921E-1,3.4771332E-1,-1.6144174E-1,1.024871E0,-3.8728762E-1,6.224465E-1,1.3193005E-1,1.8865215E0,-1.6101292E-1,-3.7147045E-1,8.8572866E-1,-1.4675274E-1,-2.5222104E-2,1.3961663E0,-1.7132612E-1,1.0748361E0,-3.0828172E-1,6.823047E-1,1.457579E0,-4.0709236E-1,-4.164655E-1,6.875709E-1,1.795435E0,-4.2035934E-1,4.455596E-1,-5.3634626E-1,-1.7460777E-1,1.4212815E0,1.4537462E-2,-3.287225E-1,3.536971E-1,-3.9690927E-1,1.7044815E0,1.860783E-2,3.7385067E-1,-4.8735726E-1,-4.382807E-1,1.242931E0,-3.284096E-1,1.7837497E0,-4.6068722E-1,5.2958637E-2,1.6550689E0,-3.2400113E-1],"categories":[],"categories_nodes":[],"categories_segments":[],"categories_sizes":[],"default_left":[1,0,1,1,1,1,1,1,1,1,1,1,1,1,1,1,1,1,1,1,1,1,1,0,0,1,1,1,1,1,1,1,1,0,0,0,0,0,0,0,0,0,0,0,0,0,0,0,0,0,0,0,0,0,0,0,0,0,0,0,0],"id":5,"left_children":[1,-1,3,5,7,9,11,13,15,17,19,21,23,25,27,29,31,33,35,37,39,41,43,-1,-1,45,47,49,51,53,55,57,59,-1,-1,-1,-1,-1,-1,-1,-1,-1,-1,-1,-1,-1,-1,-1,-1,-1,-1,-1,-1,-1,-1,-1,-1,-1,-1,-1,-1],"loss_changes":[5.1254883E0,0E0,4.9692383E0,5.319336E0,5.8343067E0,4.98584E0,8.764366E0,6.2677307E0,6.6288447E0,5.1259766E0,8.109885E0,7.3818574E0,2.2510185E0,4.8034363E0,7.019726E0,8.557633E0,6.5986047E0,4.925293E0,1.0762403E1,6.8847394E0,8.673533E0,3.3404207E0,6.750638E0,0E0,0E0,5.3897915E0,5.269123E0,6.8813305E0,3.845195E0,6.3766313E0,5.4220114E0,5.546406E0,4.1733212E0,0E0,0E0,0E0,0E0,0E0,0E0,0E0,0E0,0E0,0E0,0E0,0E0,0E0,0E0,0E0,0E0,0E0,0E0,0E0,0E0,0E0,0E0,0E0,0E0,0E0,0E0,0E0,0E0],"parents":[2147483647,0,0,2,2,3,3,4,4,5,5,6,6,7,7,8,8,9,9,10,10,11,11,12,12,13,13,14,14,15,15,16,16,17,17,18,18,19,19,20,20,21,21,22,22,25,25,26,26,27,27,28,28,29,29,30,30,31,31,32,32],"right_children":[2,-1,4,6,8,10,12,14,16,18,20,22,24,26,28,30,32,34,36,38,40,42,44,-1,-1,46,48,50,52,54,56,58,60,-1,-1,-1,-1,-1,-1,-1,-1,-1,-1,-1,-1,-1,-1,-1,-1,-1,-1,-1,-1,-1,-1,-1,-1,-1,-1,-1,-1],"split_conditions":[-6.3272834E-1,3.3269942E-1,2.3354456E-1,6.491903E-1,1.0976066E-1,2.8250977E-1,4.582435E-1,1.039117E-1,-1.20090924E-1,6.616548E-2,1.4150776E-1,-5.599307E-1,-2.4551499E-1,-8.242619E-2,-5.2011956E-2,-1.9556891E-2,2.860601E-1,2.5699383E-1,3.1844173E-2,3.2706082E-1,1.3495351E-1,-1.7252445E-1,-2.899335E-1,3.957902E-2,5.659565E-1,-2.9688617E-2,-3.7610188E-1,9.708769E-2,4.3178573E-2,-9.273352E-2,-3.441959E-1,-8.818166E-2,3.7806544E-2,-9.248452E-2,2.0469141E-1,4.372737E-1,-1.2212771E-1,-1.2493965E-1,2.0627129E-1,5.386305E-1,-1.2610781E-1,1.3366789E-1,-1.6090389E-1,-5.238233E-2,4.2638445E-1,4.361239E-3,-9.861676E-2,1.06109135E-1,-1.1907279E-1,5.113445E-1,5.5823494E-3,1.1215521E-1,-1.4620718E-1,-1.3148421E-1,3.7287933E-1,-9.852289E-2,5.3512496E-1,-1.3820617E-1,1.5887592E-2,4.9652067E-1,-9.720034E-2],"split_indices":[105,0,236,437,440,112,674,3,212,563,1,703,9,210,117,618,658,247,260,377,114,660,482,0,0,171,690,565,514,500,137,25,34,0,0,0,0,0,0,0,0,0,0,0,0,0,0,0,0,0,0,0,0,0,0,0,0,0,0,0,0],"split_type":[0,0,0,0,0,0,0,0,0,0,0,0,0,0,0,0,0,0,0,0,0,0,0,0,0,0,0,0,0,0,0,0,0,0,0,0,0,0,0,0,0,0,0,0,0,0,0,0,0,0,0,0,0,0,0,0,0,0,0,0,0],"sum_hessian":[5.3796703E4,1.6048334E0,5.3795098E4,5.3203844E4,5.9125543E2,5.3167426E4,3.6417286E1,4.873199E2,1.0393555E2,5.313184E4,3.5585686E1,3.3195374E1,3.2219112E0,4.5892505E2,2.8394827E1,1.6368652E1,8.7566895E1,5.31207E4,1.1138753E1,2.9474962E1,6.1107254E0,2.3982841E1,9.212533E0,1.1723344E0,2.0495768E0,1.8190562E2,2.7701944E2,8.737267E0,1.965756E1,1.0133331E1,6.2353196E0,8.408581E1,3.481084E0,5.3116582E4,4.116767E0,4.131999E0,7.0067534E0,2.3058264E1,6.4166975E0,3.827612E0,2.2831135E0,3.3387606E0,2.0644081E1,5.002553E0,4.2099795E0,8.932148E1,9.258414E1,8.951152E0,2.680683E2,3.9972777E0,4.7399893E0,7.735887E0,1.1921673E1,8.137279E0,1.9960529E0,1.1722033E0,5.0631166E0,3.6256035E1,4.7829777E1,2.3310132E0,1.1500708E0],"tree_param":{"num_deleted":"0","num_feature":"768","num_nodes":"61","size_leaf_vector":"0"}},{"base_weights":[-2.1699446E-1,-2.1995139E-1,-1.8085521E-1,5.837758E-1,-2.2010054E-1,-1.821373E-1,9.515088E-1,-4.563787E-1,1.108714E0,-5.200853E-2,-2.2076339E-1,-1.8404871E-1,6.0087967E-1,-3.6459023E-1,1.6349328E0,4.4514056E-2,1.9398894E0,5.383614E-1,-1.21664844E-1,-2.1756057E-1,-2.5414318E-1,-1.85815E-1,5.953713E-1,1.4484684E0,-3.309853E-1,-3.879929E-1,5.610875E-1,-3.1571355E-1,1.0519464E0,1.2389553E0,-1.5236819E-1,2.079086E-3,-2.181812E-1,1.0398597E0,-2.554336E-1,-1.7186698E-1,-2.8071964E-1,1.5526736E0,-3.2857534E-1,4.3578234E-2,1.9344944E0,1.4361241E-1,-4.8003724E-1,-5.3220665E-1,5.7899326E-1,1.0853639E-1,1.6604494E0,7.228072E-2,1.757578E0,-2.7383518E-1,1.6649218E-1,1.0576787E0,-8.390505E-2,2.9175121E-2,-2.1874379E-1,1.6113139E0,-3.3098662E-1,6.3607824E-1,-2.570918E-1,8.37228E-1,-1.738659E-1,-2.8888702E-1,1.20103E0,1.9858302E0,1.1967932E-1,-4.775696E-1,1.4100587E-1],"categories":[],"categories_nodes":[],"categories_segments":[],"categories_sizes":[],"default_left":[1,1,1,1,1,1,1,0,1,1,1,1,1,0,0,1,0,1,1,1,1,1,1,1,1,0,0,1,1,1,1,1,1,1,1,1,1,1,1,0,0,0,0,0,0,0,0,0,0,0,0,0,0,0,0,0,0,0,0,0,0,0,0,0,0,0,0],"id":6,"left_children":[1,3,5,7,9,11,13,-1,15,17,19,21,23,-1,-1,25,-1,27,29,31,33,35,37,39,41,-1,-1,43,45,47,49,51,53,55,57,59,61,63,65,-1,-1,-1,-1,-1,-1,-1,-1,-1,-1,-1,-1,-1,-1,-1,-1,-1,-1,-1,-1,-1,-1,-1,-1,-1,-1,-1,-1],"loss_changes":[5.8361816E0,6.220703E0,6.219055E0,5.8039722E0,5.6501465E0,6.3374634E0,4.976684E0,0E0,5.875556E0,8.327221E0,5.355957E0,5.825424E0,8.666774E0,0E0,0E0,1.1067438E0,0E0,9.713194E0,7.7299376E0,6.296631E0,7.6549683E0,5.4353027E0,9.02232E0,3.7492838E0,4.7579575E-1,0E0,0E0,2.0127485E0,7.6193027E0,2.3495421E0,6.91736E0,1.1991589E1,6.4160156E0,4.1414123E0,6.700226E0,7.435898E0,6.7516937E0,2.8045683E0,4.6771592E-1,0E0,0E0,0E0,0E0,0E0,0E0,0E0,0E0,0E0,0E0,0E0,0E0,0E0,0E0,0E0,0E0,0E0,0E0,0E0,0E0,0E0,0E0,0E0,0E0,0E0,0E0,0E0,0E0],"parents":[2147483647,0,0,1,1,2,2,3,3,4,4,5,5,6,6,8,8,9,9,10,10,11,11,12,12,15,15,17,17,18,18,19,19,20,20,21,21,22,22,23,23,24,24,27,27,28,28,29,29,30,30,31,31,32,32,33,33,34,34,35,35,36,36,37,37,38,38],"right_children":[2,4,6,8,10,12,14,-1,16,18,20,22,24,-1,-1,26,-1,28,30,32,34,36,38,40,42,-1,-1,44,46,48,50,52,54,56,58,60,62,64,66,-1,-1,-1,-1,-1,-1,-1,-1,-1,-1,-1,-1,-1,-1,-1,-1,-1,-1,-1,-1,-1,-1,-1,-1,-1,-1,-1,-1],"split_conditions":[9.117324E-2,-4.4630754E-1,7.7268195E-1,-1.5519138E-1,-4.0365505E-1,2.225534E-1,2.622147E-1,-1.3691361E-1,-2.6888558E-1,2.3351917E-1,2.7285856E-1,4.7352195E-1,-7.159527E-2,-1.0937707E-1,4.9047986E-1,3.146444E-1,5.819669E-1,1.8950516E-1,-2.6130432E-1,-1.2633565E-2,-4.8275363E-1,-2.5266152E-2,-3.766957E-1,-2.6036762E-2,-1.4394414E-1,-1.1639787E-1,1.6832626E-1,7.5712265E-3,-3.8949255E-2,-7.480173E-2,-1.4492813E-1,-1.4454761E-1,-9.992519E-2,7.497336E-2,-2.6805148E-1,-3.350987E-1,2.2543195E-1,1.018326E-1,-1.58995E-1,1.307347E-2,5.803483E-1,4.3083727E-2,-1.4401118E-1,-1.5966201E-1,1.7369798E-1,3.256092E-2,4.9813482E-1,2.1684216E-2,5.272734E-1,-8.2150556E-2,4.9947657E-2,3.1730363E-1,-2.5171516E-2,8.752537E-3,-6.562314E-2,4.833942E-1,-9.929599E-2,1.9082348E-1,-7.712754E-2,2.511684E-1,-5.215977E-2,-8.666611E-2,3.60309E-1,5.957491E-1,3.5903797E-2,-1.432709E-1,4.2301763E-2],"split_indices":[197,169,420,690,147,644,194,0,618,555,610,447,566,0,0,60,0,30,53,20,334,189,307,112,211,0,0,382,394,270,373,46,497,548,145,79,355,51,222,0,0,0,0,0,0,0,0,0,0,0,0,0,0,0,0,0,0,0,0,0,0,0,0,0,0,0,0],"split_type":[0,0,0,0,0,0,0,0,0,0,0,0,0,0,0,0,0,0,0,0,0,0,0,0,0,0,0,0,0,0,0,0,0,0,0,0,0,0,0,0,0,0,0,0,0,0,0,0,0,0,0,0,0,0,0,0,0,0,0,0,0,0,0,0,0,0,0],"sum_hessian":[5.4985184E4,5.0821832E4,4.1633525E3,8.702959E0,5.081313E4,4.159482E3,3.8702936E0,2.962812E0,5.740147E0,1.9990271E2,5.0613227E4,4.150116E3,9.365858E0,1.482296E0,2.3879976E0,2.9792297E0,2.7609177E0,2.0386738E1,1.7951598E2,4.6188883E4,4.4243423E3,4.1414927E3,8.623726E0,4.6144004E0,4.751458E0,1.7570393E0,1.2221904E0,7.8003263E0,1.25864105E1,3.09309E0,1.7642288E2,1.301394E2,4.6058742E4,3.6058192E0,4.420737E3,3.6132659E3,5.2822675E2,3.9012039E0,4.722522E0,1.4661264E0,3.148274E0,1.1443179E0,3.60714E0,6.606827E0,1.1934996E0,5.3971505E0,7.18926E0,1.3024707E0,1.7906194E0,1.278578E2,4.856508E1,8.950924E0,1.2118848E2,1.04402145E2,4.595434E4,2.4211268E0,1.1846925E0,7.496995E0,4.4132397E3,6.317311E0,3.6069485E3,5.261317E2,2.095002E0,2.6994424E0,1.2017615E0,3.5721095E0,1.1504126E0],"tree_param":{"num_deleted":"0","num_feature":"768","num_nodes":"67","size_leaf_vector":"0"}},{"base_weights":[-1.7693616E-1,-1.7748171E-1,3.0372873E-2,-1.6725889E-1,-1.8837784E-1,-3.3674625E-1,1.2621967E-1,-1.6831939E-1,5.417098E-2,-1.8234931E-1,-2.2919387E-1,3.6844766E-1,-4.4394436E-1,2.7214226E-1,-1.8623158E-1,4.3798405E-1,-1.6869049E-1,2.3127055E-1,-2.9806143E-1,-1.8258785E-1,1.1517122E0,2.4257322E-1,-2.3356491E-1,9.529795E-1,-3.8409624E-1,-1.1001361E-1,-5.7951057E-1,9.557444E-1,1.6782571E-1,6.5168613E-1,-3.8026074E-1,1.0845655E0,-2.339962E-1,7.480169E-1,-1.6893469E-1,8.284135E-3,6.731534E-1,-3.9271393E-1,8.7609494E-1,1.0228971E0,-1.8281999E-1,1.1721008E-1,1.5162696E0,-1.6240835E-1,9.4890845E-1,-2.3501448E-1,1.1461084E0,-2.8955775E-1,6.520475E-1,-3.8601926E-1,1.2687626E0,1.0140672E-1,1.2618109E0,1.3717319E0,-2.2869955E-1,4.0883946E-1,-4.8818353E-1,1.6931967E0,-4.349324E-1,-5.402918E-1,1.0125556E0,1.3664224E0,-4.347486E-1,-1.89046E-1,-1.581649E-1,-9.543556E-2,1.5246772E0,-4.756702E-2,1.1645705E0,-4.5502827E-1,6.70796E-1,-3.3654252E-1,1.5840764E0,1.5923193E0,-3.342701E-1,-1.8311727E-1,7.0261675E-1,-3.6983976E-1,1.0318401E0,1.412961E0,-4.4834358E-1,2.4990153E-2,-2.4174123E-1,1.6062925E0,1.09273076E-1,-2.6667176E-2,1.5793091E0,2.4456349E-1,-3.8793516E-1,-4.1418478E-1,1.4550602E-1,-3.9181432E-1,1.0430932E0,2.4742478E-1,-5.908761E-1],"categories":[],"categories_nodes":[],"categories_segments":[],"categories_sizes":[],"default_left":[1,1,1,1,1,1,1,1,1,1,1,1,1,1,1,1,1,1,1,1,1,1,1,0,0,1,0,1,1,1,1,1,1,1,1,1,1,1,1,1,1,0,0,1,1,1,1,0,0,0,1,1,0,0,1,1,1,0,0,0,0,0,0,0,0,0,0,0,0,0,0,0,0,0,0,0,0,0,0,0,0,0,0,0,0,0,0,0,0,0,0,0,0,0,0],"id":7,"left_children":[1,3,5,7,9,11,13,15,17,19,21,23,25,27,29,31,33,35,37,39,41,43,45,-1,-1,47,-1,49,51,53,55,57,59,61,63,65,67,69,71,73,75,-1,-1,77,79,81,83,-1,-1,-1,85,87,-1,-1,89,91,93,-1,-1,-1,-1,-1,-1,-1,-1,-1,-1,-1,-1,-1,-1,-1,-1,-1,-1,-1,-1,-1,-1,-1,-1,-1,-1,-1,-1,-1,-1,-1,-1,-1,-1,-1,-1,-1,-1],"loss_changes":[6.286743E0,6.138916E0,5.2019014E0,6.7227173E0,6.5543213E0,2.4789476E0,5.3850803E0,6.476074E0,8.616844E0,7.6447144E0,7.1625214E0,2.3842373E0,1.1603622E0,5.5557914E0,6.399861E0,7.9370017E0,6.4921265E0,9.034531E0,5.4878025E0,6.723755E0,1.4490218E0,9.34347E0,7.0987244E0,0E0,0E0,1.4259931E0,0E0,4.857563E0,5.0134892E0,5.0574894E0,2.8699913E0,9.234934E0,4.1719637E0,6.2680225E0,6.1279297E0,9.895041E0,1.0948995E1,3.1894393E0,3.7630544E0,4.1249824E0,6.27594E0,0E0,0E0,5.651166E0,8.31889E0,5.973648E0,1.6157341E0,0E0,0E0,0E0,3.528246E0,4.84418E0,0E0,0E0,3.5344392E-1,2.6008604E0,2.2643766E0,0E0,0E0,0E0,0E0,0E0,0E0,0E0,0E0,0E0,0E0,0E0,0E0,0E0,0E0,0E0,0E0,0E0,0E0,0E0,0E0,0E0,0E0,0E0,0E0,0E0,0E0,0E0,0E0,0E0,0E0,0E0,0E0,0E0,0E0,0E0,0E0,0E0,0E0],"parents":[2147483647,0,0,1,1,2,2,3,3,4,4,5,5,6,6,7,7,8,8,9,9,10,10,11,11,12,12,13,13,14,14,15,15,16,16,17,17,18,18,19,19,20,20,21,21,22,22,25,25,27,27,28,28,29,29,30,30,31,31,32,32,33,33,34,34,35,35,36,36,37,37,38,38,39,39,40,40,43,43,44,44,45,45,46,46,50,50,51,51,54,54,55,55,56,56],"right_children":[2,4,6,8,10,12,14,16,18,20,22,24,26,28,30,32,34,36,38,40,42,44,46,-1,-1,48,-1,50,52,54,56,58,60,62,64,66,68,70,72,74,76,-1,-1,78,80,82,84,-1,-1,-1,86,88,-1,-1,90,92,94,-1,-1,-1,-1,-1,-1,-1,-1,-1,-1,-1,-1,-1,-1,-1,-1,-1,-1,-1,-1,-1,-1,-1,-1,-1,-1,-1,-1,-1,-1,-1,-1,-1,-1,-1,-1,-1,-1],"split_conditions":[4.5757896E-1,-1.2460455E-1,-2.5601742E-1,7.137766E-1,-5.3966828E-2,-8.60333E-2,-3.3325404E-2,-6.1520964E-1,3.6750746E-1,1.6555342E-1,-4.6465358E-1,-1.1215799E-2,-3.7136823E-1,-1.6150965E-1,-8.503702E-2,5.1969595E-2,-1.3096835E-1,2.1313363E-1,3.541483E-1,-4.0530187E-1,-8.103014E-2,-1.278699E-1,6.38804E-1,2.8589386E-1,-1.1522888E-1,-5.155051E-1,-1.7385317E-1,1.0764534E-2,-1.2793481E-1,-1.8727301E-1,-5.7880306E-1,-4.3376576E-2,2.6521308E-2,-1.1301239E-1,-2.3291877E-1,4.9147293E-2,-1.4508148E-1,2.9907227E-1,-2.1956928E-1,6.261735E-2,6.200872E-1,3.5163026E-2,4.548809E-1,1.4772204E-1,-5.9050746E-2,-1.3589399E-1,1.382164E-1,-8.686733E-2,1.9561426E-1,-1.1580578E-1,1.1338286E-1,-1.6531602E-1,3.785433E-1,4.115196E-1,-1.5583812E-1,-1.9440188E-1,-1.3012946E-2,5.07959E-1,-1.3047972E-1,-1.6208754E-1,3.037667E-1,4.0992674E-1,-1.3042459E-1,-5.67138E-2,-4.7449473E-2,-2.8630668E-2,4.5740315E-1,-1.4270107E-2,3.4937114E-1,-1.3650848E-1,2.012388E-1,-1.0096276E-1,4.7522295E-1,4.776958E-1,-1.0028103E-1,-5.4935183E-2,2.1078503E-1,-1.1095193E-1,3.0955204E-1,4.2388833E-1,-1.3450308E-1,7.497046E-3,-7.252237E-2,4.8188776E-1,3.2781925E-2,-8.000153E-3,4.7379276E-1,7.336905E-2,-1.1638055E-1,-1.2425544E-1,4.3651808E-2,-1.175443E-1,3.1292796E-1,7.422744E-2,-1.7726284E-1],"split_indices":[271,455,372,429,478,544,295,325,760,326,49,76,588,436,546,268,225,512,165,161,21,360,177,0,0,40,0,228,461,482,615,666,450,222,619,224,356,304,25,51,127,0,0,26,5,514,0,0,0,0,206,248,0,0,214,49,704,0,0,0,0,0,0,0,0,0,0,0,0,0,0,0,0,0,0,0,0,0,0,0,0,0,0,0,0,0,0,0,0,0,0,0,0,0,0],"split_type":[0,0,0,0,0,0,0,0,0,0,0,0,0,0,0,0,0,0,0,0,0,0,0,0,0,0,0,0,0,0,0,0,0,0,0,0,0,0,0,0,0,0,0,0,0,0,0,0,0,0,0,0,0,0,0,0,0,0,0,0,0,0,0,0,0,0,0,0,0,0,0,0,0,0,0,0,0,0,0,0,0,0,0,0,0,0,0,0,0,0,0,0,0,0,0],"sum_hessian":[5.5539832E4,5.5394207E4,1.4562712E2,2.8588576E4,2.6805629E4,2.9628521E1,1.15998604E2,2.8452547E4,1.360292E2,2.3360713E4,3.4449165E3,3.5880115E0,2.6040508E1,7.915857E1,3.6840034E1,1.6683302E1,2.8435865E4,9.0746185E1,4.5283024E1,2.33574E4,3.3134227E0,3.1124702E1,3.4137917E3,1.869528E0,1.7184834E0,8.042209E0,1.79983E1,9.399602E0,6.975897E1,6.483263E0,3.035677E1,8.189426E0,8.4938755E0,6.757383E0,2.8429107E4,6.0988453E1,2.975773E1,4.252082E1,2.7622037E0,3.6489542E0,2.335375E4,1.2077401E0,2.1056828E0,2.0271807E1,1.0852895E1,3.4110376E3,2.754195E0,7.010536E0,1.0316725E0,1.7339115E0,7.6656904E0,6.679627E1,2.9626992E0,3.2593873E0,3.2238758E0,3.316828E0,2.7039942E1,5.7656837E0,2.4237435E0,7.273294E0,1.2205813E0,4.3353696E0,2.422013E0,9.908883E3,1.8520225E4,5.7961044E1,3.0274107E0,1.2430362E1,1.7327368E1,4.070777E1,1.8130498E0,1.2116032E0,1.5506004E0,2.4484143E0,1.2005398E0,2.3346705E4,7.045064E0,1.7859985E1,2.4118211E0,8.138658E0,2.7142372E0,8.5955086E1,3.3250825E3,1.5271609E0,1.2270342E0,1.6590734E0,6.006617E0,5.2064922E1,1.4731351E1,2.084031E0,1.1398447E0,1.635053E0,1.6817751E0,3.1397657E0,2.3900175E1],"tree_param":{"num_deleted":"0","num_feature":"768","num_nodes":"95","size_leaf_vector":"0"}},{"base_weights":[-3.8895298E-2,-3.915966E-2,5.4131913E-1,-2.1254729E-1,-3.83745E-2,1.4414778E0,1.0232877E-1,-2.3997554E-1,4.5352829E-1,6.776277E-1,-3.857256E-2,-3.7952897E-1,1.9060925E0,-2.6299056E-1,7.54998E-1,-3.0449936E-1,3.5717532E-2,-2.095424E-1,1.1237028E0,-4.5848966E-1,9.5783025E-1,4.8570237E-1,-3.882521E-2,5.331529E-1,2.1179621E0,-5.5709034E-1,5.2182776E-1,-1.6169977E-1,1.3093861E0,-3.351706E-1,5.55417E-1,-1.3647984E-1,8.543527E-1,-4.77045E-1,3.380283E-1,1.5943167E0,-3.2630745E-1,3.7903887E-1,2.0008233E0,8.4391075E-1,-2.5240842E-1,-3.7506774E-2,-1.358393E-1,1.0693643E0,-5.9396837E-2,9.87821E-2,-3.4893218E-1,1.6643336E0,3.9914653E-1,2.969169E-1,-3.7272644E-1,1.2144984E0,-4.4295713E-1,-5.7301897E-1,1.04138196E-1,-4.103268E-1,1.3207633E0,-1.5029006E-1,1.6646624E0,-1.1705921E-1,1.3248378E0,-5.462541E-1,7.878904E-1,3.9532652E-1,-3.782656E-2,2.1463361E-1,-1.6181521E-1],"categories":[],"categories_nodes":[],"categories_segments":[],"categories_sizes":[],"default_left":[1,1,1,1,1,1,1,1,1,1,1,0,1,1,1,1,1,1,1,0,1,1,1,0,0,0,1,1,1,1,1,1,1,0,0,0,0,1,0,1,1,1,1,0,0,0,0,0,0,0,0,0,0,0,0,0,0,0,0,0,0,0,0,0,0,0,0],"id":8,"left_children":[1,3,5,7,9,11,13,15,17,19,21,-1,23,25,27,29,31,33,35,-1,37,39,41,-1,-1,-1,43,45,47,49,51,53,55,-1,-1,-1,-1,57,-1,59,61,63,65,-1,-1,-1,-1,-1,-1,-1,-1,-1,-1,-1,-1,-1,-1,-1,-1,-1,-1,-1,-1,-1,-1,-1,-1],"loss_changes":[8.853577E0,7.82753E0,1.0241949E1,4.8450537E0,8.1519165E0,7.9508114E0,4.669017E0,4.4517593E0,4.9454746E0,5.500725E0,7.606598E0,0E0,8.988266E-1,3.236491E0,3.7624686E0,5.5245037E0,6.9170523E0,1.0651155E0,4.2246485E0,0E0,7.136402E0,7.5278645E0,7.3185425E0,0E0,0E0,0E0,1.3349735E0,2.0629236E-1,7.7785254E-1,4.76478E0,5.3723707E0,4.3368516E0,5.5685325E0,0E0,0E0,0E0,0E0,6.813291E0,0E0,8.869878E0,3.428974E0,7.8341675E0,7.020342E0,0E0,0E0,0E0,0E0,0E0,0E0,0E0,0E0,0E0,0E0,0E0,0E0,0E0,0E0,0E0,0E0,0E0,0E0,0E0,0E0,0E0,0E0,0E0,0E0],"parents":[2147483647,0,0,1,1,2,2,3,3,4,4,5,5,6,6,7,7,8,8,9,9,10,10,12,12,13,13,14,14,15,15,16,16,17,17,18,18,20,20,21,21,22,22,26,26,27,27,28,28,29,29,30,30,31,31,32,32,37,37,39,39,40,40,41,41,42,42],"right_children":[2,4,6,8,10,12,14,16,18,20,22,-1,24,26,28,30,32,34,36,-1,38,40,42,-1,-1,-1,44,46,48,50,52,54,56,-1,-1,-1,-1,58,-1,60,62,64,66,-1,-1,-1,-1,-1,-1,-1,-1,-1,-1,-1,-1,-1,-1,-1,-1,-1,-1,-1,-1,-1,-1,-1,-1],"split_conditions":[6.258526E-1,-4.0078145E-1,-3.7407455E0,3.364178E-1,-5.8232903E-1,-3.1811777E-1,-3.126896E-1,3.2660192E-1,7.343353E-2,-3.7776953E-1,-1.953362E-1,-1.1385869E-1,-2.7337334E-1,2.3841038E-1,-4.4161013E-1,5.614158E-1,-8.50767E-3,1.8981174E-1,3.1705663E-1,-1.375469E-1,1.4202282E-1,-8.411837E-2,3.4657645E-1,1.5994588E-1,6.353887E-1,-1.671271E-1,5.004233E-1,-3.392256E-1,5.709479E-1,-1.9791916E-2,-2.5939232E-1,8.056316E-2,-4.0444088E-1,-1.4311351E-1,1.014085E-1,4.7829503E-1,-9.789224E-2,3.7976694E-1,6.00247E-1,-1.6636966E-1,9.9628486E-2,-3.433045E-1,9.0368226E-2,3.208093E-1,-1.7819053E-2,2.963463E-2,-1.0467966E-1,4.993001E-1,1.19743966E-1,8.907507E-2,-1.1181793E-1,3.6434954E-1,-1.3288714E-1,-1.719057E-1,3.124146E-2,-1.23098046E-1,3.9622903E-1,-4.5087017E-2,4.9939874E-1,-3.5117764E-2,3.9745137E-1,-1.6387624E-1,2.3636712E-1,1.1859796E-1,-1.1347968E-2,6.4390086E-2,-4.8544567E-2],"split_indices":[543,510,308,700,608,52,88,404,582,57,708,0,691,363,693,89,764,34,637,0,711,240,711,0,0,0,2,11,13,135,368,135,577,0,0,0,0,20,0,443,319,493,437,0,0,0,0,0,0,0,0,0,0,0,0,0,0,0,0,0,0,0,0,0,0,0,0],"split_type":[0,0,0,0,0,0,0,0,0,0,0,0,0,0,0,0,0,0,0,0,0,0,0,0,0,0,0,0,0,0,0,0,0,0,0,0,0,0,0,0,0,0,0,0,0,0,0,0,0,0,0,0,0,0,0,0,0,0,0,0,0,0,0,0,0,0,0],"sum_hessian":[5.758164E4,5.755635E4,2.52917E1,2.582446E2,5.7298105E4,7.5423465E0,1.7749355E1,2.4864539E2,9.599228E0,1.4899736E1,5.7283207E4,1.5704135E0,5.971933E0,1.1762545E1,5.9868097E0,2.0140388E2,4.7241497E1,5.170684E0,4.4285436E0,2.8218608E0,1.2077876E1,2.6666128E1,5.725654E4,1.2684765E0,4.7034564E0,8.767291E0,2.995254E0,2.5231051E0,3.4637043E0,1.9505688E2,6.347003E0,3.9719837E1,7.521661E0,3.5602205E0,1.6104634E0,3.2682743E0,1.1602693E0,8.644289E0,3.433587E0,1.7856804E1,8.809324E0,5.6490215E4,7.663249E2,1.1098677E0,1.8853865E0,1.2527127E0,1.2703924E0,1.895931E0,1.5677735E0,1.055213E1,1.8450476E2,3.6927443E0,2.6542587E0,1.3622993E1,2.6096842E1,2.0589724E0,5.4626884E0,6.7487354E0,1.895553E0,6.208271E0,1.1648533E1,7.239376E0,1.5699477E0,4.0793545E1,5.644942E4,5.237717E1,7.1394775E2],"tree_param":{"num_deleted":"0","num_feature":"768","num_nodes":"67","size_leaf_vector":"0"}},{"base_weights":[5.778306E-1,5.9734654E-1,5.693392E-1,4.6695474E-1,6.02012E-1,9.4560444E-1,5.6859E-1,5.068569E-1,1.0860951E-1,5.982581E-1,7.710862E-1,3.5921834E-2,1.0670743E0,1.024925E0,5.6797844E-1,5.2690303E-1,-2.0929621E-1,6.249401E-1,-1.609548E-1,6.007316E-1,3.740791E-1,7.9563177E-1,-2.4960393E-1,-3.7976885E-1,9.7855544E-1,-9.7060375E-2,1.1474006E0,5.7673717E-1,1.5374184E0,2.1675593E-1,5.686317E-1,4.8798496E-1,9.730356E-1,8.249593E-1,-3.4415478E-1,1.171483E0,-5.696732E-3,1.1430906E0,-2.584178E-1,9.042821E-1,5.990251E-1,5.105658E-1,6.4336516E-2,6.908551E-1,1.0295975E0,9.5901084E-1,-5.969635E-1,3.845354E-1,-5.8075523E-1,1.3069805E0,9.3309745E-2,7.856685E-1,-5.3650165E-1,2.0964067E-1,1.2623233E0,9.556018E-1,1.8048977E-2,1.6507716E0,-8.393489E-2,3.5648814E-1,-4.0056464E-1,9.0228873E-1,5.679573E-1,4.445624E-1,9.015318E-1,1.156398E0,-1.0902062E-1,-4.884808E-1,3.2538736E-1,9.160155E-2,1.5688703E0,-3.3981946E-1,1.2770759E0,1.3258116E-1,-4.8478666E-1,3.1680863E-2,9.912116E-1,2.7289268E-1,6.006934E-1,2.5688922E-1,8.2798004E-1,2.56712E-1,-6.253807E-1,9.0295595E-1,5.453274E-1,1.1743176E0,2.838206E-1,-2.7886906E-1,9.7121656E-1,-4.0299895E-1,1.3049228E0,1.1160502E0,-4.4157085E-1,-4.1113046E-1,7.1123224E-1,1.7490749E0,-1.006718E-2,8.588696E-1,8.290256E-2,-5.653177E-1,1.0359994E0,-2.0321405E-2,1.0195897E0,5.687437E-1,2.887296E-1],"categories":[],"categories_nodes":[],"categories_segments":[],"categories_sizes":[],"default_left":[1,1,1,1,1,1,1,1,1,1,1,1,1,1,1,1,1,1,1,1,1,1,1,1,1,1,1,1,1,1,1,1,1,0,1,1,1,0,1,1,1,1,1,1,1,0,0,0,0,0,0,0,0,1,1,1,1,1,0,1,1,1,1,0,0,0,0,0,0,0,0,0,0,0,0,0,0,0,0,0,0,0,0,0,0,0,0,0,0,0,0,0,0,0,0,0,0,0,0,0,0,0,0,0,0],"id":9,"left_children":[1,3,5,7,9,11,13,15,17,19,21,23,25,27,29,31,33,35,37,39,41,43,45,47,49,51,53,55,57,59,61,63,65,-1,67,69,71,-1,73,75,77,79,81,83,85,-1,-1,-1,-1,-1,-1,-1,-1,87,89,91,93,95,-1,97,99,101,103,-1,-1,-1,-1,-1,-1,-1,-1,-1,-1,-1,-1,-1,-1,-1,-1,-1,-1,-1,-1,-1,-1,-1,-1,-1,-1,-1,-1,-1,-1,-1,-1,-1,-1,-1,-1,-1,-1,-1,-1,-1,-1],"loss_changes":[1.1269531E1,1.2628906E1,1.3231445E1,1.0491058E1,1.2540527E1,1.0520325E1,1.3021484E1,9.63385E0,1.056329E1,1.0890625E1,1.125946E1,5.187834E0,7.99086E0,1.3813614E1,1.1046875E1,1.0734543E1,2.9031835E0,8.964265E0,6.673423E0,9.727539E0,9.3271885E0,9.86319E0,5.244651E0,1.644268E0,1.0529335E0,2.8889706E0,8.238647E0,7.5481997E0,5.515671E0,8.078953E0,1.0423828E1,1.0298325E1,1.0204029E1,0E0,1.8324738E0,5.8330383E0,6.032103E0,0E0,4.2692533E0,8.226601E0,1.0563965E1,1.2150436E1,9.297801E0,8.7977295E0,1.3847015E1,0E0,0E0,0E0,0E0,0E0,0E0,0E0,0E0,3.9216444E0,5.4981537E0,5.263136E0,4.892547E0,4.490135E0,0E0,1.031284E1,4.7162457E0,1.044606E1,1.0485352E1,0E0,0E0,0E0,0E0,0E0,0E0,0E0,0E0,0E0,0E0,0E0,0E0,0E0,0E0,0E0,0E0,0E0,0E0,0E0,0E0,0E0,0E0,0E0,0E0,0E0,0E0,0E0,0E0,0E0,0E0,0E0,0E0,0E0,0E0,0E0,0E0,0E0,0E0,0E0,0E0,0E0,0E0],"parents":[2147483647,0,0,1,1,2,2,3,3,4,4,5,5,6,6,7,7,8,8,9,9,10,10,11,11,12,12,13,13,14,14,15,15,16,16,17,17,18,18,19,19,20,20,21,21,22,22,23,23,24,24,25,25,26,26,27,27,28,28,29,29,30,30,31,31,32,32,34,34,35,35,36,36,38,38,39,39,40,40,41,41,42,42,43,43,44,44,53,53,54,54,55,55,56,56,57,57,59,59,60,60,61,61,62,62],"right_children":[2,4,6,8,10,12,14,16,18,20,22,24,26,28,30,32,34,36,38,40,42,44,46,48,50,52,54,56,58,60,62,64,66,-1,68,70,72,-1,74,76,78,80,82,84,86,-1,-1,-1,-1,-1,-1,-1,-1,88,90,92,94,96,-1,98,100,102,104,-1,-1,-1,-1,-1,-1,-1,-1,-1,-1,-1,-1,-1,-1,-1,-1,-1,-1,-1,-1,-1,-1,-1,-1,-1,-1,-1,-1,-1,-1,-1,-1,-1,-1,-1,-1,-1,-1,-1,-1,-1,-1],"split_conditions":[-2.0987755E-1,8.0561094E-2,-3.101072E-1,3.7942016E-1,-1.6845511E-1,2.2140954E-2,-2.976802E-1,2.3093987E-1,-2.6379192E-1,2.2819471E-1,9.922436E-2,3.260955E-2,-2.1303844E-1,-2.888866E-1,-2.2693115E-1,3.8031626E-1,-3.909221E-2,1.3246453E-1,-8.079094E-2,-6.3834214E-1,-8.69461E-2,-6.475514E-2,3.4226933E-3,-2.2164059E-1,3.1296414E-1,-2.0189324E-1,-1.303359E-1,-1.766239E-2,4.8634923E-1,2.3141457E-3,-1.8507753E-1,1.9297399E-1,4.2851222E-1,2.474878E-1,1.9670306E-1,-1.2573297E-1,1.7674427E-2,3.429272E-1,-1.830535E-1,-3.251083E-1,-6.1380947E-1,4.327396E-2,1.3381568E-1,-2.9718316E-1,3.3421236E-1,2.8770328E-1,-1.7908907E-1,1.15360625E-1,-1.7422658E-1,3.9209417E-1,2.7992925E-2,2.3570056E-1,-1.609505E-1,-1.4477988E-1,-2.8265249E-2,2.3302762E-1,2.0389599E-1,8.203943E-2,-2.5180468E-2,5.1288567E-2,2.841698E-1,-2.661338E-1,1.2640342E-2,1.3336873E-1,2.7045956E-1,3.4691942E-1,-3.2706186E-2,-1.4654425E-1,9.761621E-2,2.7480466E-2,4.706611E-1,-1.0194584E-1,3.8312277E-1,3.977435E-2,-1.45436E-1,9.50426E-3,2.973635E-1,8.186781E-2,1.8020803E-1,7.706677E-2,2.4839403E-1,7.70136E-2,-1.8761422E-1,2.708868E-1,1.6359824E-1,3.5229528E-1,8.514618E-2,-8.366072E-2,2.9136497E-1,-1.2089969E-1,3.9147687E-1,3.3481508E-1,-1.3247126E-1,-1.2333914E-1,2.1336968E-1,5.247225E-1,-3.020154E-3,2.576609E-1,2.4870768E-2,-1.6959532E-1,3.1079984E-1,-6.0964217E-3,3.058769E-1,1.7062312E-1,8.6618885E-2],"split_indices":[353,424,43,163,445,277,216,755,105,236,660,290,734,63,514,357,186,662,515,311,525,732,51,491,2,25,334,295,700,619,277,341,492,0,366,383,428,0,373,589,311,578,116,532,90,0,0,0,0,0,0,0,0,61,122,417,740,295,0,515,724,740,126,0,0,0,0,0,0,0,0,0,0,0,0,0,0,0,0,0,0,0,0,0,0,0,0,0,0,0,0,0,0,0,0,0,0,0,0,0,0,0,0,0,0],"split_type":[0,0,0,0,0,0,0,0,0,0,0,0,0,0,0,0,0,0,0,0,0,0,0,0,0,0,0,0,0,0,0,0,0,0,0,0,0,0,0,0,0,0,0,0,0,0,0,0,0,0,0,0,0,0,0,0,0,0,0,0,0,0,0,0,0,0,0,0,0,0,0,0,0,0,0,0,0,0,0,0,0,0,0,0,0,0,0,0,0,0,0,0,0,0,0,0,0,0,0,0,0,0,0,0,0],"sum_hessian":[7.006302E4,2.1221059E4,4.8841965E4,7.36554E2,2.0484504E4,9.4554276E1,4.8747414E4,6.6238245E2,7.417158E1,2.0044012E4,4.4049173E2,1.1291138E1,8.326314E1,6.299969E1,4.8684414E4,6.4460333E2,1.7779064E1,2.4988882E1,4.9182697E1,1.9823607E4,2.2040453E2,4.3036288E2,1.0128847E1,8.25007E0,3.0410678E0,5.3609443E0,7.790219E1,3.474218E1,2.8257513E1,9.100319E1,4.859341E4,5.948094E2,4.9793987E1,1.4605572E0,1.6318506E1,1.2927561E1,1.2061321E1,2.6741652E0,4.650853E1,1.0786602E2,1.9715742E4,1.5254007E2,6.7864456E1,2.9997717E2,1.303857E2,1.8680906E0,8.2607565E0,1.5276258E0,6.722444E0,1.8706533E0,1.1704144E0,1.5199201E0,3.8410242E0,8.813003E0,6.908919E1,2.027953E1,1.4462648E1,2.6394087E1,1.863427E0,7.455091E1,1.645228E1,9.533206E1,4.849808E4,5.401667E2,5.4642704E1,4.251996E1,7.2740264E0,1.364716E1,2.671347E0,3.8085399E0,9.11902E0,1.01521015E1,1.9092197E0,1.7205093E1,2.9303438E1,9.895823E0,9.79702E1,1.0118205E2,1.961456E4,8.578792E1,6.6752144E1,5.3554787E1,1.4309666E1,1.1995003E2,1.8002715E2,1.0871468E2,2.167101E1,5.755187E0,3.057815E0,1.51223E0,6.757696E1,1.8371044E1,1.9084853E0,9.18359E0,5.2790585E0,2.486899E1,1.5250971E0,2.5530426E1,4.9020485E1,1.5303652E1,1.1486276E0,1.0846618E1,8.448545E1,4.8360832E4,1.372463E2],"tree_param":{"num_deleted":"0","num_feature":"768","num_nodes":"105","size_leaf_vector":"0"}},{"base_weights":[-2.685957E-1,-2.6872614E-1,5.138438E-1,-6.0437974E-2,-2.6920897E-1,1.5564564E0,-4.777807E-1,-1.1431022E-1,1.2690992E0,-3.0447295E-1,-2.6641318E-1,1.9726088E0,1.5987325E-1,-2.0764194E-1,4.1412148E-1,-3.4089005E-1,2.036161E0,6.407702E-1,-3.0636126E-1,3.2565323E-1,-2.666679E-1,-3.2628703E-1,3.307446E-1,1.3208133E0,-1.193951E-1,-4.202391E-1,1.1652998E0,2.3537967E-1,-3.08733E-1,8.2765573E-1,-4.1478178E-1,-2.3754877E-1,-2.7137923E-1,-5.393712E-1,-3.752437E-2,-4.188376E-1,9.8669195E-1,1.20444454E-1,2.0209599E0,-5.1578397E-1,4.6240494E-1,1.5170178E0,8.0066554E-2,1.5293803E0,-2.3780136E-1,6.375984E-1,-3.1025103E-1,1.5835624E0,-5.610208E-2,1.8239418E-1,-5.193822E-1,5.918878E-1,-2.3943675E-1,-2.7147156E-1,1.59849E0],"categories":[],"categories_nodes":[],"categories_segments":[],"categories_sizes":[],"default_left":[1,1,1,1,1,1,0,1,1,1,1,0,0,1,1,0,0,1,1,1,1,1,1,1,1,0,1,1,1,1,1,1,1,0,0,0,0,0,0,0,0,0,0,0,0,0,0,0,0,0,0,0,0,0,0],"id":10,"left_children":[1,3,5,7,9,11,-1,13,15,17,19,-1,-1,21,23,-1,-1,25,27,29,31,33,35,37,39,-1,41,43,45,47,49,51,53,-1,-1,-1,-1,-1,-1,-1,-1,-1,-1,-1,-1,-1,-1,-1,-1,-1,-1,-1,-1,-1,-1],"loss_changes":[5.203369E0,4.9733887E0,9.651004E0,8.456225E0,4.7993164E0,2.262E0,0E0,5.6312447E0,6.376525E0,6.674164E0,7.005127E0,0E0,0E0,6.254414E0,8.483475E0,0E0,0E0,4.696581E0,4.7273254E0,7.843293E0,6.226074E0,4.862322E0,9.200931E0,5.184759E0,2.9488885E0,0E0,1.9104743E0,1.0379847E1,5.3799133E0,8.344943E0,6.4559865E-1,1.0154053E1,7.246338E0,0E0,0E0,0E0,0E0,0E0,0E0,0E0,0E0,0E0,0E0,0E0,0E0,0E0,0E0,0E0,0E0,0E0,0E0,0E0,0E0,0E0,0E0],"parents":[2147483647,0,0,1,1,2,2,3,3,4,4,5,5,7,7,8,8,9,9,10,10,13,13,14,14,17,17,18,18,19,19,20,20,21,21,22,22,23,23,24,24,26,26,27,27,28,28,29,29,30,30,31,31,32,32],"right_children":[2,4,6,8,10,12,-1,14,16,18,20,-1,-1,22,24,-1,-1,26,28,30,32,34,36,38,40,-1,42,44,46,48,50,52,54,-1,-1,-1,-1,-1,-1,-1,-1,-1,-1,-1,-1,-1,-1,-1,-1,-1,-1,-1,-1,-1,-1],"split_conditions":[6.830174E-1,-3.1398138E-1,6.213223E-1,4.045754E-2,-3.899832E-1,1.2320768E-1,-1.4333421E-1,1.8460067E-1,-1.0886282E-1,-6.963515E-1,-3.896367E-1,5.917827E-1,4.7961976E-2,3.2228976E-2,-2.313153E-1,-1.0226702E-1,6.108483E-1,-4.346816E-1,-6.3066185E-1,-1.1005847E-1,-1.3963912E-1,-1.1281079E-1,5.3155076E-2,-5.214195E-2,-1.2721539E-1,-1.2607174E-1,6.7986146E-2,-1.3098815E-1,-4.228092E-1,1.3189667E-1,-2.6195645E-1,-4.4745967E-1,6.051354E-1,-1.6181137E-1,-1.1257311E-2,-1.2565129E-1,2.960076E-1,3.6133338E-2,6.0628796E-1,-1.547352E-1,1.3872148E-1,4.5510536E-1,2.4019968E-2,4.588141E-1,-7.134041E-2,1.9127953E-1,-9.307531E-2,4.7506872E-1,-1.6830625E-2,5.4718256E-2,-1.5581466E-1,1.7756633E-1,-7.1831025E-2,-8.144147E-2,4.7954702E-1],"split_indices":[508,375,504,634,701,75,0,674,289,11,701,0,0,678,331,0,0,728,237,52,350,126,270,5,9,0,200,734,204,616,759,331,271,0,0,0,0,0,0,0,0,0,0,0,0,0,0,0,0,0,0,0,0,0,0],"split_type":[0,0,0,0,0,0,0,0,0,0,0,0,0,0,0,0,0,0,0,0,0,0,0,0,0,0,0,0,0,0,0,0,0,0,0,0,0,0,0,0,0,0,0,0,0,0,0,0,0,0,0,0,0,0,0],"sum_hessian":[4.962283E4,4.961521E4,7.615464E0,1.1503679E2,4.9500176E4,3.4346285E0,4.1808357E0,1.1143549E2,3.6012933E0,3.628247E3,4.5871926E4,2.3283699E0,1.1062586E0,9.522406E1,1.6211435E1,1.341404E0,2.2598894E0,6.5591087E0,3.621688E3,1.9177542E1,4.585275E4,7.8351555E1,1.6872501E1,5.4587746E0,1.0752662E1,2.2356672E0,4.3234415E0,1.5358345E1,3.6063296E3,1.1358722E1,7.818819E0,6.392743E3,3.9460008E4,4.4584114E1,3.3767445E1,8.042934E0,8.829567E0,2.4427755E0,3.0159988E0,6.4628773E0,4.289784E0,2.9647198E0,1.3587217E0,3.5146797E0,1.1843665E1,5.104608E0,3.6012249E3,5.695406E0,5.6633162E0,1.0545495E0,6.76427E0,1.3808551E1,6.3789346E3,3.9458914E4,1.0934914E0],"tree_param":{"num_deleted":"0","num_feature":"768","num_nodes":"55","size_leaf_vector":"0"}},{"base_weights":[-1.8342079E-1,-4.2958197E-1,-1.8296331E-1,-4.7691232E-1,5.764333E-1,-1.1265579E-1,-1.8464962E-1,8.945362E-1,-5.0818586E-1,-4.0471074E-1,1.4489592E0,5.6797504E-1,-1.2305422E-1,-1.8609737E-1,-1.0214016E-1,-5.2941495E-1,6.1842096E-1,1.2539911E0,-2.2044352E-1,-1.3539341E-1,3.38606E-1,-1.8624385E-1,5.8982927E-1,-1.2270476E-1,3.021558E-1,2.3384953E-1,-5.5037296E-1,2.0081677E0,-4.3896887E-2,1.086626E0,-5.2943647E-1,1.2476785E0,-1.3951287E-1,1.5913163E0,1.3125232E-1,-1.8662249E-1,1.216479E-1,-2.678644E-1,1.1795483E0,3.8527182E-1,-1.4216202E-1,-1.7541991E-1,6.970752E-1,-1.0281393E-1,-5.8346665E-1,2.363275E0,1.623749E-1,6.223607E-1,-4.3190125E-1,1.4137433E-1,1.7154056E0,-3.4056658E-1,-1.0679079E-1,1.5137815E-1,2.0435474E0,9.191962E-1,-1.2277385E-1,-1.8671793E-1,1.0614449E0,1.726575E0,3.132995E-2,1.34243E-1,-4.3562284E-1,1.6003318E0,-3.1872046E-1,8.210747E-1,-2.0223506E-1,1.4077703E0,-1.4834358E-1,5.3026915E-1,-4.923216E-1,1.5913903E0,1.8152522E-1],"categories":[],"categories_nodes":[],"categories_segments":[],"categories_sizes":[],"default_left":[1,1,1,1,1,1,1,0,1,0,0,1,1,1,1,1,0,1,1,1,1,1,1,1,1,0,1,1,1,0,0,1,1,1,1,1,1,1,1,1,1,1,1,0,0,0,0,0,0,0,0,0,0,0,0,0,0,0,0,0,0,0,0,0,0,0,0,0,0,0,0,0,0],"id":11,"left_children":[1,3,5,7,9,11,13,-1,15,-1,-1,17,19,21,23,25,-1,27,29,31,33,35,37,39,41,-1,43,45,47,-1,-1,49,51,53,55,57,59,61,63,65,67,69,71,-1,-1,-1,-1,-1,-1,-1,-1,-1,-1,-1,-1,-1,-1,-1,-1,-1,-1,-1,-1,-1,-1,-1,-1,-1,-1,-1,-1,-1,-1],"loss_changes":[5.7609863E0,4.819769E0,6.115967E0,4.38797E0,4.6456113E0,8.668733E0,6.018799E0,0E0,2.4871292E0,0E0,0E0,1.0261077E1,6.8673935E0,5.7558594E0,7.302305E0,1.5551109E0,0E0,9.896853E0,4.387737E0,6.823263E0,7.9627256E0,5.812378E0,5.1796656E0,8.280598E0,8.15402E0,0E0,1.2298679E0,3.7845097E0,1.4738344E0,0E0,0E0,1.6028347E0,7.6245594E0,2.5414124E0,5.7335277E0,6.1073E0,8.875861E0,3.777353E-1,4.219079E0,8.095938E0,7.8954506E0,4.75038E0,1.0551123E1,0E0,0E0,0E0,0E0,0E0,0E0,0E0,0E0,0E0,0E0,0E0,0E0,0E0,0E0,0E0,0E0,0E0,0E0,0E0,0E0,0E0,0E0,0E0,0E0,0E0,0E0,0E0,0E0,0E0,0E0],"parents":[2147483647,0,0,1,1,2,2,3,3,4,4,5,5,6,6,8,8,11,11,12,12,13,13,14,14,15,15,17,17,18,18,19,19,20,20,21,21,22,22,23,23,24,24,26,26,27,27,28,28,31,31,32,32,33,33,34,34,35,35,36,36,37,37,38,38,39,39,40,40,41,41,42,42],"right_children":[2,4,6,8,10,12,14,-1,16,-1,-1,18,20,22,24,26,-1,28,30,32,34,36,38,40,42,-1,44,46,48,-1,-1,50,52,54,56,58,60,62,64,66,68,70,72,-1,-1,-1,-1,-1,-1,-1,-1,-1,-1,-1,-1,-1,-1,-1,-1,-1,-1,-1,-1,-1,-1,-1,-1,-1,-1,-1,-1,-1,-1],"split_conditions":[-6.103498E-1,5.5028105E-1,-3.437115E-1,5.0169874E-2,-5.420811E-1,-3.3404654E-1,2.264069E-2,2.6836088E-1,4.555533E-1,-1.2141322E-1,4.346878E-1,-2.3277748E-2,2.86528E-1,4.0867186E-1,3.8515903E-2,-2.2232234E-1,1.855263E-1,5.5965662E-2,-4.6070993E-1,-4.0347716E-1,-7.6316416E-2,4.993853E-1,2.04578E-1,-1.7398037E-1,-1.0396848E-2,7.015486E-2,-5.14985E-2,1.654156E-1,1.3801748E-1,3.2598782E-1,-1.5883094E-1,-1.0766384E-1,-3.8234138E-1,1.6778693E-2,-2.4873292E-1,6.228614E-1,-1.796463E-1,-1.3333434E-1,1.17590174E-1,2.0510456E-1,-2.6706657E-1,2.1874152E-2,-1.1764897E-1,-3.084418E-2,-1.7504E-1,7.089825E-1,4.8712473E-2,1.8670821E-1,-1.2957038E-1,4.2412303E-2,5.146217E-1,-1.02169976E-1,-3.203724E-2,4.541345E-2,6.130642E-1,2.7575886E-1,-3.6832158E-2,-5.601538E-2,3.1843346E-1,5.179725E-1,9.398985E-3,4.02729E-2,-1.3068686E-1,4.8009956E-1,-9.561614E-2,2.4632242E-1,-6.067052E-2,4.223311E-1,-4.4503074E-2,1.5908074E-1,-1.476965E-1,4.7741708E-1,5.4457568E-2],"split_indices":[265,749,609,457,676,189,59,0,131,0,0,741,10,609,80,624,0,547,485,256,631,24,155,451,22,0,77,17,343,0,0,37,361,65,74,276,677,701,100,400,657,527,338,0,0,0,0,0,0,0,0,0,0,0,0,0,0,0,0,0,0,0,0,0,0,0,0,0,0,0,0,0,0],"split_type":[0,0,0,0,0,0,0,0,0,0,0,0,0,0,0,0,0,0,0,0,0,0,0,0,0,0,0,0,0,0,0,0,0,0,0,0,0,0,0,0,0,0,0,0,0,0,0,0,0,0,0,0,0,0,0,0,0,0,0,0,0,0,0,0,0,0,0,0,0,0,0,0,0],"sum_hessian":[5.1854008E4,9.445007E1,5.175956E4,9.070842E1,3.741651E0,1.2139559E3,5.0545605E4,1.4069153E0,8.9301506E1,2.0135744E0,1.7280765E0,1.7460415E1,1.1964955E3,4.967277E4,8.7283545E2,8.817016E1,1.1313463E0,9.020774E0,8.43964E0,1.1660365E3,3.0458942E1,4.9664152E4,8.615902E0,8.3125024E2,4.158522E1,2.0848365E0,8.608533E1,5.3593216E0,3.6614523E0,1.1324786E0,7.3071613E0,2.5662475E0,1.1634702E3,3.3778052E0,2.7081137E1,4.9603547E4,6.0605553E1,3.7327402E0,4.8831615E0,2.997162E1,8.012786E2,1.9074389E1,2.251083E1,6.209869E0,7.987546E1,4.2594914E0,1.0998302E0,1.125245E0,2.5362072E0,1.1495354E0,1.416712E0,1.6153648E2,1.0019338E3,1.1263041E0,2.251501E0,5.963845E0,2.1117292E1,4.9600605E4,2.9427996E0,2.2636917E0,5.8341858E1,1.1576656E0,2.5750747E0,3.7592647E0,1.1238971E0,1.6979185E1,1.2992436E1,2.282323E0,7.9899634E2,5.702514E0,1.3371874E1,7.468529E0,1.5042301E1],"tree_param":{"num_deleted":"0","num_feature":"768","num_nodes":"73","size_leaf_vector":"0"}},{"base_weights":[-1.4669254E-1,-1.8567821E-1,-1.435986E-1,-1.9023116E-1,2.8213283E-1,-1.3165191E-1,-1.5495752E-1,-1.844839E-1,-4.3713275E-1,-7.823382E-2,9.717769E-1,1.089907E-1,-1.3285868E-1,1.1370339E-2,-1.5690863E-1,-1.867452E-1,7.4429E-1,4.6886516E-1,-4.780891E-1,-2.1593435E-1,1.5341005E0,1.476883E0,-4.6040192E-1,-2.1171373E-1,3.7418213E-1,-1.7784071E-1,-1.2650466E-1,2.7198112E-1,-1.3441488E-1,-1.5753119E-1,2.5548556E-1,-1.0019229E-2,-1.9517505E-1,1.4328225E0,-4.5943552E-1,1.2006521E0,-3.8333863E-1,-5.0057024E-1,6.0390484E-1,-3.9957547E-1,1.0888987E0,-4.1982418E-1,2.0993586E0,-2.8612027E-1,8.4010553E-1,7.317829E-1,-4.4061296E-2,-1.7975092E-1,1.2338191E0,-1.1677315E-1,-1.6396934E-1,5.955883E-2,7.634608E-1,1.0184038E0,-1.7884924E-1,-2.1194096E-1,-1.5279666E-1,-4.7847846E-1,5.966295E-1,1.5261823E0,-5.0987504E-2,1.5856718E-1,-1.9977677E-1,1.9048815E0,-3.2632312E-1,-5.236871E-1,6.032819E-1,2.1201168E-1,-5.7148737E-1,2.4191995E0,1.4683567E-1,-3.532243E-1,9.1625315E-1,-3.2313862E-1,1.4468472E0,1.9766358E-1,1.2937127E0,5.874569E-1,-3.859767E-1,1.4179875E0,-1.8119577E-1,1.3774142E-1,1.6185762E0,-1.5083651E-1,-1.0415E-1,1.0178972E-2,-1.74646E-1,-5.2140407E-2,1.0589901E0,1.4610742E0,1.8039514E-1,1.530849E0,-3.8121456E-1,7.7946857E-3,-3.884213E-1,-2.149098E-1,7.3313636E-1,6.0406625E-1,-1.532177E-1,1.5857874E-1,-5.5408293E-1,-4.4364005E-2,1.0432565E0],"categories":[],"categories_nodes":[],"categories_segments":[],"categories_sizes":[],"default_left":[1,1,1,1,1,1,1,1,1,1,1,1,1,1,1,1,1,1,1,1,0,1,0,1,1,1,1,1,1,1,1,1,1,1,0,0,0,1,0,1,0,0,1,1,1,1,1,1,1,1,1,1,1,1,1,1,1,1,1,0,0,0,0,0,0,0,0,0,0,0,0,0,0,0,0,0,0,0,0,0,0,0,0,0,0,0,0,0,0,0,0,0,0,0,0,0,0,0,0,0,0,0,0],"id":12,"left_children":[1,3,5,7,9,11,13,15,17,19,21,23,25,27,29,31,33,35,37,39,-1,41,-1,43,45,47,49,51,53,55,57,59,61,63,-1,-1,-1,65,-1,67,-1,-1,69,71,73,75,77,79,81,83,85,87,89,91,93,95,97,99,101,-1,-1,-1,-1,-1,-1,-1,-1,-1,-1,-1,-1,-1,-1,-1,-1,-1,-1,-1,-1,-1,-1,-1,-1,-1,-1,-1,-1,-1,-1,-1,-1,-1,-1,-1,-1,-1,-1,-1,-1,-1,-1,-1,-1],"loss_changes":[6.352783E0,8.329117E0,6.6297607E0,5.3804016E0,9.483208E0,6.9525146E0,8.152222E0,8.041443E0,3.4455547E0,6.056397E0,1.0131538E1,1.02647E1,6.7720947E0,1.113548E1,6.413391E0,5.5911713E0,8.398745E0,3.1167274E0,2.3347435E0,6.3379793E0,0E0,1.2565779E1,0E0,4.5327206E0,9.890872E0,8.149521E0,7.576538E0,1.0929747E1,9.812589E0,6.3529053E0,9.749861E0,1.0901692E1,5.864731E0,5.7567844E0,0E0,0E0,0E0,2.4186192E0,0E0,2.4685538E0,0E0,0E0,4.402088E0,4.516651E0,3.2042663E0,1.0426401E1,6.9906125E0,7.036598E0,1.5061269E0,7.096863E0,7.9843445E0,8.370451E0,1.2606115E1,5.6951756E0,7.117207E0,5.717598E0,7.3602905E0,6.9228005E-1,7.5612593E0,0E0,0E0,0E0,0E0,0E0,0E0,0E0,0E0,0E0,0E0,0E0,0E0,0E0,0E0,0E0,0E0,0E0,0E0,0E0,0E0,0E0,0E0,0E0,0E0,0E0,0E0,0E0,0E0,0E0,0E0,0E0,0E0,0E0,0E0,0E0,0E0,0E0,0E0,0E0,0E0,0E0,0E0,0E0,0E0],"parents":[2147483647,0,0,1,1,2,2,3,3,4,4,5,5,6,6,7,7,8,8,9,9,10,10,11,11,12,12,13,13,14,14,15,15,16,16,17,17,18,18,19,19,21,21,23,23,24,24,25,25,26,26,27,27,28,28,29,29,30,30,31,31,32,32,33,33,37,37,39,39,42,42,43,43,44,44,45,45,46,46,47,47,48,48,49,49,50,50,51,51,52,52,53,53,54,54,55,55,56,56,57,57,58,58],"right_children":[2,4,6,8,10,12,14,16,18,20,22,24,26,28,30,32,34,36,38,40,-1,42,-1,44,46,48,50,52,54,56,58,60,62,64,-1,-1,-1,66,-1,68,-1,-1,70,72,74,76,78,80,82,84,86,88,90,92,94,96,98,100,102,-1,-1,-1,-1,-1,-1,-1,-1,-1,-1,-1,-1,-1,-1,-1,-1,-1,-1,-1,-1,-1,-1,-1,-1,-1,-1,-1,-1,-1,-1,-1,-1,-1,-1,-1,-1,-1,-1,-1,-1,-1,-1,-1,-1],"split_conditions":[-3.265916E-1,2.5241558E-2,3.5935894E-2,-1.1502001E-2,-6.251864E-2,-3.2402003E-1,-2.6063442E-1,2.8230846E-1,-1.9865254E-1,3.6159348E-1,1.0383168E-1,2.1978714E-1,-2.5690744E-2,8.928721E-3,7.5716597E-1,-3.0688754E-1,-1.5346258E-2,-4.111296E-1,-2.3593395E-3,1.9038218E-1,4.6023017E-1,-1.7556675E-1,-1.3812058E-1,-1.7875808E-1,7.269211E-2,1.14927575E-1,7.258473E-2,1.9686028E-1,-4.7758764E-1,-6.69262E-2,-3.142653E-1,-5.628497E-1,-5.447859E-1,1.4035313E-1,-1.3783066E-1,3.6019564E-1,-1.150016E-1,3.9279228E-1,1.8117146E-1,1.9443566E-1,3.266696E-1,-1.2594727E-1,-1.37894135E-2,4.446286E-2,1.0092141E-2,1.8707591E-1,-2.9964626E-1,-2.4531087E-1,-1.0573514E-1,-3.1655532E-1,1.3671117E-1,2.3679636E-1,-4.8952423E-2,-1.3347387E-2,9.598586E-2,5.334149E-1,-5.187583E-1,-3.6555352E-3,-3.848222E-2,4.5785472E-1,-1.52962515E-2,4.7570154E-2,-5.9933033E-2,5.714645E-1,-9.789694E-2,-1.5710615E-1,1.8098459E-1,6.3603505E-2,-1.7144622E-1,7.2575986E-1,4.40507E-2,-1.059673E-1,2.7487597E-1,-9.694159E-2,4.3405417E-1,5.9299074E-2,3.8811383E-1,1.7623708E-1,-1.1579301E-1,4.2539626E-1,-5.4358732E-2,4.1322425E-2,4.8557287E-1,-4.5250956E-2,-3.1245E-2,3.0536917E-3,-5.2393805E-2,-1.5642123E-2,3.1769705E-1,4.3832228E-1,5.4118544E-2,4.592547E-1,-1.1436437E-1,2.3384057E-3,-1.16526395E-1,-6.447294E-2,2.1994092E-1,1.8121988E-1,-4.5965314E-2,4.7573622E-2,-1.6622488E-1,-1.3309202E-2,3.1297696E-1],"split_indices":[74,279,344,329,70,74,303,369,552,470,560,735,521,766,99,765,405,45,279,740,0,503,0,513,283,634,359,421,685,124,128,728,685,219,0,0,0,131,0,225,0,0,745,746,5,470,550,4,64,153,659,403,198,356,48,663,191,448,580,0,0,0,0,0,0,0,0,0,0,0,0,0,0,0,0,0,0,0,0,0,0,0,0,0,0,0,0,0,0,0,0,0,0,0,0,0,0,0,0,0,0,0,0],"split_type":[0,0,0,0,0,0,0,0,0,0,0,0,0,0,0,0,0,0,0,0,0,0,0,0,0,0,0,0,0,0,0,0,0,0,0,0,0,0,0,0,0,0,0,0,0,0,0,0,0,0,0,0,0,0,0,0,0,0,0,0,0,0,0,0,0,0,0,0,0,0,0,0,0,0,0,0,0,0,0,0,0,0,0,0,0,0,0,0,0,0,0,0,0,0,0,0,0,0,0,0,0,0,0],"sum_hessian":[5.2888617E4,3.8843467E3,4.9004273E4,3.8474946E3,3.6852097E1,2.3890303E4,2.5113969E4,3.7616794E3,8.5815216E1,2.478664E1,1.2065454E1,1.1876146E2,2.3771541E4,2.9112918E2,2.482284E4,3.75334E3,8.339306E0,3.2596798E0,8.255554E1,2.3634245E1,1.1523963E0,8.896565E0,3.1688879E0,5.3845745E1,6.491572E1,2.9389333E3,2.0832607E4,1.04125374E2,1.870038E2,2.4786041E4,3.6798973E1,1.7098355E2,3.5823567E3,5.183827E0,3.1554787E0,1.533761E0,1.7259188E0,8.140158E1,1.1539615E0,2.1326538E1,2.3077064E0,2.2787333E0,6.617832E0,5.0968193E1,2.8775544E0,3.459075E1,3.0324966E1,2.9358335E3,3.1000109E0,1.6540344E4,4.292263E3,7.3485435E1,3.0639935E1,6.126878E0,1.8087692E2,1.9806305E3,2.280541E4,1.154899E1,2.524998E1,3.499742E0,1.6748381E2,4.5573536E1,3.5367832E3,4.0217605E0,1.1620666E0,8.0246635E1,1.1549414E0,4.6281943E0,1.6698343E1,5.480985E0,1.1368475E0,4.8942932E1,2.025261E0,1.1466393E0,1.7309151E0,1.8427246E1,1.6163504E1,1.0399303E1,1.9925663E1,1.7667148E0,2.9340667E3,1.1582991E0,1.9417119E0,4.4692363E3,1.2071107E4,2.4795126E2,4.044312E3,6.695067E1,6.534765E0,1.3264123E1,1.7375813E1,4.416203E0,1.7106751E0,9.61812E1,8.4695724E1,1.9751982E3,5.432247E0,1.1882391E1,2.279353E4,1.1087744E0,1.0440216E1,1.073866E1,1.4511322E1],"tree_param":{"num_deleted":"0","num_feature":"768","num_nodes":"103","size_leaf_vector":"0"}},{"base_weights":[-2.6314463E-2,2.3781553E-2,-2.8929114E-2,1.613285E-2,5.247043E-1,-3.2670494E-2,8.115818E-3,4.586294E-1,9.579035E-3,8.6191356E-1,-4.8338864E-2,3.283178E-3,-3.7300877E-2,5.2625956E-3,7.664555E-1,1.2019128E0,1.04290545E-1,2.9201131E-2,-1.418899E-1,-4.8749942E-1,1.1016227E0,-2.946075E-1,9.678652E-1,1.5854975E-2,-1.4342944E-1,-3.5320807E-2,-1.190902E-1,-5.899946E-2,3.044534E-2,1.4937649E0,3.010208E-2,-1.5049477E-1,1.5329369E0,-1.3150588E-1,1.0719408E0,1.2365344E0,2.688472E-2,-2.4947722E-1,9.378487E-2,1.5121068E0,1.8339744E-1,-5.6610215E-1,7.619343E-1,1.2613101E0,1.478726E-1,-2.9219306E-1,2.1405851E-2,-1.5829438E-1,9.0563905E-1,1.4207627E0,-3.5431426E-2,-1.3435404E-1,5.700242E-1,3.8208777E-1,-7.600185E-2,2.7954048E-2,1.0115896E0,1.7927973E0,1.0993401E-2,1.1424122E0,-4.1521597E-1,1.2992577E-1,-3.5178605E-1,-3.4021786E-1,1.8182082E0,5.088823E-1,-5.782565E-1,-3.420878E-1,1.5426346E0,5.607492E-2,1.7063754E0,1.2866265E0,2.4803903E-2,5.979211E-1,-2.839062E-1,5.9856296E-1,-7.726102E-2,1.8391461E0,-1.5663901E-1,-2.473138E-1,1.4475771E0,1.0033612E0,1.3721046E-1,-3.4656096E-1,7.341582E-1,6.8906896E-2,-1.6578987E-2,1.0790691E0,-1.6904552E-1,-4.2479217E-1,1.7109749E0,-3.146814E-2,-7.574093E-2,1.0366389E-1,-1.7808478E-1,-3.048677E-1,1.020875E0,6.999226E-1,-2.5043586E-1,-8.218389E-2,9.708257E-1,-1.0677774E-1,4.5536574E-2,-2.6454985E-1,1.8853317E0,1.22754835E-1,2.0783737E0,-5.276829E-1,1.2955885E-1],"categories":[],"categories_nodes":[],"categories_segments":[],"categories_sizes":[],"default_left":[1,1,1,1,1,1,1,1,1,1,1,1,1,1,1,1,1,1,1,0,1,1,1,1,1,1,1,1,1,1,1,1,1,1,1,1,1,1,1,1,1,0,1,0,0,1,1,1,1,0,1,1,1,1,1,1,1,1,0,0,1,0,0,0,0,0,0,0,0,0,0,0,0,0,0,0,0,0,0,0,0,0,0,0,0,0,0,0,0,0,0,0,0,0,0,0,0,0,0,0,0,0,0,0,0,0,0,0,0],"id":13,"left_children":[1,3,5,7,9,11,13,15,17,19,21,23,25,27,29,31,33,35,37,-1,39,41,43,45,47,49,51,53,55,57,59,61,63,65,67,69,71,73,75,77,79,-1,81,-1,-1,83,85,87,89,-1,91,93,95,97,99,101,103,105,-1,-1,107,-1,-1,-1,-1,-1,-1,-1,-1,-1,-1,-1,-1,-1,-1,-1,-1,-1,-1,-1,-1,-1,-1,-1,-1,-1,-1,-1,-1,-1,-1,-1,-1,-1,-1,-1,-1,-1,-1,-1,-1,-1,-1,-1,-1,-1,-1,-1,-1],"loss_changes":[7.4219933E0,1.0761691E1,7.4635925E0,8.028059E0,8.204861E0,8.142441E0,1.0685502E1,1.0515764E1,8.119177E0,9.156792E0,4.438637E0,1.02963085E1,7.0128326E0,7.9684343E0,9.868916E0,6.027281E0,6.633494E0,6.729291E0,7.967601E0,0E0,8.367313E0,4.483286E0,6.486559E-1,8.797918E0,7.0141935E0,6.864769E0,1.0844925E1,1.04260025E1,8.618524E0,4.1004696E0,5.5361695E0,2.4082163E-1,6.224737E0,7.0948277E0,4.3112273E0,2.4601645E0,6.297066E0,6.4536076E0,8.587606E0,8.862644E0,4.8356576E0,0E0,3.6217415E-1,0E0,0E0,5.3365216E0,9.115552E0,5.9731636E0,7.48192E0,0E0,6.755989E0,1.0451866E1,9.137087E0,1.055315E1,8.723972E0,8.366176E0,1.0457175E1,3.4298954E0,0E0,0E0,5.60413E-1,0E0,0E0,0E0,0E0,0E0,0E0,0E0,0E0,0E0,0E0,0E0,0E0,0E0,0E0,0E0,0E0,0E0,0E0,0E0,0E0,0E0,0E0,0E0,0E0,0E0,0E0,0E0,0E0,0E0,0E0,0E0,0E0,0E0,0E0,0E0,0E0,0E0,0E0,0E0,0E0,0E0,0E0,0E0,0E0,0E0,0E0,0E0,0E0],"parents":[2147483647,0,0,1,1,2,2,3,3,4,4,5,5,6,6,7,7,8,8,9,9,10,10,11,11,12,12,13,13,14,14,15,15,16,16,17,17,18,18,20,20,21,21,22,22,23,23,24,24,25,25,26,26,27,27,28,28,29,29,30,30,31,31,32,32,33,33,34,34,35,35,36,36,37,37,38,38,39,39,40,40,42,42,45,45,46,46,47,47,48,48,50,50,51,51,52,52,53,53,54,54,55,55,56,56,57,57,60,60],"right_children":[2,4,6,8,10,12,14,16,18,20,22,24,26,28,30,32,34,36,38,-1,40,42,44,46,48,50,52,54,56,58,60,62,64,66,68,70,72,74,76,78,80,-1,82,-1,-1,84,86,88,90,-1,92,94,96,98,100,102,104,106,-1,-1,108,-1,-1,-1,-1,-1,-1,-1,-1,-1,-1,-1,-1,-1,-1,-1,-1,-1,-1,-1,-1,-1,-1,-1,-1,-1,-1,-1,-1,-1,-1,-1,-1,-1,-1,-1,-1,-1,-1,-1,-1,-1,-1,-1,-1,-1,-1,-1,-1],"split_conditions":[-6.5327024E-1,-4.2891026E-2,1.5097564E-1,-1.3015331E-1,-2.7028164E-1,2.3278405E-1,6.337134E-1,1.1997532E-1,2.1844846E-1,-5.282112E-2,1.8773991E-1,-6.0620043E-2,4.6947545E-1,-5.498925E-2,9.954253E-2,-2.1768507E-1,1.7322955E-1,-5.161134E-1,4.6703833E-1,-1.4624983E-1,2.8243846E-1,8.211921E-2,2.0014018E-1,-4.046778E-1,3.7157023E-1,-4.6653283E-1,-3.9058775E-2,-3.7379503E-1,1.903983E-1,6.261103E-2,-2.0397696E-1,3.0810982E-1,1.6705741E-1,-2.0839064E-1,-5.9784234E-2,-1.426277E-1,-1.3493313E-1,-1.16606906E-1,-5.675607E-2,3.328788E-1,-5.2719284E-2,-1.6983065E-1,2.1323776E-1,3.7839305E-1,4.436178E-2,2.8718065E-2,-6.707001E-2,-4.1034448E-1,5.8854073E-2,4.2622882E-1,-4.342699E-2,-3.223335E-1,5.714884E-1,9.995687E-2,-1.4487989E-1,6.9553755E-2,2.2571635E-2,2.1342963E-1,3.2980202E-3,3.4272367E-1,2.0047687E-1,3.8977735E-2,-1.0553582E-1,-1.0206536E-1,5.454625E-1,1.5266469E-1,-1.7347695E-1,-1.02626346E-1,4.627904E-1,1.6822478E-2,5.1191264E-1,3.8598797E-1,7.441171E-3,1.7937633E-1,-8.517186E-2,1.7956889E-1,-2.3178307E-2,5.5174387E-1,-4.6991706E-2,-7.419414E-2,4.3427315E-1,3.0100837E-1,4.116314E-2,-1.0396829E-1,2.2024748E-1,2.067207E-2,-4.9736965E-3,3.2372075E-1,-5.071366E-2,-1.2743765E-1,5.132925E-1,-9.440443E-3,-2.2722282E-2,3.1099169E-2,-5.3425435E-2,-9.146032E-2,3.062625E-1,2.0997679E-1,-7.513076E-2,-2.4655169E-2,2.9124773E-1,-3.2033324E-2,1.3660973E-2,-7.9364955E-2,5.6559956E-1,3.682645E-2,6.2351215E-1,-1.5830487E-1,3.8867656E-2],"split_indices":[432,247,199,124,459,364,664,610,10,219,284,58,218,601,72,161,739,9,181,0,87,221,19,593,678,369,214,355,313,699,697,6,178,691,569,53,322,421,341,508,111,0,6,0,0,491,169,577,627,0,80,231,273,447,661,412,465,312,0,0,362,0,0,0,0,0,0,0,0,0,0,0,0,0,0,0,0,0,0,0,0,0,0,0,0,0,0,0,0,0,0,0,0,0,0,0,0,0,0,0,0,0,0,0,0,0,0,0,0],"split_type":[0,0,0,0,0,0,0,0,0,0,0,0,0,0,0,0,0,0,0,0,0,0,0,0,0,0,0,0,0,0,0,0,0,0,0,0,0,0,0,0,0,0,0,0,0,0,0,0,0,0,0,0,0,0,0,0,0,0,0,0,0,0,0,0,0,0,0,0,0,0,0,0,0,0,0,0,0,0,0,0,0,0,0,0,0,0,0,0,0,0,0,0,0,0,0,0,0,0,0,0,0,0,0,0,0,0,0,0,0],"sum_hessian":[5.6657277E4,2.810017E3,5.384726E4,2.7687722E3,4.1244812E1,4.890789E4,4.9393706E3,3.940303E1,2.7293691E3,2.5648033E1,1.5596779E1,5.580113E3,4.3327777E4,4.9218594E3,1.7511354E1,1.1948055E1,2.7454973E1,2.4170579E3,3.123114E2,3.7129166E0,2.1935118E1,1.3125913E1,2.4708657E0,5.1405146E3,4.3959848E2,4.2305027E4,1.02274896E3,1.3853473E3,3.536512E3,8.292302E0,9.219052E0,2.4566636E0,9.491392E0,2.2770395E1,4.684579E0,3.6082196E0,2.4134497E3,2.1438463E2,9.792678E1,1.4711644E1,7.223473E0,1.0811838E1,2.3140743E0,1.4233167E0,1.047549E0,9.007596E1,5.0504385E3,4.342938E2,5.304679E0,2.2381697E0,4.230279E4,1.0013736E3,2.1375336E1,5.062139E1,1.3347258E3,3.5285808E3,7.9311757E0,6.7266455E0,1.5656565E0,2.188145E0,7.0309076E0,1.1747074E0,1.2819562E0,1.2289855E0,8.262406E0,9.300153E0,1.34702425E1,1.2381711E0,3.4464078E0,1.34594E0,2.2622797E0,2.9619088E0,2.4104878E3,7.73116E0,2.0665346E2,2.4151932E1,7.377484E1,1.221554E1,2.4961042E0,5.9877796E0,1.2356932E0,1.2319105E0,1.0821639E0,8.617351E1,3.9024491E0,2.2437524E3,2.806686E3,2.8850243E0,4.3140878E2,2.1784172E0,3.1262615E0,3.851748E4,3.7853108E3,1.5521231E2,8.461613E2,7.3793125E0,1.3996023E1,3.362081E1,1.7000576E1,1.327806E3,6.9198627E0,4.0673898E2,3.1218418E3,3.506702E0,4.424474E0,1.1910816E0,5.5355635E0,5.8537874E0,1.1771206E0],"tree_param":{"num_deleted":"0","num_feature":"768","num_nodes":"109","size_leaf_vector":"0"}},{"base_weights":[4.143827E-1,4.1420102E-1,1.1891214E0,4.1256002E-1,4.8867568E-1,-8.6523145E-2,1.331338E0,3.963737E-1,4.20465E-1,7.6147383E-1,4.6112484E-1,2.885704E-1,1.4355127E0,4.1630372E-1,3.73903E-1,4.098096E-1,4.409189E-1,8.131445E-1,-4.56668E-1,6.726257E-2,4.794613E-1,4.293471E-1,1.5057262E0,4.1227672E-1,5.849125E-1,3.7027463E-1,6.484725E-1,3.5647982E-1,4.1575134E-1,4.4770378E-1,3.5463673E-1,9.082973E-1,1.2440279E-1,-5.8562964E-1,8.264514E-2,8.679556E-1,-1.0828542E-1,-6.529423E-2,4.9009442E-1,2.8155425E-1,4.176587E-1,6.171199E-1,-1.0870856E-1,3.682725E-1,8.341786E-1,7.041951E-1,-4.8772234E-1,1.988686E-1,3.776376E-1,4.0653428E-1,4.485011E-1,4.3617243E-1,4.9843374E-1,4.6663645E-1,2.7820545E-1,1.1202497E0,6.483689E-1,-3.558011E-1,1.1004931E0,-4.5319694E-1,1.1192244E0,5.4569066E-1,-2.840479E-1,7.8762734E-1,-2.6826742E-1,-2.6439387E-1,4.97735E-1],"categories":[],"categories_nodes":[],"categories_segments":[],"categories_sizes":[],"default_left":[1,1,1,1,1,0,1,1,1,1,1,0,1,1,1,1,1,1,1,1,1,0,0,1,1,1,1,1,1,1,1,1,1,0,0,1,1,1,1,0,0,0,0,0,0,0,0,0,0,0,0,0,0,0,0,0,0,0,0,0,0,0,0,0,0,0,0],"id":14,"left_children":[1,3,5,7,9,-1,11,13,15,17,19,-1,21,23,25,27,29,31,33,35,37,-1,-1,39,41,43,45,47,49,51,53,55,57,-1,-1,59,61,63,65,-1,-1,-1,-1,-1,-1,-1,-1,-1,-1,-1,-1,-1,-1,-1,-1,-1,-1,-1,-1,-1,-1,-1,-1,-1,-1,-1,-1],"loss_changes":[1.040625E1,9.260742E0,3.3117123E0,9.527344E0,1.2153351E1,0E0,1.3144207E0,1.0985107E1,1.090918E1,9.880669E0,1.0899628E1,0E0,3.5785866E-1,8.704102E0,1.1418579E1,1.0457031E1,1.0036621E1,9.408844E0,5.2051437E-1,9.722137E0,8.408936E0,0E0,0E0,8.9375E0,6.8791504E0,1.0422363E1,9.922451E0,1.1137024E1,8.906738E0,9.225586E0,1.0779953E1,6.297806E0,9.2011795E0,0E0,0E0,4.6329966E0,6.714899E0,5.157365E0,8.309479E0,0E0,0E0,0E0,0E0,0E0,0E0,0E0,0E0,0E0,0E0,0E0,0E0,0E0,0E0,0E0,0E0,0E0,0E0,0E0,0E0,0E0,0E0,0E0,0E0,0E0,0E0,0E0,0E0],"parents":[2147483647,0,0,1,1,2,2,3,3,4,4,6,6,7,7,8,8,9,9,10,10,12,12,13,13,14,14,15,15,16,16,17,17,18,18,19,19,20,20,23,23,24,24,25,25,26,26,27,27,28,28,29,29,30,30,31,31,32,32,35,35,36,36,37,37,38,38],"right_children":[2,4,6,8,10,-1,12,14,16,18,20,-1,22,24,26,28,30,32,34,36,38,-1,-1,40,42,44,46,48,50,52,54,56,58,-1,-1,60,62,64,66,-1,-1,-1,-1,-1,-1,-1,-1,-1,-1,-1,-1,-1,-1,-1,-1,-1,-1,-1,-1,-1,-1,-1,-1,-1,-1,-1,-1],"split_conditions":[4.2882073E-1,5.104226E-1,-3.9515495E-1,-1.3046855E-1,-3.1065232E-1,-2.5956945E-2,-1.8130165E-1,5.2695505E-2,-2.8519075E-2,2.645054E-1,-3.351958E-2,8.657113E-2,-2.606773E-1,2.6568833E-1,6.085587E-1,-6.482589E-2,1.9289815E-1,5.105525E-1,4.0157594E-2,-9.531208E-2,-2.932639E-1,1.2880413E-1,4.5171788E-1,-8.541151E-1,-4.2284824E-2,3.1155086E-1,4.3335557E-1,9.3113855E-2,4.0921292E-1,3.3955777E-1,-3.118418E-1,-3.4438863E-1,-2.177698E-1,-1.756889E-1,2.4793543E-2,1.8437527E-1,6.390499E-1,-4.6795893E-1,-1.693278E-1,8.446628E-2,1.252976E-1,1.8513598E-1,-3.261257E-2,1.1048176E-1,2.502536E-1,2.1125853E-1,-1.463167E-1,5.9660584E-2,1.13291286E-1,1.2196029E-1,1.3455033E-1,1.3085173E-1,1.4953013E-1,1.3999094E-1,8.346164E-2,3.3607495E-1,1.9451068E-1,-1.0674033E-1,3.3014792E-1,-1.3595909E-1,3.3576733E-1,1.637072E-1,-8.521438E-2,2.362882E-1,-8.048023E-2,-7.9318166E-2,1.493205E-1],"split_indices":[388,287,133,413,313,0,77,613,465,399,77,0,148,637,90,192,476,211,3,64,666,0,0,458,313,120,457,583,471,96,622,490,456,0,0,663,630,479,501,0,0,0,0,0,0,0,0,0,0,0,0,0,0,0,0,0,0,0,0,0,0,0,0,0,0,0,0],"split_type":[0,0,0,0,0,0,0,0,0,0,0,0,0,0,0,0,0,0,0,0,0,0,0,0,0,0,0,0,0,0,0,0,0,0,0,0,0,0,0,0,0,0,0,0,0,0,0,0,0,0,0,0,0,0,0,0,0,0,0,0,0,0,0,0,0,0,0],"sum_hessian":[7.7438234E4,7.742162E4,1.6619654E1,7.575885E4,1.6627607E3,1.7062918E0,1.4913362E1,2.487516E4,5.0883695E4,1.5008046E2,1.5126803E3,1.6969807E0,1.321638E1,1.3173548E4,1.1701611E4,3.3469105E4,1.7414588E4,1.4429239E2,5.7880683E0,6.749848E1,1.4451818E3,1.3262339E0,1.1890146E1,1.2869617E4,3.0393036E2,1.15513125E4,1.5029897E2,3.3612546E3,3.0107852E4,1.6141123E4,1.2734644E3,1.2649742E2,1.7794971E1,4.6017966E0,1.1862714E0,1.142834E1,5.607014E1,2.7570145E1,1.4176117E3,5.1101334E2,1.2358604E4,2.9054938E2,1.3381006E1,1.150346E4,4.7852783E1,1.4363487E2,6.6640935E0,3.990437E2,2.962211E3,2.3505834E4,6.602018E3,1.3159465E4,2.9816587E3,5.1447107E2,7.589932E2,6.785601E1,5.8641415E1,1.23531275E1,5.4418435E0,1.6978E0,9.73054E0,1.1431432E1,4.463871E1,4.746066E0,2.282408E1,1.3875096E1,1.4037366E3],"tree_param":{"num_deleted":"0","num_feature":"768","num_nodes":"67","size_leaf_vector":"0"}},{"base_weights":[-2.3389699E-1,2.9451272E-1,-2.3409294E-1,7.518157E-1,-2.8470135E-1,1.0260725E0,-2.3418015E-1,1.2270106E0,-2.1244887E-1,3.2282987E-1,-4.9665013E-1,2.0268016E-1,1.2917342E0,-3.01468E-1,-2.3246327E-1,-2.9862928E-1,1.5447625E0,-4.077298E-1,1.9905141E-1,6.24553E-1,-3.0697042E-1,-2.3501264E-1,-1.8254201E-1,1.7987152E0,4.6461964E-1,1.7380016E0,-2.5879568E-1,6.580998E-1,-3.1120646E-1,-2.3517233E-1,5.085533E-1,4.3147847E-1,-1.87604E-1,-4.3416777E-1,2.028518E-1,1.5888549E0,-4.0683433E-1,-3.1648225E-1,4.3334955E-1,-2.3404197E-1,-3.3947948E-1,1.0745752E0,-4.4761077E-1,1.5780232E0,-4.260485E-2,-1.9039442E-1,8.773274E-1],"categories":[],"categories_nodes":[],"categories_segments":[],"categories_sizes":[],"default_left":[1,1,1,1,1,1,1,1,1,0,0,0,0,1,1,0,1,0,0,1,1,1,1,0,0,0,1,1,1,1,1,1,1,0,0,0,0,0,0,0,0,0,0,0,0,0,0],"id":15,"left_children":[1,3,5,7,9,11,13,15,17,-1,-1,-1,-1,19,21,-1,23,-1,-1,25,27,29,31,-1,-1,-1,33,35,37,39,41,43,45,-1,-1,-1,-1,-1,-1,-1,-1,-1,-1,-1,-1,-1,-1],"loss_changes":[4.841797E0,4.857606E0,5.305908E0,4.875424E0,1.2496755E0,4.76542E-1,5.253418E0,3.80338E0,4.1682404E-1,0E0,0E0,0E0,0E0,6.0165634E0,5.6765137E0,0E0,7.738247E-1,0E0,0E0,7.415496E0,4.853325E0,5.196289E0,6.881386E0,0E0,0E0,0E0,4.7825918E-1,5.8901587E0,4.5869446E0,4.960205E0,5.6203547E0,9.956093E0,6.6176147E0,0E0,0E0,0E0,0E0,0E0,0E0,0E0,0E0,0E0,0E0,0E0,0E0,0E0,0E0],"parents":[2147483647,0,0,1,1,2,2,3,3,4,4,5,5,6,6,7,7,8,8,13,13,14,14,16,16,19,19,20,20,21,21,22,22,26,26,27,27,28,28,29,29,30,30,31,31,32,32],"right_children":[2,4,6,8,10,12,14,16,18,-1,-1,-1,-1,20,22,-1,24,-1,-1,26,28,30,32,-1,-1,-1,34,36,38,40,42,44,46,-1,-1,-1,-1,-1,-1,-1,-1,-1,-1,-1,-1,-1,-1],"split_conditions":[-4.9828917E-1,2.9590088E-1,-4.3948534E-1,-3.2413852E-1,-3.1514588E-1,-1.5687048E-1,-1.5871893E-1,-4.7571313E-1,2.1036731E-2,9.6848965E-2,-1.4899504E-1,6.080405E-2,3.8752028E-1,-4.283258E-1,8.5166514E-2,-8.958879E-2,3.668422E-2,-1.22318946E-1,5.9715424E-2,1.6708918E-1,-5.4831E-1,9.249644E-1,-1.5923744E-1,5.396146E-1,1.393859E-1,5.214005E-1,-1.1160803E-2,-7.947991E-2,4.5298582E-1,5.602231E-2,-3.159237E-1,-2.7246383E-1,9.8860815E-2,-1.3025033E-1,6.085554E-2,4.766565E-1,-1.2205031E-1,-9.494468E-2,1.3000487E-1,-7.0212595E-2,-1.0184385E-1,3.2237256E-1,-1.3428323E-1,4.7340697E-1,-1.2781455E-2,-5.7118326E-2,2.6319823E-1],"split_indices":[187,747,93,459,16,9,688,91,200,0,0,0,0,510,678,0,435,0,0,677,137,504,359,0,0,0,0,351,599,331,579,75,74,0,0,0,0,0,0,0,0,0,0,0,0,0,0],"split_type":[0,0,0,0,0,0,0,0,0,0,0,0,0,0,0,0,0,0,0,0,0,0,0,0,0,0,0,0,0,0,0,0,0,0,0,0,0,0,0,0,0,0,0,0,0,0,0],"sum_hessian":[4.6099613E4,1.6531063E1,4.6083082E4,9.07117E0,7.4598923E0,2.3754132E0,4.6080707E4,5.894061E0,3.1771092E0,1.7941058E0,5.6657863E0,1.0094981E0,1.365915E0,1.142174E3,4.493853E4,1.0263535E0,4.8677073E0,2.1608312E0,1.016278E0,6.082115E0,1.1360918E3,4.27516E4,2.1869297E3,3.4024904E0,1.4652171E0,2.2626112E0,3.819504E0,4.2903504E0,1.1318014E3,4.2743105E4,8.496065E0,1.7192844E1,2.1697368E3,2.8111289E0,1.0083753E0,2.0268786E0,2.2634718E0,1.1244089E3,7.392451E0,4.2288086E4,4.550206E2,5.25903E0,3.237035E0,4.348253E0,1.2844591E1,2.1648853E3,4.851393E0],"tree_param":{"num_deleted":"0","num_feature":"768","num_nodes":"47","size_leaf_vector":"0"}},{"base_weights":[-1.5354861E-1,-1.5184578E-1,-2.2149478E-1,6.5907586E-1,-1.5199576E-1,8.7106955E-1,-2.2601353E-1,-4.432384E-1,1.2572969E0,-2.4817659E-1,-1.5069924E-1,-1.3026473E-1,1.8097914E0,6.4146525E-1,-2.3147239E-1,-3.039843E-1,1.6399803E0,1.0451958E-1,-2.7915332E-1,2.3169398E-1,-1.5105294E-1,1.6579936E-1,-3.397812E-1,-2.7838877E-1,1.7122356E0,8.105867E-1,-2.3601238E-1,1.0213151E0,-5.4759532E-2,1.0671409E0,-2.8637114E-1,-4.1265324E-2,9.9761117E-1,-1.5425125E-1,-1.1211692E-1,7.6553985E-2,-4.3202144E-1,-4.110491E-1,1.774137E0,-2.4081123E-1,5.52596E-1,1.7974315E0,-1.9002104E-1,1.1025853E0,-1.9379432E-1,1.0743238E-1,1.5646948E0,8.2527125E-1,-2.9341978E-1,-2.23694E-1,8.2084197E-1,1.7593749E0,-1.3437502E-1,-6.5624736E-2,-1.5581162E-1,-1.1425316E-1,7.606794E-1,-2.5229025E-1,1.16730966E-1,1.2243588E0,-4.4076675E-1],"categories":[],"categories_nodes":[],"categories_segments":[],"categories_sizes":[],"default_left":[1,1,1,1,1,1,1,0,1,1,1,1,0,1,1,0,0,1,1,1,1,0,0,1,0,1,1,1,1,1,1,1,1,1,1,0,0,0,0,1,1,0,0,0,0,0,0,0,0,0,0,0,0,0,0,0,0,0,0,0,0],"id":16,"left_children":[1,3,5,7,9,11,13,-1,15,17,19,21,-1,23,25,-1,-1,27,29,31,33,-1,-1,35,-1,37,39,41,43,45,47,49,51,53,55,-1,-1,-1,-1,57,59,-1,-1,-1,-1,-1,-1,-1,-1,-1,-1,-1,-1,-1,-1,-1,-1,-1,-1,-1,-1],"loss_changes":[5.663208E0,5.942749E0,6.1293106E0,6.5385623E0,5.951782E0,5.081649E0,5.819031E0,0E0,4.1671724E0,6.9916573E0,6.444824E0,2.6893443E-1,0E0,8.113455E0,5.8245087E0,0E0,0E0,7.6755223E0,6.0008965E0,9.279617E0,5.8791504E0,0E0,0E0,3.074059E-1,0E0,7.074632E0,4.6226044E0,7.650593E0,7.5198708E0,1.4253588E0,4.8162384E0,5.458438E0,1.0282528E1,6.040283E0,6.7951355E0,0E0,0E0,0E0,0E0,4.871811E0,5.53034E0,0E0,0E0,0E0,0E0,0E0,0E0,0E0,0E0,0E0,0E0,0E0,0E0,0E0,0E0,0E0,0E0,0E0,0E0,0E0,0E0],"parents":[2147483647,0,0,1,1,2,2,3,3,4,4,5,5,6,6,8,8,9,9,10,10,11,11,13,13,14,14,17,17,18,18,19,19,20,20,23,23,25,25,26,26,27,27,28,28,29,29,30,30,31,31,32,32,33,33,34,34,39,39,40,40],"right_children":[2,4,6,8,10,12,14,-1,16,18,20,22,-1,24,26,-1,-1,28,30,32,34,-1,-1,36,-1,38,40,42,44,46,48,50,52,54,56,-1,-1,-1,-1,58,60,-1,-1,-1,-1,-1,-1,-1,-1,-1,-1,-1,-1,-1,-1,-1,-1,-1,-1,-1,-1],"split_conditions":[1.12758465E-1,-5.123528E-1,-4.4474792E-1,-5.4474022E-2,-5.7541497E-2,2.800027E-1,-9.253618E-2,-1.3297153E-1,-1.2490139E-1,-3.4748405E-1,-1.16444826E-1,-3.7466958E-1,5.4293746E-1,1.3997646E-1,-4.8645592E-1,-9.11953E-2,4.919941E-1,-1.6802679E-1,-5.4318894E-2,-8.4209144E-2,9.117324E-2,4.973981E-2,-1.01934366E-1,-2.5674218E-1,5.136707E-1,3.1776053E-1,4.5081496E-1,9.9776864E-2,-3.1571567E-1,3.196021E-2,7.493175E-2,2.4441534E-1,-7.476343E-2,-2.6852387E-1,2.225534E-1,2.2966197E-2,-1.2960644E-1,-1.2331473E-1,5.322411E-1,2.9835293E-1,4.3112524E-2,5.3922945E-1,-5.7006314E-2,3.3077562E-1,-5.81383E-2,3.2229714E-2,4.6940845E-1,2.4758138E-1,-8.8025935E-2,-6.71082E-2,2.462526E-1,5.278125E-1,-4.0312506E-2,-1.9687422E-2,-4.674349E-2,-3.427595E-2,2.2820383E-1,-7.568708E-2,3.501929E-2,3.6730766E-1,-1.3223003E-1],"split_indices":[435,372,368,243,603,298,617,0,331,56,404,12,0,406,274,0,0,666,492,756,197,0,0,1,0,90,614,309,750,24,67,658,154,695,644,0,0,0,0,39,448,0,0,0,0,0,0,0,0,0,0,0,0,0,0,0,0,0,0,0,0],"split_type":[0,0,0,0,0,0,0,0,0,0,0,0,0,0,0,0,0,0,0,0,0,0,0,0,0,0,0,0,0,0,0,0,0,0,0,0,0,0,0,0,0,0,0,0,0,0,0,0,0,0,0,0,0,0,0,0,0,0,0,0,0],"sum_hessian":[4.9236727E4,4.8036105E4,1.200623E3,8.070413E0,4.8028035E4,4.15535E0,1.1964678E3,2.9301794E0,5.140233E0,6.3627655E2,4.7391758E4,2.4273398E0,1.7280104E0,6.7534585E0,1.1897142E3,1.0523756E0,4.0878572E0,5.117958E1,5.85097E2,4.3189533E1,4.734857E4,1.0923773E0,1.3349625E0,4.030788E0,2.7226708E0,4.3906503E0,1.1853236E3,6.774439E0,4.440514E1,2.337038E0,5.8275995E2,3.2539246E1,1.0650288E1,4.3751715E4,3.5968525E3,1.369196E0,2.6615918E0,2.1888816E0,2.2017686E0,1.1788447E3,6.4788747E0,3.8340678E0,2.9403713E0,4.019123E0,4.0386017E1,1.2130886E0,1.1239494E0,2.9404385E0,5.798195E2,2.7467445E1,5.0718007E0,6.034899E0,4.6153884E0,7.5771423E2,4.2994004E4,3.5889375E3,7.915146E0,1.14246E3,3.638474E1,3.7263715E0,2.752503E0],"tree_param":{"num_deleted":"0","num_feature":"768","num_nodes":"61","size_leaf_vector":"0"}},{"base_weights":[-1.2021652E-1,-1.1908943E-1,-2.2875206E-1,-1.21141195E-1,-5.9300542E-2,7.090292E-1,-2.4170072E-1,-1.21432E-1,3.518517E-1,-6.577803E-2,6.875136E-1,-4.3985343E-1,1.4936264E0,-2.5129786E-1,1.0610635E0,3.3504188E-1,-1.2172519E-1,-5.334712E-1,6.993539E-1,-7.669274E-2,3.891503E-1,1.3516566E0,-4.9655652E-1,9.3565986E-2,2.0307071E0,-2.5840762E-1,1.6010209E0,1.7023395E0,-3.14109E-1,7.7052814E-1,-1.2948482E-1,-3.783664E-1,-1.2106134E-1,1.9362593E-1,1.729157E0,-8.507775E-2,4.177259E-1,7.7695644E-1,-2.4014924E-1,1.7525563E0,-3.6887142E-1,1.3417857E0,-2.6536384E-1,-4.412134E-1,1.0498538E0,6.5465117E-1,-4.6234465E-1,1.1481283E0,-4.003776E-1,-2.0860296E-1,-1.1952604E-1,-2.3217697E-1,1.3786649E0,-3.4861985E-1,2.2923632E0,-5.2458968E-2,-2.186998E-1,1.0290647E0,-2.0617785E-1,1.3245564E0,-3.1125355E-3,-5.461725E-1,4.8543835E-1,1.1031699E-1,2.0347323E0,3.6967364E-1,-2.8144002E-1],"categories":[],"categories_nodes":[],"categories_segments":[],"categories_sizes":[],"default_left":[1,1,1,1,1,1,1,1,1,1,1,0,1,1,1,1,1,0,1,1,1,1,0,0,0,1,0,0,0,1,1,1,1,1,1,1,1,1,1,1,0,0,1,0,0,0,0,0,0,0,0,0,0,0,0,0,0,0,0,0,0,0,0,0,0,0,0],"id":17,"left_children":[1,3,5,7,9,11,13,15,17,19,21,-1,23,25,27,29,31,-1,33,35,37,39,-1,-1,-1,41,-1,-1,-1,43,45,47,49,51,53,55,57,59,61,63,-1,-1,65,-1,-1,-1,-1,-1,-1,-1,-1,-1,-1,-1,-1,-1,-1,-1,-1,-1,-1,-1,-1,-1,-1,-1,-1],"loss_changes":[6.173279E0,6.1470947E0,6.484066E0,6.7141113E0,8.106625E0,7.2684574E0,6.68717E0,6.528076E0,9.620594E0,8.237818E0,1.2008546E1,0E0,3.2582254E0,7.1378517E0,4.0153027E0,6.44783E0,8.20752E0,0E0,1.1132382E1,6.731408E0,9.6788E0,7.2026176E0,0E0,0E0,0E0,6.0273285E0,0E0,0E0,0E0,5.9939003E0,4.4892235E0,4.64332E0,6.4692993E0,8.339455E0,9.137749E0,6.9144573E0,1.0550087E1,1.0384745E1,3.727726E0,3.4283543E0,0E0,0E0,5.291416E0,0E0,0E0,0E0,0E0,0E0,0E0,0E0,0E0,0E0,0E0,0E0,0E0,0E0,0E0,0E0,0E0,0E0,0E0,0E0,0E0,0E0,0E0,0E0,0E0],"parents":[2147483647,0,0,1,1,2,2,3,3,4,4,5,5,6,6,7,7,8,8,9,9,10,10,12,12,13,13,14,14,15,15,16,16,18,18,19,19,20,20,21,21,25,25,29,29,30,30,31,31,32,32,33,33,34,34,35,35,36,36,37,37,38,38,39,39,42,42],"right_children":[2,4,6,8,10,12,14,16,18,20,22,-1,24,26,28,30,32,-1,34,36,38,40,-1,-1,-1,42,-1,-1,-1,44,46,48,50,52,54,56,58,60,62,64,-1,-1,66,-1,-1,-1,-1,-1,-1,-1,-1,-1,-1,-1,-1,-1,-1,-1,-1,-1,-1,-1,-1,-1,-1,-1,-1],"split_conditions":[2.9180828E-1,2.3794231E-1,-3.308006E-1,3.4067947E-1,-8.590536E-2,2.4617797E-2,4.1490883E-1,-4.6625695E-1,-4.7229904E-1,3.3456933E-1,-1.4733467E-1,-1.3195604E-1,-2.049717E-1,1.215742E-1,-1.9719433E-2,-1.5413171E-1,-1.9669458E-1,-1.6004138E-1,-1.11860745E-1,4.707206E-1,-6.251788E-2,1.8939304E-1,-1.4896697E-1,2.8069796E-2,6.0921216E-1,-4.051613E-2,4.803063E-1,5.107019E-1,-9.42327E-2,-2.1158312E-1,-1.6897964E-1,-3.5375372E-1,-3.9037296E-1,3.1441355E-1,-3.326435E-1,3.283323E-1,-2.5396276E-1,-3.4372432E-3,1.7463021E-1,2.5151575E-1,-1.1066143E-1,4.025357E-1,-2.4869981E-1,-1.3236402E-1,3.1495616E-1,1.9639535E-1,-1.387034E-1,3.444385E-1,-1.2011328E-1,-6.258089E-2,-3.5857815E-2,-6.9653094E-2,4.1359946E-1,-1.0458596E-1,6.87709E-1,-1.5737692E-2,-6.560994E-2,3.087194E-1,-6.1853357E-2,3.973669E-1,-9.3376066E-4,-1.6385175E-1,1.456315E-1,3.30951E-2,6.1041975E-1,1.1090209E-1,-8.4432006E-2],"split_indices":[727,688,372,283,550,284,341,183,407,108,500,0,246,187,69,274,705,0,619,735,746,592,0,0,0,575,0,0,0,740,337,554,74,711,485,298,257,730,514,294,0,0,660,0,0,0,0,0,0,0,0,0,0,0,0,0,0,0,0,0,0,0,0,0,0,0,0],"split_type":[0,0,0,0,0,0,0,0,0,0,0,0,0,0,0,0,0,0,0,0,0,0,0,0,0,0,0,0,0,0,0,0,0,0,0,0,0,0,0,0,0,0,0,0,0,0,0,0,0,0,0,0,0,0,0,0,0,0,0,0,0,0,0,0,0,0,0],"sum_hessian":[5.0685934E4,5.016707E4,5.1886224E2,4.8501625E4,1.6654469E3,6.3345985E0,5.1252765E2,4.8472566E4,2.905838E1,1.65203E3,1.3416948E1,2.748853E0,3.5857456E0,5.0958078E2,2.9468422E0,3.0380203E1,4.8442188E4,8.039973E0,2.1018408E1,1.6141349E3,3.7895145E1,8.504983E0,4.911965E0,1.319719E0,2.2660267E0,5.0848953E2,1.0912479E0,1.847431E0,1.0994112E0,1.534024E1,1.5039964E1,1.235131E2,4.831867E4,1.4892731E1,6.125676E0,1.5880309E3,2.6104008E1,2.3301159E1,1.4593987E1,6.882644E0,1.6223384E0,1.370332E0,5.071192E2,2.7651575E0,1.2575083E1,4.193756E0,1.0846208E1,1.0284452E0,1.2248465E2,8.3047534E2,4.74882E4,1.1547582E1,3.3451493E0,1.3875912E0,4.738085E0,1.2775563E3,3.1047452E2,1.2856769E1,1.3247239E1,1.3280437E1,1.00207205E1,1.0438657E1,4.155331E0,1.2131526E0,5.669492E0,1.197785E1,4.9514136E2],"tree_param":{"num_deleted":"0","num_feature":"768","num_nodes":"67","size_leaf_vector":"0"}},{"base_weights":[-1.5946014E-2,-1.6614728E-2,1.6038606E-1,-2.3808263E-1,-1.6039668E-2,-9.883747E-2,3.2981557E-1,7.4257016E-1,-2.8626558E-1,6.639944E-2,-1.7640647E-2,-1.673161E-1,1.4203827E0,-1.9776246E-1,4.53198E-1,-4.4685575E-1,1.5031351E0,-3.663225E-1,3.2623515E-1,5.253874E-2,7.665322E-1,-1.8416084E-2,1.770211E-1,-3.4738135E-1,2.7049854E-1,-4.3257263E-1,6.1505085E-1,3.1238672E-1,1.2519164E0,5.1838773E-1,1.7344092E0,-3.954843E-1,1.0026003E0,7.542828E-1,-2.7187353E-1,-9.5795535E-2,1.105621E-1,1.4154677E-1,1.5429996E0,-8.827801E-2,-1.6158747E-2,1.2257452E0,1.2790619E-1,-4.096543E-1,1.0197138E0,-3.633957E-2,1.3693807E0,1.222726E-1,-5.755442E-1,-1.8060914E-1,1.3295407E0,-4.8622817E-1,4.3640852E-1,1.7596135E0,3.9374564E-2,-4.4903362E-1,2.4636173E-1,2.3308824E-1,1.7880263E0,-5.1482946E-1,5.2703154E-1,2.0545386E-1,-1.9614764E-1,4.498873E-1,6.539388E-2,1.5538528E0,-2.0727305E-1,1.840041E0,3.1890176E-2,-3.2102942E-2,-1.7780861E-1,-1.05748855E-1,-1.4434421E-2,-3.7257028E-1,1.5764805E0,3.973154E-1,-2.5824204E-2,8.148454E-1,-4.5858744E-1,1.0282366E0,-2.868808E-1,-3.3889624E-1,1.9596301E0,-9.340775E-2,3.171537E-1,-3.6810553E-1,1.1206296E-1,1.2169313E-1,-5.610234E-1,1.4757562E0,3.224003E-1,2.0458136E0,-3.2665765E-1,-4.7287244E-1,1.0345446E0],"categories":[],"categories_nodes":[],"categories_segments":[],"categories_sizes":[],"default_left":[1,1,1,1,1,1,1,1,1,1,1,1,0,1,1,0,1,1,1,1,1,1,1,1,1,1,1,1,1,0,0,1,0,1,1,1,1,1,1,1,1,1,1,1,0,1,1,1,0,1,0,1,1,1,1,0,0,0,0,0,0,0,0,0,0,0,0,0,0,0,0,0,0,0,0,0,0,0,0,0,0,0,0,0,0,0,0,0,0,0,0,0,0,0,0],"id":18,"left_children":[1,3,5,7,9,11,13,15,17,19,21,23,-1,25,27,-1,29,31,33,35,37,39,41,43,45,47,49,51,53,-1,-1,55,-1,57,59,61,63,65,67,69,71,73,75,77,-1,79,81,83,-1,85,-1,87,89,91,93,-1,-1,-1,-1,-1,-1,-1,-1,-1,-1,-1,-1,-1,-1,-1,-1,-1,-1,-1,-1,-1,-1,-1,-1,-1,-1,-1,-1,-1,-1,-1,-1,-1,-1,-1,-1,-1,-1,-1,-1],"loss_changes":[6.5948057E0,7.0893745E0,9.313204E0,7.0247335E0,7.333127E0,9.006738E0,8.422683E0,7.0313683E0,6.8932095E0,1.0231648E1,8.229126E0,6.5229445E0,0E0,5.029886E0,1.1311922E1,0E0,1.296978E-1,5.2924576E0,4.4287233E0,8.95323E0,9.7176075E0,8.558533E0,1.0985079E1,5.3743324E0,8.252569E0,1.6531739E0,3.655279E0,9.105802E0,9.326548E0,0E0,0E0,4.262638E0,0E0,4.9067607E0,1.7497306E0,8.888441E0,1.1424687E1,6.4529495E0,3.9944706E0,8.537828E0,8.121416E0,5.9470377E0,8.614612E0,3.7530088E0,0E0,5.627168E0,6.0445204E0,2.3611945E-1,0E0,2.4553147E-1,0E0,6.386018E-1,8.796379E0,7.078274E0,3.3069375E0,0E0,0E0,0E0,0E0,0E0,0E0,0E0,0E0,0E0,0E0,0E0,0E0,0E0,0E0,0E0,0E0,0E0,0E0,0E0,0E0,0E0,0E0,0E0,0E0,0E0,0E0,0E0,0E0,0E0,0E0,0E0,0E0,0E0,0E0,0E0,0E0,0E0,0E0,0E0,0E0],"parents":[2147483647,0,0,1,1,2,2,3,3,4,4,5,5,6,6,7,7,8,8,9,9,10,10,11,11,13,13,14,14,16,16,17,17,18,18,19,19,20,20,21,21,22,22,23,23,24,24,25,25,26,26,27,27,28,28,31,31,33,33,34,34,35,35,36,36,37,37,38,38,39,39,40,40,41,41,42,42,43,43,45,45,46,46,47,47,49,49,51,51,52,52,53,53,54,54],"right_children":[2,4,6,8,10,12,14,16,18,20,22,24,-1,26,28,-1,30,32,34,36,38,40,42,44,46,48,50,52,54,-1,-1,56,-1,58,60,62,64,66,68,70,72,74,76,78,-1,80,82,84,-1,86,-1,88,90,92,94,-1,-1,-1,-1,-1,-1,-1,-1,-1,-1,-1,-1,-1,-1,-1,-1,-1,-1,-1,-1,-1,-1,-1,-1,-1,-1,-1,-1,-1,-1,-1,-1,-1,-1,-1,-1,-1,-1,-1,-1],"split_conditions":[4.8843145E-1,-4.1154027E-2,1.9789338E-1,-2.8973433E-1,-1.16516486E-1,2.307455E-1,-2.2264946E-1,-2.3887314E-1,-1.3134614E-1,2.395469E-1,2.493801E-1,3.6727577E-1,4.2611483E-1,3.8525216E-2,2.0056147E-2,-1.3405673E-1,1.1211121E-1,1.4601526E-1,-8.1513405E-2,-2.9934917E-2,-4.7225602E-2,-1.78368E-1,-6.5494165E-2,6.5495366E-1,2.3495272E-1,-2.60236E-1,-7.943241E-2,-1.2753086E-2,7.441461E-2,1.5551633E-1,5.203228E-1,2.7503756E-1,3.0078012E-1,9.0823784E-2,2.2832476E-2,1.4023645E-2,-1.12002715E-1,-3.33905E-1,1.3715595E-2,-1.1618744E-1,1.084841E-1,-2.6825863E-1,-3.0092E-1,-2.1884316E-1,3.0591413E-1,-2.0201504E-1,-4.1911772E-1,-1.5760688E-1,-1.7266326E-1,4.3139914E-1,3.9886224E-1,-3.2900892E-2,2.1982452E-1,1.2733111E-1,5.008E-1,-1.3471009E-1,7.390852E-2,6.992648E-2,5.3640795E-1,-1.5444884E-1,1.5810947E-1,6.163616E-2,-5.8844294E-2,1.349662E-1,1.9618165E-2,4.6615586E-1,-6.2181916E-2,5.520123E-1,9.567053E-3,-9.630883E-3,-5.3342585E-2,-3.1724658E-2,-4.330327E-3,-1.11771084E-1,4.7294417E-1,1.1919463E-1,-7.7472613E-3,2.4445362E-1,-1.3757624E-1,3.08471E-1,-8.606424E-2,-1.0166888E-1,5.878891E-1,-2.8022327E-2,9.514611E-2,-1.1043166E-1,3.361889E-2,3.6507938E-2,-1.6830704E-1,4.4272688E-1,9.672009E-2,6.137441E-1,-9.79973E-2,-1.4186174E-1,3.1036338E-1],"split_indices":[330,130,404,444,287,730,339,672,615,80,169,617,0,628,338,0,7,88,759,740,695,185,605,410,711,317,185,514,236,0,0,633,0,522,119,66,574,728,289,112,659,502,644,115,0,602,156,1,0,2,0,501,715,574,202,0,0,0,0,0,0,0,0,0,0,0,0,0,0,0,0,0,0,0,0,0,0,0,0,0,0,0,0,0,0,0,0,0,0,0,0,0,0,0,0],"split_type":[0,0,0,0,0,0,0,0,0,0,0,0,0,0,0,0,0,0,0,0,0,0,0,0,0,0,0,0,0,0,0,0,0,0,0,0,0,0,0,0,0,0,0,0,0,0,0,0,0,0,0,0,0,0,0,0,0,0,0,0,0,0,0,0,0,0,0,0,0,0,0,0,0,0,0,0,0,0,0,0,0,0,0,0,0,0,0,0,0,0,0,0,0,0,0],"sum_hessian":[5.5904625E4,5.5694316E4,2.1030652E2,1.431705E2,5.555115E4,8.329048E1,1.2701603E2,6.0301056E0,1.371404E2,1.0574885E3,5.449366E4,8.054959E1,2.7408934E0,2.396024E1,1.03055786E2,2.5128303E0,3.5172753E0,1.21642975E2,1.5497423E1,1.0380137E3,1.9474771E1,5.4278344E4,2.1531319E2,5.722184E1,2.3327753E1,1.895284E1,5.007397E0,8.8793E1,1.4262788E1,1.285435E0,2.2318404E0,1.1980196E2,1.841014E0,8.880683E0,6.61674E0,2.9168423E2,7.4632947E2,1.1444938E1,8.029834E0,1.697723E3,5.258062E4,8.560871E0,2.0675232E2,5.5398705E1,1.823136E0,1.8991684E1,4.3360696E0,3.912798E0,1.5040044E1,2.7226539E0,2.2847433E0,1.1543073E1,7.724993E1,9.735366E0,4.5274224E0,1.1085381E2,8.948148E0,6.7187114E0,2.1619713E0,5.3464165E0,1.2703234E0,7.26243E1,2.1905995E2,8.662216E1,6.597073E2,1.5826173E0,9.86232E0,6.5287833E0,1.50105E0,1.0440211E3,6.5370197E2,9.917609E2,5.158886E4,1.5293418E0,7.031529E0,7.45393E1,1.3221303E2,1.5273045E0,5.38714E1,3.026729E0,1.5964954E1,1.2228336E0,3.113236E0,2.1044443E0,1.8083537E0,1.502413E0,1.2202408E0,1.1959126E0,1.034716E1,6.455405E0,7.0794525E1,8.578005E0,1.1573609E0,3.3354092E0,1.1920131E0],"tree_param":{"num_deleted":"0","num_feature":"768","num_nodes":"95","size_leaf_vector":"0"}},{"base_weights":[3.0790398E-1,3.2164168E-1,3.0055526E-1,3.2216948E-1,-2.8725722E-1,3.389982E-1,2.964959E-1,3.20628E-1,5.3450614E-1,7.118371E-1,-4.8517522E-1,2.531442E-1,3.6536205E-1,2.97271E-1,4.697985E-2,3.1575435E-1,3.9039662E-1,1.1171809E-2,6.193991E-1,1.0140834E0,-9.500307E-3,-6.534905E-1,3.84928E-1,4.2236102E-1,1.995386E-1,3.2185328E-1,4.18982E-1,6.1782014E-1,2.966626E-1,-4.8264544E-2,5.145999E-1,2.3699567E-1,3.1993815E-1,1.0067143E-2,4.053024E-1,-2.5340796E-1,8.5837036E-1,6.835702E-1,-1.4842582E-1,4.6508215E-2,-7.0664835E-1,9.415357E-1,-4.3957835E-1,5.0713867E-1,4.133833E-2,1.8942688E-1,1.1847315E0,3.3387774E-1,-1.6050586E-2,4.4874707E-1,1.494325E-1,6.8991834E-1,-4.6852177E-1,-1.8899368E-1,2.9708388E-1,-2.4421005E-1,2.7511725E-1,-5.91127E-1,7.2047937E-1,3.8595557E-1,1.9125086E-1,3.3244088E-1,2.8560275E-1,-9.9154025E-2,7.974823E-1,2.2116569E-1,4.397242E-1,4.0850678E-1,-4.485975E-1,-1.0043629E-2,1.057723E0,8.0897814E-1,3.0485478E-1,7.1543264E-1,-5.006611E-1,-5.780203E-2,5.5207896E-1,1.8447365E-1,-5.7993066E-1,-1.7794989E-1,2.1089156E-1,1.2723017E0,3.9788586E-1,-4.2478386E-1,3.3895046E-1,-3.566607E-1,2.2523455E-1,5.049719E-1,3.4054694E-1,2.497234E-1,-2.4144816E-1,8.1506836E-1,3.8077634E-2,-5.987587E-1,2.3359979E-2,-3.29392E-1,7.4242896E-1,2.757273E-1,3.051782E-1,1.0413486E0,-3.035769E-1,4.8659816E-1,-4.305325E-1,-3.546854E-1,9.41098E-1],"categories":[],"categories_nodes":[],"categories_segments":[],"categories_sizes":[],"default_left":[1,1,1,1,1,1,1,1,1,1,1,1,1,1,1,1,1,1,1,0,0,1,1,1,1,1,1,1,1,1,1,1,1,1,1,1,1,1,1,0,0,0,0,1,1,1,1,1,1,1,1,1,1,1,1,1,1,0,1,0,0,0,0,0,0,0,0,0,0,0,0,0,0,0,0,0,0,0,0,0,0,0,0,0,0,0,0,0,0,0,0,0,0,0,0,0,0,0,0,0,0,0,0,0,0],"id":19,"left_children":[1,3,5,7,9,11,13,15,17,19,21,23,25,27,29,31,33,35,37,-1,-1,39,41,43,45,47,49,51,53,55,57,59,61,63,65,67,69,71,73,-1,-1,-1,-1,75,77,79,81,83,85,87,89,91,93,95,97,99,101,-1,103,-1,-1,-1,-1,-1,-1,-1,-1,-1,-1,-1,-1,-1,-1,-1,-1,-1,-1,-1,-1,-1,-1,-1,-1,-1,-1,-1,-1,-1,-1,-1,-1,-1,-1,-1,-1,-1,-1,-1,-1,-1,-1,-1,-1,-1,-1],"loss_changes":[8.208008E0,9.301025E0,8.265137E0,9.199219E0,5.356745E0,1.1480408E1,9.365234E0,9.541992E0,9.093536E0,1.0115936E0,3.4365396E0,1.0841461E1,8.98584E0,9.245605E0,6.766513E0,8.680908E0,1.0493713E1,6.854342E0,8.784714E0,0E0,0E0,7.247324E-1,2.3204265E0,9.310207E0,8.906765E0,8.792099E0,1.3957062E1,7.4244804E0,9.9296875E0,8.093598E0,6.2762637E0,9.086685E0,1.0736572E1,6.17337E0,1.119693E1,3.1980424E0,1.2699308E0,7.4861526E0,4.744129E0,0E0,0E0,0E0,0E0,6.0288696E0,4.879127E0,7.201462E0,1.223011E-1,8.18071E0,6.265961E0,9.401276E0,6.93326E0,6.937954E0,4.1362298E-1,5.7939415E0,8.25E0,6.3763447E0,7.411898E0,0E0,5.5797615E0,0E0,0E0,0E0,0E0,0E0,0E0,0E0,0E0,0E0,0E0,0E0,0E0,0E0,0E0,0E0,0E0,0E0,0E0,0E0,0E0,0E0,0E0,0E0,0E0,0E0,0E0,0E0,0E0,0E0,0E0,0E0,0E0,0E0,0E0,0E0,0E0,0E0,0E0,0E0,0E0,0E0,0E0,0E0,0E0,0E0,0E0],"parents":[2147483647,0,0,1,1,2,2,3,3,4,4,5,5,6,6,7,7,8,8,9,9,10,10,11,11,12,12,13,13,14,14,15,15,16,16,17,17,18,18,21,21,22,22,23,23,24,24,25,25,26,26,27,27,28,28,29,29,30,30,31,31,32,32,33,33,34,34,35,35,36,36,37,37,38,38,43,43,44,44,45,45,46,46,47,47,48,48,49,49,50,50,51,51,52,52,53,53,54,54,55,55,56,56,58,58],"right_children":[2,4,6,8,10,12,14,16,18,20,22,24,26,28,30,32,34,36,38,-1,-1,40,42,44,46,48,50,52,54,56,58,60,62,64,66,68,70,72,74,-1,-1,-1,-1,76,78,80,82,84,86,88,90,92,94,96,98,100,102,-1,104,-1,-1,-1,-1,-1,-1,-1,-1,-1,-1,-1,-1,-1,-1,-1,-1,-1,-1,-1,-1,-1,-1,-1,-1,-1,-1,-1,-1,-1,-1,-1,-1,-1,-1,-1,-1,-1,-1,-1,-1,-1,-1,-1,-1,-1,-1],"split_conditions":[-1.5741295E-1,8.464383E-1,-1.5215528E-1,3.782171E-1,-4.155916E-1,-2.8466934E-1,2.7739167E-1,-3.367397E-3,2.6865497E-1,1.9789907E-1,1.4864229E-1,-4.4732235E-2,-7.0414674E-1,-3.2202405E-1,-1.4031631E-1,-7.8780964E-2,-1.2985007E-1,4.027532E-1,3.9616555E-1,3.0422503E-1,-2.8500922E-3,-2.1500987E-1,4.2939678E-2,1.0194905E-1,2.0906971E-1,-1.2391354E-1,3.2648672E-3,6.1232843E-2,-1.2951952E-1,6.80249E-2,-2.605318E-1,9.621605E-3,-1.6724676E-1,2.1513972E-1,-1.6590169E-1,-8.656318E-2,1.4364892E-1,4.7385225E-1,-1.9028771E-1,1.3952465E-2,-2.1199451E-1,2.8246072E-1,-1.3187352E-1,-4.6556157E-1,1.3364453E-2,1.2974262E-1,1.950975E-1,-1.7338341E-1,-4.8883802E-1,1.24757655E-1,7.533425E-2,4.5913093E-2,1.2635243E-1,2.2361158E-1,-7.970932E-2,-4.2031407E-1,1.4480937E-1,-1.773381E-1,-7.290486E-2,1.1578668E-1,5.737526E-2,9.973227E-2,8.568083E-2,-2.9746208E-2,2.392447E-1,6.634971E-2,1.3191727E-1,1.2255204E-1,-1.3457926E-1,-3.013089E-3,3.1731692E-1,2.4269345E-1,9.1456436E-2,2.146298E-1,-1.5019833E-1,-1.734061E-2,1.656237E-1,5.5342097E-2,-1.7397921E-1,-5.338497E-2,6.326747E-2,3.8169053E-1,1.1936576E-1,-1.2743516E-1,1.01685144E-1,-1.0699821E-1,6.7570366E-2,1.5149158E-1,1.0216408E-1,7.4917026E-2,-7.2434455E-2,2.4452052E-1,1.1423291E-2,-1.7962761E-1,7.0079938E-3,-9.88176E-2,2.227287E-1,8.271819E-2,9.1553465E-2,3.1240457E-1,-9.1073066E-2,1.4597945E-1,-1.2915975E-1,-1.0640562E-1,2.823294E-1],"split_indices":[759,719,702,558,618,57,723,182,7,17,72,159,370,751,479,544,304,620,749,0,0,488,22,560,115,623,416,256,6,183,438,135,634,220,594,391,1,636,756,0,0,0,0,231,35,683,72,558,316,468,171,372,4,218,254,485,493,0,287,0,0,0,0,0,0,0,0,0,0,0,0,0,0,0,0,0,0,0,0,0,0,0,0,0,0,0,0,0,0,0,0,0,0,0,0,0,0,0,0,0,0,0,0,0,0],"split_type":[0,0,0,0,0,0,0,0,0,0,0,0,0,0,0,0,0,0,0,0,0,0,0,0,0,0,0,0,0,0,0,0,0,0,0,0,0,0,0,0,0,0,0,0,0,0,0,0,0,0,0,0,0,0,0,0,0,0,0,0,0,0,0,0,0,0,0,0,0,0,0,0,0,0,0,0,0,0,0,0,0,0,0,0,0,0,0,0,0,0,0,0,0,0,0,0,0,0,0,0,0,0,0,0,0],"sum_hessian":[8.22586E4,2.8652521E4,5.3606082E4,2.8628178E4,2.4343433E1,5.111987E3,4.8494098E4,2.8424338E4,2.0383894E2,3.5956893E0,2.0747744E1,1.2034729E3,3.9085142E3,4.8343727E4,1.5036844E2,2.6573586E4,1.8507529E3,2.8608643E1,1.752303E2,2.2479444E0,1.347745E0,1.759338E1,3.1543632E0,2.8787106E2,9.156018E2,2.1615627E3,1.7469514E3,8.966577E1,4.8254062E4,1.2566907E2,2.4699366E1,1.3433356E3,2.523025E4,6.986192E1,1.780891E3,2.233448E1,6.274162E0,1.6181622E2,1.341409E1,1.2505711E0,1.634281E1,1.7983766E0,1.3559867E0,