{"learner":{"attributes":{"best_iteration":"29","best_ntree_limit":"30"},"feature_names":[],"feature_types":[],"gradient_booster":{"model":{"gbtree_model_param":{"num_parallel_tree":"1","num_trees":"150","size_leaf_vector":"0"},"tree_info":[0,1,2,3,4,0,1,2,3,4,0,1,2,3,4,0,1,2,3,4,0,1,2,3,4,0,1,2,3,4,0,1,2,3,4,0,1,2,3,4,0,1,2,3,4,0,1,2,3,4,0,1,2,3,4,0,1,2,3,4,0,1,2,3,4,0,1,2,3,4,0,1,2,3,4,0,1,2,3,4,0,1,2,3,4,0,1,2,3,4,0,1,2,3,4,0,1,2,3,4,0,1,2,3,4,0,1,2,3,4,0,1,2,3,4,0,1,2,3,4,0,1,2,3,4,0,1,2,3,4,0,1,2,3,4,0,1,2,3,4,0,1,2,3,4,0,1,2,3,4],"trees":[{"base_weights":[8.458714E-5,-2.1956775E-1,5.1750207E-1,-3.664649E-1,1.8085514E-1,8.763295E-1,1.8383926E-1,-4.619292E-1,-1.4952639E-1,1.4799288E-2,7.515298E-1,1.1422312E0,3.5395983E-1,-8.105544E-2,5.4530257E-1,-2.625751E-1,-5.2396894E-1,-2.5938156E-1,3.0893895E-1,-2.0529091E-1,3.4585056E-1,1.0117711E0,6.1899114E-2,1.4799626E0,8.829905E-1,-1.5473408E-1,7.6550215E-1,-2.7797225E-1,2.342524E-1,1.875963E-1,8.2886565E-1,-3.2890403E-1,4.0456638E-1,-3.768978E-1,-5.609842E-1,-3.4663647E-1,2.8123533E-2,1.0566615E0,1.605574E-1,1.2522207E-1,-3.5073325E-1,5.990214E-1,5.617343E-2,1.5592214E0,7.4312806E-1,5.0144184E-1,-2.4349564E-1,1.5494388E0,5.4988213E-2,5.6494224E-1,1.1286893E0,1.17817275E-1,-4.4128317E-1,1.0473256E0,3.1504816E-1,-8.492005E-2,-4.1850218E-1,5.2674824E-1,-1.1662237E-1,5.846615E-1,-1.3994401E-2,1.1969986E0,5.6220526E-1,-6.7562E-2,-4.121392E-1,-1.2868801E-1,6.49635E-1,-4.706402E-1,-1.5959914E-1,-4.3245268E-1,-5.8544236E-1,-1.5132912E-1,-4.1424277E-1,-1.5972735E-1,3.5253227E-1,3.3585617E-1,1.3860277E0,-5.134474E-2,5.035686E-1,-1.3351008E-1,5.200347E-1,-2.182245E-1,-4.9762905E-1,7.9859364E-1,1.5662079E-1,5.2915764E-1,-4.9665444E-2,1.9923316E0,1.0516065E0,1.1282545E0,5.013794E-1,1.227951E0,2.739726E-1,1.07893236E-1,-4.6541107E-1,1.7654374E0,1.1805482E0,-3.9487725E-1,1.2188365E0,7.3562825E-1,-2.3034839E-2,1.3339444E0,7.228285E-1,6.2982E-1,-6.932733E-2,7.142857E-1,-4.6719974E-1,7.3834425E-1,1.3841474E0,-7.9365075E-2,7.2617245E-1,3.123787E-1,-1.6652024E-1,-1.7241378E-1,-4.919167E-1,9.378337E-1,2.6886728E-1,2.4654317E-1,-3.3527467E-1,7.611145E-1,-6.752194E-3,8.342077E-1,-8.3786815E-2,2.0284476E0,1.0321459E0,3.6055842E-1,9.4844043E-1],"categories":[],"categories_nodes":[],"categories_segments":[],"categories_sizes":[],"default_left":[1,1,1,1,1,1,1,1,1,1,1,1,1,1,1,1,1,1,1,1,1,1,1,1,1,1,1,1,1,1,1,1,1,1,1,1,1,1,1,1,1,1,1,1,1,1,1,1,1,1,1,1,1,1,1,1,1,1,1,1,1,1,1,0,0,0,0,0,0,0,0,0,0,0,0,0,0,0,0,0,0,0,0,0,0,0,0,0,0,0,0,0,0,0,0,0,0,0,0,0,0,0,0,0,0,0,0,0,0,0,0,0,0,0,0,0,0,0,0,0,0,0,0,0,0,0,0],"id":0,"left_children":[1,3,5,7,9,11,13,15,17,19,21,23,25,27,29,31,33,35,37,39,41,43,45,47,49,51,53,55,57,59,61,63,65,67,69,71,73,75,77,79,81,83,85,87,89,91,93,95,97,99,101,103,105,107,109,111,113,115,117,119,121,123,125,-1,-1,-1,-1,-1,-1,-1,-1,-1,-1,-1,-1,-1,-1,-1,-1,-1,-1,-1,-1,-1,-1,-1,-1,-1,-1,-1,-1,-1,-1,-1,-1,-1,-1,-1,-1,-1,-1,-1,-1,-1,-1,-1,-1,-1,-1,-1,-1,-1,-1,-1,-1,-1,-1,-1,-1,-1,-1,-1,-1,-1,-1,-1,-1],"loss_changes":[2.956051E3,1.0740554E3,9.2785547E2,2.7658276E2,4.6444177E2,5.183054E2,3.8473212E2,1.1458533E2,2.0574777E2,2.7675977E2,1.9819476E2,2.1532568E2,2.641411E2,1.4407532E2,1.722023E2,9.7642334E1,3.829492E1,8.266287E1,8.7457275E1,1.0972369E2,1.1120802E2,1.16784485E2,4.0891663E1,1.061438E2,1.0894226E2,4.4165627E1,8.8193756E1,3.8710976E1,9.1627396E1,6.0256195E1,9.23457E1,4.3583145E1,2.6183792E1,2.8958801E1,1.7505127E1,3.3313354E1,4.6861027E1,3.05401E1,4.8012363E1,7.136655E1,3.0737167E1,7.1330505E1,3.5494877E1,5.5743835E1,4.969922E1,2.0294449E1,1.4077007E1,7.9434814E1,2.7141739E1,6.155336E1,6.485681E1,2.7857876E1,8.586288E0,4.357483E1,4.3806477E1,1.9598476E1,1.4843124E1,5.1349823E1,3.2356834E1,2.6457481E1,2.9680773E1,5.234375E1,4.2602783E1,0E0,0E0,0E0,0E0,0E0,0E0,0E0,0E0,0E0,0E0,0E0,0E0,0E0,0E0,0E0,0E0,0E0,0E0,0E0,0E0,0E0,0E0,0E0,0E0,0E0,0E0,0E0,0E0,0E0,0E0,0E0,0E0,0E0,0E0,0E0,0E0,0E0,0E0,0E0,0E0,0E0,0E0,0E0,0E0,0E0,0E0,0E0,0E0,0E0,0E0,0E0,0E0,0E0,0E0,0E0,0E0,0E0,0E0,0E0,0E0,0E0,0E0,0E0,0E0],"parents":[2147483647,0,0,1,1,2,2,3,3,4,4,5,5,6,6,7,7,8,8,9,9,10,10,11,11,12,12,13,13,14,14,15,15,16,16,17,17,18,18,19,19,20,20,21,21,22,22,23,23,24,24,25,25,26,26,27,27,28,28,29,29,30,30,31,31,32,32,33,33,34,34,35,35,36,36,37,37,38,38,39,39,40,40,41,41,42,42,43,43,44,44,45,45,46,46,47,47,48,48,49,49,50,50,51,51,52,52,53,53,54,54,55,55,56,56,57,57,58,58,59,59,60,60,61,61,62,62],"right_children":[2,4,6,8,10,12,14,16,18,20,22,24,26,28,30,32,34,36,38,40,42,44,46,48,50,52,54,56,58,60,62,64,66,68,70,72,74,76,78,80,82,84,86,88,90,92,94,96,98,100,102,104,106,108,110,112,114,116,118,120,122,124,126,-1,-1,-1,-1,-1,-1,-1,-1,-1,-1,-1,-1,-1,-1,-1,-1,-1,-1,-1,-1,-1,-1,-1,-1,-1,-1,-1,-1,-1,-1,-1,-1,-1,-1,-1,-1,-1,-1,-1,-1,-1,-1,-1,-1,-1,-1,-1,-1,-1,-1,-1,-1,-1,-1,-1,-1,-1,-1,-1,-1,-1,-1,-1,-1],"split_conditions":[6.3549384E-2,3.5531662E-2,5.5849373E-2,1.5615734E-1,-5.4126427E-2,-1.5427178E-1,2.2326681E-1,-2.0167288E-1,-1.1064562E-1,1.3233568E-1,-1.21594094E-1,-2.72204E-1,1.5447879E-1,-1.4224353E-1,-3.2841556E-2,-4.319021E-2,1.0337308E-2,-4.6120644E-2,-2.5595155E-1,-5.3075943E-2,1.02534175E-1,-3.69968E-1,-2.811522E-1,2.5319034E-1,-1.6241917E-2,-2.8767496E-1,7.224968E-2,-1.18179925E-1,-2.0202538E-1,3.153268E-1,6.480822E-3,1.56391E-2,3.3490184E-1,2.1893857E-1,-9.524114E-2,1.0678574E-1,-5.71871E-3,-1.4622364E-2,3.274048E-2,-3.664291E-1,-2.7231836E-1,-3.332957E-1,-2.6570326E-1,1.798169E-2,-1.4154267E-1,-1.9439118E-1,-7.089951E-2,-2.3189934E-1,4.980319E-2,1.1949329E-1,-1.4485121E-1,7.8577265E-2,-3.7298727E-1,-3.4866124E-2,2.4067746E-1,1.2338603E-1,-2.3032148E-1,-1.6047704E-1,1.5869102E-2,-1.7323886E-1,5.8553614E-2,-3.7789688E-1,3.350465E-1,-2.02686E-2,-1.2364177E-1,-3.8606405E-2,1.9489051E-1,-1.4119206E-1,-4.7879744E-2,-1.2973581E-1,-1.7563272E-1,-4.5398735E-2,-1.2427284E-1,-4.7918208E-2,1.0575969E-1,1.00756854E-1,4.1580832E-1,-1.54034225E-2,1.5107058E-1,-4.0053025E-2,1.560104E-1,-6.546735E-2,-1.4928871E-1,2.395781E-1,4.6986237E-2,1.587473E-1,-1.4899634E-2,5.976995E-1,3.1548196E-1,3.3847636E-1,1.5041381E-1,3.6838531E-1,8.219178E-2,3.236797E-2,-1.3962333E-1,5.2963126E-1,3.5416448E-1,-1.1846318E-1,3.6565098E-1,2.2068848E-1,-6.910452E-3,4.0018335E-1,2.1684857E-1,1.8894601E-1,-2.07982E-2,2.1428572E-1,-1.4015993E-1,2.2150329E-1,4.1524425E-1,-2.3809524E-2,2.1785174E-1,9.371361E-2,-4.9956072E-2,-5.1724136E-2,-1.47575E-1,2.8135014E-1,8.066019E-2,7.396296E-2,-1.00582406E-1,2.2833435E-1,-2.0256583E-3,2.5026232E-1,-2.5136046E-2,6.0853434E-1,3.0964378E-1,1.0816753E-1,2.8453213E-1],"split_indices":[388,359,534,477,182,189,477,189,182,477,189,249,477,182,132,182,22,714,189,436,534,168,137,552,714,513,0,435,509,19,723,22,667,735,528,512,698,152,132,563,156,513,249,344,278,529,278,191,150,0,755,603,249,737,621,415,189,278,344,41,160,249,477,0,0,0,0,0,0,0,0,0,0,0,0,0,0,0,0,0,0,0,0,0,0,0,0,0,0,0,0,0,0,0,0,0,0,0,0,0,0,0,0,0,0,0,0,0,0,0,0,0,0,0,0,0,0,0,0,0,0,0,0,0,0,0,0],"split_type":[0,0,0,0,0,0,0,0,0,0,0,0,0,0,0,0,0,0,0,0,0,0,0,0,0,0,0,0,0,0,0,0,0,0,0,0,0,0,0,0,0,0,0,0,0,0,0,0,0,0,0,0,0,0,0,0,0,0,0,0,0,0,0,0,0,0,0,0,0,0,0,0,0,0,0,0,0,0,0,0,0,0,0,0,0,0,0,0,0,0,0,0,0,0,0,0,0,0,0,0,0,0,0,0,0,0,0,0,0,0,0,0,0,0,0,0,0,0,0,0,0,0,0,0,0,0,0],"sum_hessian":[2.6007682E4,1.8257602E4,7.7500806E3,1.3357441E4,4.90016E3,3.7334402E3,4.0166404E3,9.274881E3,4.0825603E3,3.7964802E3,1.10368E3,2.4732803E3,1.26016E3,2.3184001E3,1.6982401E3,2.20256E3,7.0723203E3,3.2937603E3,7.8880005E2,2.2806401E3,1.5158401E3,8.009601E2,3.0272003E2,1.0720001E3,1.4012802E3,5.6384E2,6.9632007E2,1.4272001E3,8.912001E2,7.5168005E2,9.4656006E2,2.0038401E3,1.9872002E2,1.4243201E3,5.6480005E3,2.5267202E3,7.6704004E2,1.296E2,6.592001E2,6.9696E2,1.58368E3,8.0832007E2,7.075201E2,2.6208002E2,5.3888007E2,1.2384001E2,1.7888002E2,1.0220801E3,4.9920002E1,6.1216003E2,7.8912006E2,2.8928003E2,2.7456003E2,4.2752002E2,2.6880002E2,6.0192004E2,8.2528E2,4.8576004E2,4.0544003E2,2.5248001E2,4.9920004E2,3.9616003E2,5.504E2,4.8448004E2,1.5193601E3,6.2720005E1,1.3600002E2,9.9424005E2,4.3008002E2,9.0592004E2,4.7420806E3,6.5056006E2,1.8761602E3,4.8608005E2,2.8096002E2,4.1280003E1,8.832001E1,4.0800003E2,2.5120001E2,4.2144003E2,2.7552002E2,8.3392004E2,7.497601E2,5.5648004E2,2.5184001E2,1.2864001E2,5.7888007E2,1.3984001E2,1.22240005E2,2.0640001E2,3.3248E2,2.8480001E1,9.536001E1,6.944E1,1.0944001E2,6.4224005E2,3.7984003E2,3.6480003E1,1.3440001E1,4.7424002E2,1.3792001E2,5.2256006E2,2.6656003E2,7.68E1,2.1248001E2,5.4400005E0,2.6912003E2,2.2464001E2,2.0288002E2,1.376E2,1.3120001E2,1.0208001E2,4.9984003E2,1.9040001E2,6.3488007E2,1.8624002E2,2.9952002E2,1.5232E2,2.5312001E2,1.9424002E2,5.8240005E1,3.7120003E1,4.6208005E2,6.3680004E1,3.3248E2,3.6288004E2,1.8752002E2],"tree_param":{"num_deleted":"0","num_feature":"768","num_nodes":"127","size_leaf_vector":"0"}},{"base_weights":[4.613844E-5,1.2379854E0,-4.2484954E-1,1.9722537E0,2.3900478E-1,1.058501E-1,-4.899364E-1,8.8123196E-1,2.1408072E0,6.689414E-1,-1.0902226E-1,-1.7265388E-1,8.6872035E-1,-2.09403E-1,-5.264185E-1,2.4932191E-1,1.252936E0,9.293044E-1,2.2077408E0,9.263015E-1,5.6179773E-2,-2.0775232E-1,3.3834586E-1,-2.6183394E-1,9.646017E-1,1.3488713E-1,1.3243212E0,-3.259313E-1,4.9160668E-1,6.260143E-2,-5.331172E-1,-2.3455642E-1,6.378986E-1,4.3864518E-1,1.4802787E0,1.7251635E-1,1.3869549E0,2.2580645E0,1.1826227E0,1.1394216E0,1.369863E-1,-2.3544589E-1,6.263805E-1,-4.1313E-3,-3.530201E-1,7.6401955E-1,8.037129E-2,1.02679096E-1,-3.737876E-1,1.4722753E0,3.2396564E-1,-7.378372E-2,9.2788035E-1,5.1165146E-1,1.7339892E0,5.8905426E-3,-4.1875693E-1,1.1119336E0,-7.225046E-2,-1.6145968E-1,1.6729678E0,-4.284782E-1,-5.617854E-1,-3.3656296E-1,7.142857E-1,1.0725552E0,-0E0,1.412151E0,-5.7518486E-2,1.6605672E0,3.0927834E-1,-2.920962E-1,6.5426165E-1,3.524229E-1,1.7100819E0,1.7734581E0,2.314346E0,4.1938487E-2,1.6281238E0,6.7844236E-1,1.480483E0,-1.4876032E-1,6.3037246E-1,-2.956944E-1,1.1867703E0,-1.4447884E-1,9.5505613E-1,5.0116545E-1,-1.0095595E-1,-4.61352E-1,-1.7542623E-1,1.4269787E0,4.2016804E-1,-3.3846152E-1,3.2126373E-1,6.4194983E-1,-1.7905103E-1,-2.00267E-2,-4.2903942E-1,-1.8315017E-2,1.7524601E0,8.1081074E-1,-4.064272E-1,-2.7641478E-1,4.0229884E-1,1.7674857E0,1.8957345E-1,1.111111E0,-6.1808717E-2,2.1699817E-1,1.8850901E0,-1.988029E-1,6.1833686E-1,-1.7248501E-1,-4.6026057E-1,1.9983347E-1,1.5970013E0,2.7220628E-1,-3.6936042E-1,-2.859807E-1,4.9432737E-1,2.1352785E0,4.5197737E-1,-4.7688574E-1,-2.0463799E-1,-4.268822E-1,-5.689187E-1],"categories":[],"categories_nodes":[],"categories_segments":[],"categories_sizes":[],"default_left":[1,1,1,1,1,1,1,1,1,1,1,1,1,1,1,1,1,1,1,1,1,1,1,1,1,1,1,1,1,1,1,1,1,1,1,1,1,1,1,1,1,1,1,1,1,1,1,1,1,1,1,1,1,1,1,1,1,1,1,1,1,1,1,0,0,0,0,0,0,0,0,0,0,0,0,0,0,0,0,0,0,0,0,0,0,0,0,0,0,0,0,0,0,0,0,0,0,0,0,0,0,0,0,0,0,0,0,0,0,0,0,0,0,0,0,0,0,0,0,0,0,0,0,0,0,0,0],"id":1,"left_children":[1,3,5,7,9,11,13,15,17,19,21,23,25,27,29,31,33,35,37,39,41,43,45,47,49,51,53,55,57,59,61,63,65,67,69,71,73,75,77,79,81,83,85,87,89,91,93,95,97,99,101,103,105,107,109,111,113,115,117,119,121,123,125,-1,-1,-1,-1,-1,-1,-1,-1,-1,-1,-1,-1,-1,-1,-1,-1,-1,-1,-1,-1,-1,-1,-1,-1,-1,-1,-1,-1,-1,-1,-1,-1,-1,-1,-1,-1,-1,-1,-1,-1,-1,-1,-1,-1,-1,-1,-1,-1,-1,-1,-1,-1,-1,-1,-1,-1,-1,-1,-1,-1,-1,-1,-1,-1],"loss_changes":[1.3680964E4,4.87459E3,6.688999E2,7.025137E2,4.2153156E2,4.4976297E2,1.7641748E2,1.2048352E2,2.6693848E2,1.98682E2,6.886213E1,1.575639E2,1.890951E2,1.6244058E2,6.0254883E1,3.6197563E1,5.9249115E1,6.0509537E1,1.5945605E2,1.491214E2,6.2304882E1,3.7757465E1,3.0901466E1,5.8765182E1,3.6274475E1,3.61353E1,1.1535687E2,5.248958E1,9.9262764E1,6.2518875E1,4.5030273E1,8.575793E0,2.9556644E1,3.487786E1,5.2797913E1,1.5241095E1,3.588791E1,7.7572266E1,7.573128E1,1.08831055E2,2.685243E1,2.1604586E1,3.225424E1,2.6104237E1,1.425219E1,2.3627964E1,1.793463E1,5.160666E1,2.1514603E1,2.624324E1,1.8549877E1,1.6846664E1,2.7857365E1,4.078434E1,5.2705505E1,4.694378E1,1.3530731E1,5.9444336E1,1.5398555E1,1.2582977E1,1.0979233E1,3.5114075E1,1.115332E1,0E0,0E0,0E0,0E0,0E0,0E0,0E0,0E0,0E0,0E0,0E0,0E0,0E0,0E0,0E0,0E0,0E0,0E0,0E0,0E0,0E0,0E0,0E0,0E0,0E0,0E0,0E0,0E0,0E0,0E0,0E0,0E0,0E0,0E0,0E0,0E0,0E0,0E0,0E0,0E0,0E0,0E0,0E0,0E0,0E0,0E0,0E0,0E0,0E0,0E0,0E0,0E0,0E0,0E0,0E0,0E0,0E0,0E0,0E0,0E0,0E0,0E0,0E0,0E0],"parents":[2147483647,0,0,1,1,2,2,3,3,4,4,5,5,6,6,7,7,8,8,9,9,10,10,11,11,12,12,13,13,14,14,15,15,16,16,17,17,18,18,19,19,20,20,21,21,22,22,23,23,24,24,25,25,26,26,27,27,28,28,29,29,30,30,31,31,32,32,33,33,34,34,35,35,36,36,37,37,38,38,39,39,40,40,41,41,42,42,43,43,44,44,45,45,46,46,47,47,48,48,49,49,50,50,51,51,52,52,53,53,54,54,55,55,56,56,57,57,58,58,59,59,60,60,61,61,62,62],"right_children":[2,4,6,8,10,12,14,16,18,20,22,24,26,28,30,32,34,36,38,40,42,44,46,48,50,52,54,56,58,60,62,64,66,68,70,72,74,76,78,80,82,84,86,88,90,92,94,96,98,100,102,104,106,108,110,112,114,116,118,120,122,124,126,-1,-1,-1,-1,-1,-1,-1,-1,-1,-1,-1,-1,-1,-1,-1,-1,-1,-1,-1,-1,-1,-1,-1,-1,-1,-1,-1,-1,-1,-1,-1,-1,-1,-1,-1,-1,-1,-1,-1,-1,-1,-1,-1,-1,-1,-1,-1,-1,-1,-1,-1,-1,-1,-1,-1,-1,-1,-1,-1,-1,-1,-1,-1,-1],"split_conditions":[-6.7740315E-1,1.4201106E-2,-8.5671484E-2,-1.0698167E-1,1.0926663E-1,1.5183184E-1,-5.7480085E-1,-4.5088246E-2,-2.9914135E-1,-5.7115063E-2,-1.8488961E-1,6.284244E-2,-1.0964674E-1,1.5941657E-1,4.1832468E-3,-2.5103438E-1,1.3427368E-2,3.2781184E-1,-1.9952927E-2,3.7020117E-2,1.20721616E-1,-2.8675996E-2,-3.0959602E-2,1.5876365E-1,1.731239E-1,4.0809584E-1,1.0768446E-1,-1.8537303E-2,-1.1373052E-2,3.2279342E-1,-1.6944414E-1,5.021494E-2,-7.65109E-2,-4.394172E-2,3.0013347E-1,2.830524E-2,-1.4617823E-1,-2.0213274E-2,1.4686674E-1,-8.687438E-2,3.268122E-1,-1.0297913E-1,1.5373582E-1,-7.186597E-2,4.8730177E-1,-1.5278E-1,5.302666E-1,-8.925229E-2,-2.1611005E-2,-3.375076E-2,8.0743104E-2,3.127262E-1,-2.4178776E-1,-7.354163E-2,1.547835E-1,-6.9971904E-2,-5.999058E-1,-6.976211E-2,4.9920745E-2,1.7840938E-1,2.7780049E-2,-6.457716E-2,-1.5359002E-1,-1.0096889E-1,2.1428572E-1,3.2176656E-1,-0E0,4.2364532E-1,-1.7255547E-2,4.9817017E-1,9.27835E-2,-8.7628864E-2,1.962785E-1,1.05726875E-1,5.130246E-1,5.3203744E-1,6.943039E-1,1.2581547E-2,4.8843715E-1,2.0353271E-1,4.4414493E-1,-4.46281E-2,1.8911175E-1,-8.8708326E-2,3.5603112E-1,-4.3343656E-2,2.8651685E-1,1.5034965E-1,-3.0286785E-2,-1.384056E-1,-5.2627873E-2,4.2809364E-1,1.2605041E-1,-1.0153846E-1,9.637912E-2,1.9258496E-1,-5.371531E-2,-6.0080104E-3,-1.2871183E-1,-5.494505E-3,5.2573806E-1,2.4324323E-1,-1.2192816E-1,-8.292444E-2,1.2068965E-1,5.302457E-1,5.6872036E-2,3.333333E-1,-1.8542616E-2,6.5099455E-2,5.655271E-1,-5.9640873E-2,1.8550107E-1,-5.1745504E-2,-1.3807818E-1,5.9950043E-2,4.791004E-1,8.166189E-2,-1.1080813E-1,-8.579421E-2,1.4829822E-1,6.405836E-1,1.3559322E-1,-1.4306572E-1,-6.13914E-2,-1.2806466E-1,-1.7067562E-1],"split_indices":[539,165,530,528,165,174,539,98,361,359,593,545,692,188,298,335,344,89,359,530,188,150,530,621,621,20,512,530,165,717,618,173,31,150,203,301,435,110,174,528,89,593,552,244,365,566,586,66,269,272,298,330,313,374,89,435,459,528,530,468,28,435,351,0,0,0,0,0,0,0,0,0,0,0,0,0,0,0,0,0,0,0,0,0,0,0,0,0,0,0,0,0,0,0,0,0,0,0,0,0,0,0,0,0,0,0,0,0,0,0,0,0,0,0,0,0,0,0,0,0,0,0,0,0,0,0,0],"split_type":[0,0,0,0,0,0,0,0,0,0,0,0,0,0,0,0,0,0,0,0,0,0,0,0,0,0,0,0,0,0,0,0,0,0,0,0,0,0,0,0,0,0,0,0,0,0,0,0,0,0,0,0,0,0,0,0,0,0,0,0,0,0,0,0,0,0,0,0,0,0,0,0,0,0,0,0,0,0,0,0,0,0,0,0,0,0,0,0,0,0,0,0,0,0,0,0,0,0,0,0,0,0,0,0,0,0,0,0,0,0,0,0,0,0,0,0,0,0,0,0,0,0,0,0,0,0,0],"sum_hessian":[2.6007682E4,6.6451206E3,1.936256E4,3.8294402E3,2.8156802E3,2.1152002E3,1.7247361E4,5.1328E2,3.3161602E3,1.2592001E3,1.5564801E3,1.5500801E3,5.6512006E2,1.9856001E3,1.5261761E4,1.9072002E2,3.2256003E2,1.7440001E2,3.1417603E3,8.864001E2,3.7280002E2,1.2755201E3,2.8096002E2,1.4380801E3,1.1200001E2,2.1696002E2,3.4816003E2,1.7030402E3,2.8256003E2,1.7152002E2,1.5090241E4,8.512E1,1.05600006E2,7.104001E1,2.5152002E2,6.6240005E1,1.0816001E2,2.9936E3,1.4816E2,6.9760004E2,1.8880002E2,2.4704002E2,1.2576001E2,5.3152E2,7.4400006E2,1.0528001E2,1.7568001E2,3.3792E2,1.10016E3,6.1760006E1,5.024E1,1.7248001E2,4.4480003E1,1.1744001E2,2.3072002E2,3.7248004E2,1.33056E3,1.3408002E2,1.4848001E2,1.5136002E2,2.0160002E1,3.2486401E3,1.1841601E4,7.744E1,7.6800003E0,6.2400005E1,4.3200005E1,2.3360003E1,4.7680004E1,2.1760002E2,3.3920002E1,3.3920002E1,3.2320004E1,2.6240002E1,8.1920006E1,3.1488004E2,2.6787202E3,4.1920002E1,1.06240005E2,2.9792E2,3.9968002E2,1.2000001E2,6.88E1,2.3776001E2,9.280001E0,3.7760002E1,8.800001E1,8.48E1,4.4672003E2,4.6112003E2,2.8288E2,3.488E1,7.04E1,6.400001E1,1.1168001E2,1.1552001E2,2.2240001E2,1.488E2,9.5136005E2,9.920001E0,5.1840004E1,3.0080002E1,2.0160002E1,1.2128001E2,5.1200005E1,2.0160002E1,2.4320002E1,5.6960003E1,6.0480003E1,2.112E1,2.0960002E2,2.7968002E2,9.28E1,1.9264001E2,1.13792E3,4.7040005E1,8.704001E1,6.88E1,7.968001E1,1.2768001E2,2.3680002E1,1.4080001E1,6.0800004E0,2.67008E3,5.7856006E2,5.977601E2,1.1243841E4],"tree_param":{"num_deleted":"0","num_feature":"768","num_nodes":"127","size_leaf_vector":"0"}},{"base_weights":[-6.920766E-5,1.2392439E0,-3.0642873E-1,1.6091567E0,4.8531452E-1,1.09299295E-1,-4.4020522E-1,8.315014E-1,1.8358912E0,1.113111E0,1.7993914E-1,5.349333E-1,-1.5161137E-1,-1.72858E-1,-4.9927408E-1,2.4816862E-1,1.1324339E0,2.0056832E0,1.0848866E0,1.4392933E0,3.3123025E-1,7.108288E-1,-3.5866946E-2,9.9934393E-1,1.1649415E-1,-2.9566404E-1,2.0980889E-1,-3.2702717E-1,1.8821603E-1,-5.313667E-1,-2.4631353E-1,-3.881793E-2,6.6703415E-1,1.3783635E0,5.383809E-1,2.0820231E0,1.3690174E0,6.6345435E-1,1.5811739E0,8.16414E-1,1.7781996E0,5.952794E-1,-2.766798E-1,2.869706E-1,1.1678004E0,2.5878593E-1,-2.1946944E-1,1.3776975E0,4.4507676E-1,6.8815726E-1,-8.2392834E-2,-7.697168E-2,-3.9331326E-1,-1.525595E-1,5.494695E-1,-4.0786836E-1,-2.6333112E-2,-1.0140585E-1,6.3684016E-1,-5.5502146E-1,-4.085372E-1,-3.665218E-1,7.3168285E-2,9.725685E-1,-1.5067735E-1,2.173913E-1,1.0398378E0,9.485941E-1,1.6420038E0,8.9129525E-1,-5.8986813E-2,2.1360552E0,1.2721417E0,1.6417587E0,3.8985616E-1,1.2376702E0,3.9646626E-1,1.7213597E0,3.4482756E-1,2.659892E-1,1.3034072E0,1.915008E0,7.2821844E-1,1.0766045E0,1.0638297E-1,6.896551E-1,-3.930131E-1,1.4503816E0,1.6949151E-1,1.5653641E0,7.2358143E-1,5.7625544E-1,-1.3176537E-1,-2.0610057E-2,-4.0380776E-1,1.5850857E0,5.3262067E-1,1.1045828E0,1.952837E-1,8.903849E-1,-1.3709062E-1,4.8034933E-1,-1.8748821E-1,1.7912042E-1,-2.6926553E-1,-2.563602E-1,-4.8220116E-1,4.75423E-1,-2.3279874E-1,8.020971E-1,-8.581752E-2,-1.7344725E-1,-4.6565294E-1,-3.2523295E-1,2.8929603E-1,2.8311297E-1,-2.7178124E-1,1.7543858E-1,9.961807E-1,-5.7017225E-1,-4.5303032E-1,-4.6429244E-1,-1.8462697E-1,-2.2744794E-1,-4.7546735E-1,3.6014965E-1,-2.5660294E-1],"categories":[],"categories_nodes":[],"categories_segments":[],"categories_sizes":[],"default_left":[1,1,1,1,1,1,1,1,1,1,1,1,1,1,1,1,1,1,1,1,1,1,1,1,1,1,1,1,1,1,1,1,1,1,1,1,1,1,1,1,1,1,1,1,1,1,1,1,1,1,1,1,1,1,1,1,1,1,1,1,1,1,1,0,0,0,0,0,0,0,0,0,0,0,0,0,0,0,0,0,0,0,0,0,0,0,0,0,0,0,0,0,0,0,0,0,0,0,0,0,0,0,0,0,0,0,0,0,0,0,0,0,0,0,0,0,0,0,0,0,0,0,0,0,0,0,0],"id":2,"left_children":[1,3,5,7,9,11,13,15,17,19,21,23,25,27,29,31,33,35,37,39,41,43,45,47,49,51,53,55,57,59,61,63,65,67,69,71,73,75,77,79,81,83,85,87,89,91,93,95,97,99,101,103,105,107,109,111,113,115,117,119,121,123,125,-1,-1,-1,-1,-1,-1,-1,-1,-1,-1,-1,-1,-1,-1,-1,-1,-1,-1,-1,-1,-1,-1,-1,-1,-1,-1,-1,-1,-1,-1,-1,-1,-1,-1,-1,-1,-1,-1,-1,-1,-1,-1,-1,-1,-1,-1,-1,-1,-1,-1,-1,-1,-1,-1,-1,-1,-1,-1,-1,-1,-1,-1,-1,-1],"loss_changes":[9.875236E3,1.4369546E3,1.1598602E3,6.0818555E2,3.2538315E2,5.6398334E2,2.4907251E2,1.3707141E2,3.3911914E2,1.4121082E2,1.310606E2,3.7492804E2,1.6400186E2,1.5908289E2,1.0477173E2,3.2188953E1,7.462549E1,1.0319141E2,1.0263147E2,8.123944E1,2.662451E1,6.3699173E1,4.409988E1,1.911867E2,1.1561313E2,4.8058945E1,1.10606766E2,4.866162E1,1.11207886E2,3.308838E1,5.596969E1,1.8216166E1,1.8018642E1,3.9707947E1,3.224052E1,8.245117E1,6.2524445E1,4.0872025E1,3.873578E1,3.7148575E1,3.4924988E1,2.7003532E1,5.959338E0,2.3377335E1,2.6905197E1,3.8884224E1,1.8398094E1,9.433545E1,6.115325E1,4.3920135E1,4.4737244E1,3.4340435E1,1.882463E1,2.204192E1,7.4491745E1,2.1294128E1,4.0219418E1,3.418802E1,5.5487717E1,1.4594482E1,2.3077393E1,1.5931198E1,3.7860634E1,0E0,0E0,0E0,0E0,0E0,0E0,0E0,0E0,0E0,0E0,0E0,0E0,0E0,0E0,0E0,0E0,0E0,0E0,0E0,0E0,0E0,0E0,0E0,0E0,0E0,0E0,0E0,0E0,0E0,0E0,0E0,0E0,0E0,0E0,0E0,0E0,0E0,0E0,0E0,0E0,0E0,0E0,0E0,0E0,0E0,0E0,0E0,0E0,0E0,0E0,0E0,0E0,0E0,0E0,0E0,0E0,0E0,0E0,0E0,0E0,0E0,0E0,0E0,0E0],"parents":[2147483647,0,0,1,1,2,2,3,3,4,4,5,5,6,6,7,7,8,8,9,9,10,10,11,11,12,12,13,13,14,14,15,15,16,16,17,17,18,18,19,19,20,20,21,21,22,22,23,23,24,24,25,25,26,26,27,27,28,28,29,29,30,30,31,31,32,32,33,33,34,34,35,35,36,36,37,37,38,38,39,39,40,40,41,41,42,42,43,43,44,44,45,45,46,46,47,47,48,48,49,49,50,50,51,51,52,52,53,53,54,54,55,55,56,56,57,57,58,58,59,59,60,60,61,61,62,62],"right_children":[2,4,6,8,10,12,14,16,18,20,22,24,26,28,30,32,34,36,38,40,42,44,46,48,50,52,54,56,58,60,62,64,66,68,70,72,74,76,78,80,82,84,86,88,90,92,94,96,98,100,102,104,106,108,110,112,114,116,118,120,122,124,126,-1,-1,-1,-1,-1,-1,-1,-1,-1,-1,-1,-1,-1,-1,-1,-1,-1,-1,-1,-1,-1,-1,-1,-1,-1,-1,-1,-1,-1,-1,-1,-1,-1,-1,-1,-1,-1,-1,-1,-1,-1,-1,-1,-1,-1,-1,-1,-1,-1,-1,-1,-1,-1,-1,-1,-1,-1,-1,-1,-1,-1,-1,-1,-1],"split_conditions":[2.0922365E-2,9.413765E-2,1.0894994E-1,-2.5759923E-1,-2.1335879E-1,3.1912994E-1,1.589603E-1,1.2283702E-1,-8.8034436E-2,1.4271954E-1,1.0600064E-2,-1.6226128E-1,1.5695068E-1,-6.2413473E-2,1.1227131E-1,8.900425E-2,-2.390107E-2,1.871749E-1,-2.4860721E-2,1.5018672E-1,1.6609222E-1,8.3357066E-2,8.635481E-2,1.04841605E-1,1.3966262E-2,-6.513698E-2,2.8636953E-1,6.305598E-2,-2.794379E-1,-2.7567956E-1,5.602955E-3,-2.3741335E-1,1.5677813E-1,5.1038213E-2,-1.11451566E-1,8.892897E-2,8.572589E-2,-8.0966055E-2,7.1120344E-2,-7.130538E-3,1.336166E-1,2.817809E-1,-7.13688E-2,-9.232848E-2,2.682076E-1,-1.2733462E-1,-1.55E-1,9.8906785E-2,-1.4760071E-1,-4.9342E-2,-4.5195132E-2,-1.7348346E-1,-4.692979E-2,-1.0108335E-2,8.3939696E-4,-5.4245654E-2,-1.2956788E-1,-1.668891E-1,-8.4068045E-2,1.3718751E-1,-2.794813E-1,8.202402E-2,-8.787435E-2,2.9177058E-1,-4.520321E-2,6.521739E-2,3.1195137E-1,2.8457823E-1,4.9260116E-1,2.6738858E-1,-1.7696045E-2,6.4081657E-1,3.8164252E-1,4.9252763E-1,1.1695685E-1,3.7130105E-1,1.18939884E-1,5.1640797E-1,1.0344827E-1,7.979677E-2,3.9102218E-1,5.745024E-1,2.1846554E-1,3.2298136E-1,3.1914894E-2,2.0689654E-1,-1.1790393E-1,4.351145E-1,5.0847456E-2,4.6960926E-1,2.1707444E-1,1.7287664E-1,-3.952961E-2,-6.1830175E-3,-1.21142335E-1,4.7552574E-1,1.5978621E-1,3.3137485E-1,5.858511E-2,2.6711547E-1,-4.112719E-2,1.4410481E-1,-5.6246467E-2,5.3736128E-2,-8.0779664E-2,-7.690807E-2,-1.4466035E-1,1.4262691E-1,-6.983963E-2,2.4062914E-1,-2.5745258E-2,-5.2034177E-2,-1.3969588E-1,-9.756989E-2,8.678881E-2,8.493389E-2,-8.153437E-2,5.2631576E-2,2.9885423E-1,-1.7105168E-1,-1.359091E-1,-1.3928774E-1,-5.5388093E-2,-6.8234384E-2,-1.4264022E-1,1.080449E-1,-7.698089E-2],"split_indices":[677,599,677,264,141,659,497,534,141,302,28,141,600,426,0,507,64,296,419,600,28,315,477,302,302,169,194,506,513,168,757,475,6,648,75,140,302,677,28,618,343,223,698,4,667,182,182,468,295,182,28,141,660,302,169,258,759,478,528,600,513,302,478,0,0,0,0,0,0,0,0,0,0,0,0,0,0,0,0,0,0,0,0,0,0,0,0,0,0,0,0,0,0,0,0,0,0,0,0,0,0,0,0,0,0,0,0,0,0,0,0,0,0,0,0,0,0,0,0,0,0,0,0,0,0,0,0],"split_type":[0,0,0,0,0,0,0,0,0,0,0,0,0,0,0,0,0,0,0,0,0,0,0,0,0,0,0,0,0,0,0,0,0,0,0,0,0,0,0,0,0,0,0,0,0,0,0,0,0,0,0,0,0,0,0,0,0,0,0,0,0,0,0,0,0,0,0,0,0,0,0,0,0,0,0,0,0,0,0,0,0,0,0,0,0,0,0,0,0,0,0,0,0,0,0,0,0,0,0,0,0,0,0,0,0,0,0,0,0,0,0,0,0,0,0,0,0,0,0,0,0,0,0,0,0,0,0],"sum_hessian":[2.6007682E4,5.15424E3,2.0853441E4,3.4569602E3,1.6972802E3,5.0768003E3,1.5776642E4,7.8144006E2,2.6755203E3,5.5456006E2,1.1427201E3,1.9289601E3,3.1478403E3,2.8556802E3,1.2920961E4,2.6656003E2,5.1488007E2,2.1808E3,4.9472003E2,3.9072003E2,1.6384001E2,3.2960004E2,8.1312006E2,9.1360004E2,1.01536005E3,2.2508801E3,8.969601E2,2.0012802E3,8.544001E2,1.1465281E4,1.45568E3,1.5872002E2,1.07840004E2,3.632E2,1.5168001E2,1.9452802E3,2.3552002E2,2.6880002E2,2.2592001E2,1.3888E2,2.5184001E2,1.14240005E2,4.9600002E1,1.7184001E2,1.5776001E2,3.1200003E2,5.0112003E2,5.4208E2,3.7152002E2,2.6144003E2,7.5392004E2,6.9536005E2,1.5555201E3,4.3424002E2,4.6272003E2,1.5769601E3,4.2432004E2,5.1968005E2,3.3472003E2,9.610881E3,1.8544001E3,1.0576001E3,3.9808002E2,1.5040001E1,1.4368001E2,4.9600002E1,5.8240005E1,1.3984001E2,2.2336002E2,9.504001E1,5.6640003E1,1.8220801E3,1.2320001E2,1.8368001E2,5.1840004E1,8.416E1,1.8464001E2,2.0256001E2,2.3360003E1,6.5920006E1,7.296001E1,2.2208002E2,2.9760002E1,5.6960003E1,5.7280003E1,4.8E0,4.4800003E1,1.4720001E1,1.5712001E2,8.1920006E1,7.5840004E1,1.7184001E2,1.4016E2,2.4160002E2,2.5952002E2,4.3456003E2,1.07520004E2,1.0112001E2,2.7040002E2,2.0992001E2,5.1520004E1,1.1808001E2,6.3584E2,2.9824002E2,3.9712003E2,6.137601E2,9.417601E2,4.8640003E1,3.8560004E2,3.3088004E2,1.3184001E2,3.1264E2,1.2643201E3,2.1792001E2,2.0640001E2,1.5936002E2,3.6032004E2,1.4720001E2,1.8752002E2,8.363841E3,1.24704E3,1.4838401E3,3.7056003E2,4.6592004E2,5.9168005E2,2.1280002E2,1.8528001E2],"tree_param":{"num_deleted":"0","num_feature":"768","num_nodes":"127","size_leaf_vector":"0"}},{"base_weights":[8.458714E-5,-2.7009842E-1,4.3061808E-1,-5.0586727E-2,-4.1224548E-1,1.9681779E-1,8.7477005E-1,6.061239E-1,-1.04665495E-1,-2.2452298E-1,-4.9040508E-1,2.4379749E-2,4.089459E-1,1.1468135E0,5.827045E-1,8.81019E-1,1.4282526E-1,-1.6069883E-1,1.8102397E-1,-3.0532426E-1,1.12115726E-1,-2.7576196E-1,-5.143358E-1,1.6502686E-1,-1.02451704E-1,7.1299267E-1,2.7852613E-1,9.363949E-1,1.3350741E0,1.8316516E-1,7.250804E-1,2.71944E-1,1.0767872E0,5.0190943E-1,-1.0475121E-1,-6.034849E-2,-2.550164E-1,5.64068E-2,5.49277E-1,-1.2624113E-1,-3.841819E-1,9.610274E-1,3.655373E-2,-6.654763E-2,-3.9137882E-1,-5.4415077E-1,-3.590238E-1,2.522333E-1,-7.254888E-3,6.015867E-2,-2.1030237E-1,9.9838203E-1,5.67834E-1,3.4905007E-1,-3.2423384E-2,1.1044959E0,6.1745965E-1,1.4095676E0,9.657822E-1,4.0348962E-1,2.561714E-2,5.984676E-1,1.063511E0,2.484031E-2,9.9365747E-1,7.584363E-1,1.4200963E0,2.2909505E-2,9.137055E-1,4.6099287E-1,-3.0356246E-1,1.2946908E-1,-1.4162277E-1,-1.7561518E-1,-3.75549E-1,1.884544E-1,-1.7349915E-1,2.690385E-1,9.049602E-1,6.737588E-1,-1.5933903E-1,-2.1312232E-1,-4.3119147E-1,2.352941E-1,1.3511659E0,1.4735082E-1,-2.9745042E-1,8.441558E-1,-1.2670228E-1,8.67052E-2,-4.307737E-1,6.417736E-2,-5.48108E-1,-4.2716655E-1,-1.835452E-1,1.8417375E-2,3.4087065E-1,-2.0091945E-1,1.2463767E-1,-1.6773311E-2,4.7787908E-1,-3.1194487E-1,-2.3219049E-2,1.1050583E0,2.9990166E-1,4.2456403E-1,8.058941E-1,1.1464001E-1,4.3387425E-1,-8.165759E-2,7.264957E-1,1.199625E0,5.710955E-1,8.310768E-1,2.1722414E-1,1.4906735E0,1.01806E0,1.1617696E0,4.1476753E-1,9.173126E-1,2.2760218E-1,5.6566966E-1,-4.7393363E-2,3.3359846E-1,8.117902E-1,1.1473446E0,2.9754958E-1],"categories":[],"categories_nodes":[],"categories_segments":[],"categories_sizes":[],"default_left":[1,1,1,1,1,1,1,1,1,1,1,1,1,1,1,1,1,1,1,1,1,1,1,1,1,1,1,1,1,1,1,1,1,1,1,1,1,1,1,1,1,1,1,1,1,1,1,1,1,1,1,1,1,1,1,1,1,1,1,1,1,1,1,0,0,0,0,0,0,0,0,0,0,0,0,0,0,0,0,0,0,0,0,0,0,0,0,0,0,0,0,0,0,0,0,0,0,0,0,0,0,0,0,0,0,0,0,0,0,0,0,0,0,0,0,0,0,0,0,0,0,0,0,0,0,0,0],"id":3,"left_children":[1,3,5,7,9,11,13,15,17,19,21,23,25,27,29,31,33,35,37,39,41,43,45,47,49,51,53,55,57,59,61,63,65,67,69,71,73,75,77,79,81,83,85,87,89,91,93,95,97,99,101,103,105,107,109,111,113,115,117,119,121,123,125,-1,-1,-1,-1,-1,-1,-1,-1,-1,-1,-1,-1,-1,-1,-1,-1,-1,-1,-1,-1,-1,-1,-1,-1,-1,-1,-1,-1,-1,-1,-1,-1,-1,-1,-1,-1,-1,-1,-1,-1,-1,-1,-1,-1,-1,-1,-1,-1,-1,-1,-1,-1,-1,-1,-1,-1,-1,-1,-1,-1,-1,-1,-1,-1],"loss_changes":[3.0255198E3,4.986283E2,1.0412515E3,2.2317302E2,1.4220496E2,2.4037083E2,2.7410767E2,6.076683E1,9.295886E1,7.764258E1,3.5030273E1,6.469852E1,1.1664502E2,6.963745E1,9.485339E1,3.546411E1,1.5987154E1,4.592486E1,4.3673447E1,3.2448654E1,3.5437317E1,1.663998E1,2.8326538E1,2.5839039E1,3.3461136E1,3.6049316E1,4.5267426E1,4.4801453E1,2.4556274E1,1.5264194E1,5.2101135E1,1.3222269E1,2.368869E1,1.4441458E1,1.2165905E1,3.6318745E1,2.3877365E1,2.1668613E1,2.3746582E1,1.8774574E1,1.2751556E1,1.2468525E1,1.8874311E1,1.3607692E1,8.391388E0,1.2469971E1,1.1818436E1,2.3657326E1,1.4812348E1,2.4473843E1,2.1802155E1,2.1774597E1,1.9719498E1,3.3400116E1,1.434911E1,2.7440186E1,2.5047989E1,2.3307373E1,1.6939392E1,1.6365995E1,1.0185428E1,5.0466278E1,2.1092987E1,0E0,0E0,0E0,0E0,0E0,0E0,0E0,0E0,0E0,0E0,0E0,0E0,0E0,0E0,0E0,0E0,0E0,0E0,0E0,0E0,0E0,0E0,0E0,0E0,0E0,0E0,0E0,0E0,0E0,0E0,0E0,0E0,0E0,0E0,0E0,0E0,0E0,0E0,0E0,0E0,0E0,0E0,0E0,0E0,0E0,0E0,0E0,0E0,0E0,0E0,0E0,0E0,0E0,0E0,0E0,0E0,0E0,0E0,0E0,0E0,0E0,0E0,0E0,0E0],"parents":[2147483647,0,0,1,1,2,2,3,3,4,4,5,5,6,6,7,7,8,8,9,9,10,10,11,11,12,12,13,13,14,14,15,15,16,16,17,17,18,18,19,19,20,20,21,21,22,22,23,23,24,24,25,25,26,26,27,27,28,28,29,29,30,30,31,31,32,32,33,33,34,34,35,35,36,36,37,37,38,38,39,39,40,40,41,41,42,42,43,43,44,44,45,45,46,46,47,47,48,48,49,49,50,50,51,51,52,52,53,53,54,54,55,55,56,56,57,57,58,58,59,59,60,60,61,61,62,62],"right_children":[2,4,6,8,10,12,14,16,18,20,22,24,26,28,30,32,34,36,38,40,42,44,46,48,50,52,54,56,58,60,62,64,66,68,70,72,74,76,78,80,82,84,86,88,90,92,94,96,98,100,102,104,106,108,110,112,114,116,118,120,122,124,126,-1,-1,-1,-1,-1,-1,-1,-1,-1,-1,-1,-1,-1,-1,-1,-1,-1,-1,-1,-1,-1,-1,-1,-1,-1,-1,-1,-1,-1,-1,-1,-1,-1,-1,-1,-1,-1,-1,-1,-1,-1,-1,-1,-1,-1,-1,-1,-1,-1,-1,-1,-1,-1,-1,-1,-1,-1,-1,-1,-1,-1,-1,-1,-1],"split_conditions":[1.3755572E-1,-9.864505E-2,2.526162E-1,-4.290297E-1,-8.038267E-2,1.9814749E-1,-3.776219E-1,-9.870364E-1,2.6260927E-1,1.910231E-1,-3.2084426E-1,-1.0281864E-1,-1.8117589E-1,5.595275E-1,-4.474039E0,5.2605057E-1,-1.2587622E-1,-8.468356E-2,4.38827E-1,-8.417553E-2,-1.1074779E0,-1.3113083E-1,-8.956548E-2,-2.6923013E-1,4.7700894E-3,-3.7397426E-1,1.288982E-1,-6.168687E-3,-7.324088E-2,-1.8333319E-1,3.021549E-1,-7.055773E-2,8.5146114E-2,3.252553E-1,-1.0146884E-2,-1.3918422E-1,3.8721204E-1,-3.6700326E-1,3.2035187E-1,-1.223373E-1,2.8985023E-1,5.0667368E-2,4.0532485E-1,2.7463168E-1,-5.3018272E-2,-2.3134917E-1,2.5609357E-2,-8.801105E-3,-1.4586782E-1,-6.0415816E-2,1.07394435E-1,-8.010896E-2,1.0416472E-1,-1.4037308E-1,-1.1075182E-2,-3.6397433E-1,-6.912264E-2,-1.17313815E-2,-4.3850306E-1,-2.6254278E-1,-2.202481E-1,2.1946701E-1,2.1503547E-1,7.4520935E-3,2.9809725E-1,2.2753091E-1,4.260289E-1,6.872852E-3,2.7411166E-1,1.3829787E-1,-9.1068745E-2,3.8840726E-2,-4.248683E-2,-5.2684557E-2,-1.126647E-1,5.6536324E-2,-5.204975E-2,8.071155E-2,2.7148807E-1,2.0212765E-1,-4.780171E-2,-6.39367E-2,-1.2935744E-1,7.058823E-2,4.053498E-1,4.420525E-2,-8.923513E-2,2.5324675E-1,-3.8010687E-2,2.6011562E-2,-1.2923212E-1,1.9253207E-2,-1.644324E-1,-1.2814997E-1,-5.5063564E-2,5.5252127E-3,1.022612E-1,-6.0275838E-2,3.73913E-2,-5.0319936E-3,1.4336373E-1,-9.3583465E-2,-6.965715E-3,3.3151752E-1,8.99705E-2,1.2736921E-1,2.4176823E-1,3.4392007E-2,1.3016228E-1,-2.4497278E-2,2.1794872E-1,3.598875E-1,1.7132866E-1,2.4932306E-1,6.516724E-2,4.472021E-1,3.05418E-1,3.485309E-1,1.2443026E-1,2.751938E-1,6.828066E-2,1.697009E-1,-1.4218009E-2,1.00079544E-1,2.4353708E-1,3.4420338E-1,8.926488E-2],"split_indices":[28,692,760,622,230,167,622,349,167,167,264,382,382,429,308,504,230,230,586,533,349,759,141,45,501,622,388,152,62,694,167,224,613,471,234,382,312,91,167,711,312,626,291,333,549,3,28,534,395,755,284,230,201,278,750,168,339,385,622,331,757,28,244,0,0,0,0,0,0,0,0,0,0,0,0,0,0,0,0,0,0,0,0,0,0,0,0,0,0,0,0,0,0,0,0,0,0,0,0,0,0,0,0,0,0,0,0,0,0,0,0,0,0,0,0,0,0,0,0,0,0,0,0,0,0,0,0],"split_type":[0,0,0,0,0,0,0,0,0,0,0,0,0,0,0,0,0,0,0,0,0,0,0,0,0,0,0,0,0,0,0,0,0,0,0,0,0,0,0,0,0,0,0,0,0,0,0,0,0,0,0,0,0,0,0,0,0,0,0,0,0,0,0,0,0,0,0,0,0,0,0,0,0,0,0,0,0,0,0,0,0,0,0,0,0,0,0,0,0,0,0,0,0,0,0,0,0,0,0,0,0,0,0,0,0,0,0,0,0,0,0,0,0,0,0,0,0,0,0,0,0,0,0,0,0,0,0],"sum_hessian":[2.6007682E4,1.5979841E4,1.0027841E4,6.2812803E3,9.698561E3,6.5705605E3,3.4572803E3,4.7712003E2,5.8041606E3,2.8521602E3,6.8464004E3,3.6249602E3,2.9456E3,1.7884801E3,1.6688002E3,2.9888004E2,1.7824E2,4.8528003E3,9.5136005E2,2.3001602E3,5.5200006E2,6.8800006E2,6.1584004E3,1.7187201E3,1.9062401E3,8.8288007E2,2.0627202E3,8.4736005E2,9.4112006E2,4.3904004E2,1.2297601E3,7.328001E1,2.2560002E2,7.232001E1,1.05920006E2,2.3520002E3,2.5008003E3,7.1168005E2,2.3968002E2,7.0400006E2,1.5961602E3,4.4160004E1,5.0784003E2,2.4544002E2,4.4256003E2,5.1644805E3,9.9392004E2,1.1408E3,5.7792004E2,7.6032007E2,1.14592E3,2.9568002E2,5.872E2,1.6812802E3,3.8144003E2,5.5328E2,2.9408002E2,7.8080005E2,1.6032E2,1.8240001E2,2.5664E2,8.969601E2,3.3280002E2,5.5360004E1,1.7920002E1,1.1872001E2,1.06880005E2,3.3920002E1,3.84E1,2.7200003E1,7.872001E1,7.0496E2,1.6470402E3,1.5091201E3,9.9168005E2,4.5216003E2,2.5952002E2,1.3504001E2,1.0464001E2,2.7200003E1,6.7680005E2,3.4528003E2,1.2508801E3,1.6000002E1,2.8160002E1,3.8176004E2,1.2608001E2,1.4400001E1,2.3104002E2,3.3600002E1,4.0896002E2,3.3280003E1,5.1312E3,7.1488007E2,2.7904E2,3.1392E2,8.2688007E2,2.3392001E2,3.4400003E2,6.4288007E2,1.1744001E2,7.420801E2,4.0384003E2,2.5600003E2,3.9680004E1,3.6832004E2,2.1888002E2,4.4736005E2,1.23392E3,3.5904004E2,2.2400002E1,4.6848004E2,8.48E1,1.9104001E2,1.0304001E2,6.4448004E2,1.3632E2,1.1744001E2,4.2880005E1,4.5440002E1,1.3696E2,2.9760002E1,2.2688002E2,4.0128003E2,4.9568002E2,2.9952002E2,3.3280003E1],"tree_param":{"num_deleted":"0","num_feature":"768","num_nodes":"127","size_leaf_vector":"0"}},{"base_weights":[-1.4610506E-4,-3.9919803E-1,1.3291539E-1,-2.1184915E-1,-5.2047336E-1,2.0267145E-1,-2.0638698E-1,4.8270766E-3,-2.9404783E-1,-2.8736833E-1,-5.5992746E-1,9.778654E-2,3.3213642E-1,-2.8321775E-2,-3.662293E-1,-2.0035435E-1,1.5101485E-1,-3.9388925E-1,-1.3578941E-1,1.0726643E0,-3.1478715E-1,1.1313868E0,-5.625111E-1,1.9773525E-1,9.35848E-3,2.3886468E-2,4.0748632E-1,-1.877133E-1,1.3975073E-1,-2.4429482E-1,-4.6999872E-1,4.941026E-2,-3.8461536E-1,1.8026438E-2,5.012354E-1,-1.1907947E-1,-4.3507305E-1,-2.422611E-1,3.7961744E-2,9.31677E-2,1.9281045E0,8.2098514E-2,-3.995345E-1,1.85567E0,-3.8461536E-1,-5.679519E-1,5.9760954E-2,9.854105E-2,2.9567802E-1,4.222612E-2,-2.5209448E-1,-1.2082444E-1,2.3440191E-1,2.5494295E-1,5.7425183E-1,-3.136983E-1,6.2617403E-3,6.428138E-1,9.2291914E-2,-2.9667473E-1,1.2733784E-1,-5.585404E-1,-3.5335344E-1,-2.0151132E-1,4.7153777E-1,-4.2140952E-1,9.5041317E-1,1.5426673E-1,-2.73715E-1,6.788452E-1,-1.326053E-1,-4.0567443E-1,2.1106674E-1,-1.4188902E-1,-4.6554267E-1,-2.7042094E-1,5.134474E-1,3.4129053E-1,-1.5621273E-1,1.4035088E0,-5.03876E-1,7.2938687E-1,-6.832601E-2,-4.6870083E-1,-7.8985155E-2,-5.6912756E-1,1.4035088E0,7.246376E-1,-4.734411E-1,-6.291755E-2,1.6617258E-1,2.236337E-1,4.7645998E-1,1.3453653E-1,-3.6572713E-2,4.892736E-2,-3.268343E-1,-2.8861153E-1,5.8145214E-2,3.642321E-1,-1.0872281E-1,3.528986E-1,8.3342366E-2,4.2243886E-1,6.7951685E-1,1.0465115E0,-3.2749113E-1,-1.2410417E-1,3.320227E-1,-8.179959E-2,9.2827E-1,-1.2859988E-1,1.9324872E-1,5.4313093E-1,-3.1133428E-1,1.442786E0,1.2836969E-2,3.9325842E-1,-5.638449E-1,5.809128E-1,-3.7486327E-1],"categories":[],"categories_nodes":[],"categories_segments":[],"categories_sizes":[],"default_left":[1,1,1,1,1,1,1,1,1,1,1,1,1,1,1,1,1,1,1,1,1,1,1,1,1,1,1,1,1,1,1,1,1,1,1,1,1,1,1,1,0,1,1,0,0,1,1,1,1,1,1,1,1,1,1,1,1,1,1,1,1,1,1,0,0,0,0,0,0,0,0,0,0,0,0,0,0,0,0,0,0,0,0,0,0,0,0,0,0,0,0,0,0,0,0,0,0,0,0,0,0,0,0,0,0,0,0,0,0,0,0,0,0,0,0,0,0,0,0,0,0],"id":4,"left_children":[1,3,5,7,9,11,13,15,17,19,21,23,25,27,29,31,33,35,37,39,41,43,45,47,49,51,53,55,57,59,61,63,65,67,69,71,73,75,77,79,-1,81,83,-1,-1,85,87,89,91,93,95,97,99,101,103,105,107,109,111,113,115,117,119,-1,-1,-1,-1,-1,-1,-1,-1,-1,-1,-1,-1,-1,-1,-1,-1,-1,-1,-1,-1,-1,-1,-1,-1,-1,-1,-1,-1,-1,-1,-1,-1,-1,-1,-1,-1,-1,-1,-1,-1,-1,-1,-1,-1,-1,-1,-1,-1,-1,-1,-1,-1,-1,-1,-1,-1,-1,-1],"loss_changes":[1.3810736E3,1.4766675E2,4.6170908E2,4.555143E1,3.614453E1,2.1967291E2,9.467706E1,2.1157547E1,2.9242996E1,2.1723019E1,1.5384766E1,7.901124E1,1.6817407E2,4.2213005E1,2.2066025E1,1.3525505E1,1.917439E1,1.2809189E1,1.3305954E1,9.506495E0,1.8966625E1,6.730841E0,1.1445679E1,4.0741547E1,4.078056E1,4.3390614E1,1.4787286E2,1.976444E1,1.8254541E1,1.5767155E1,9.572479E0,1.3385976E1,8.702005E0,1.1948819E1,1.2847174E1,1.4229159E1,8.758865E0,9.625761E0,1.6189205E1,5.745405E0,0E0,9.774956E0,1.0251312E1,0E0,0E0,8.543579E0,1.1021024E1,2.279374E1,2.7388824E1,3.0667542E1,1.1939198E1,2.5367096E1,2.5886318E1,5.1082138E1,4.4121765E1,9.540955E0,1.3605526E1,1.3719454E1,1.5682503E1,8.8918E0,1.5121798E1,2.928131E0,8.4755745E0,0E0,0E0,0E0,0E0,0E0,0E0,0E0,0E0,0E0,0E0,0E0,0E0,0E0,0E0,0E0,0E0,0E0,0E0,0E0,0E0,0E0,0E0,0E0,0E0,0E0,0E0,0E0,0E0,0E0,0E0,0E0,0E0,0E0,0E0,0E0,0E0,0E0,0E0,0E0,0E0,0E0,0E0,0E0,0E0,0E0,0E0,0E0,0E0,0E0,0E0,0E0,0E0,0E0,0E0,0E0,0E0,0E0,0E0],"parents":[2147483647,0,0,1,1,2,2,3,3,4,4,5,5,6,6,7,7,8,8,9,9,10,10,11,11,12,12,13,13,14,14,15,15,16,16,17,17,18,18,19,19,20,20,21,21,22,22,23,23,24,24,25,25,26,26,27,27,28,28,29,29,30,30,31,31,32,32,33,33,34,34,35,35,36,36,37,37,38,38,39,39,41,41,42,42,45,45,46,46,47,47,48,48,49,49,50,50,51,51,52,52,53,53,54,54,55,55,56,56,57,57,58,58,59,59,60,60,61,61,62,62],"right_children":[2,4,6,8,10,12,14,16,18,20,22,24,26,28,30,32,34,36,38,40,42,44,46,48,50,52,54,56,58,60,62,64,66,68,70,72,74,76,78,80,-1,82,84,-1,-1,86,88,90,92,94,96,98,100,102,104,106,108,110,112,114,116,118,120,-1,-1,-1,-1,-1,-1,-1,-1,-1,-1,-1,-1,-1,-1,-1,-1,-1,-1,-1,-1,-1,-1,-1,-1,-1,-1,-1,-1,-1,-1,-1,-1,-1,-1,-1,-1,-1,-1,-1,-1,-1,-1,-1,-1,-1,-1,-1,-1,-1,-1,-1,-1,-1,-1,-1,-1,-1,-1],"split_conditions":[-6.829274E-1,-2.2429426E-1,7.522945E-2,1.9620523E-2,1.3087961E-1,-3.162915E-1,-3.8275342E-2,4.005709E-1,-1.7903738E-1,-1.7324781E-1,-1.3366759E-1,-2.0752703E-1,3.0394244E-1,-3.407694E-1,-2.4573532E-1,-2.6335615E-1,-1.887843E-1,4.9316306E-2,9.087068E-2,5.2140333E-2,-3.8942246E-4,3.8558464E-2,1.3717392E-1,-1.6974238E-1,2.3002934E-1,-7.1394354E-2,-4.7789377E-1,3.8394368E-1,-1.3225555E-1,1.0775849E-1,-1.8947649E-1,-3.0465579E-2,2.8226125E-1,2.960593E-1,2.0920011E-1,6.6739336E-2,-6.5160125E-2,-1.1472419E-1,2.3384973E-1,1.5219162E-2,5.7843137E-1,-4.235649E-1,-4.4619672E-2,5.56701E-1,-1.15384616E-1,1.691846E-1,-2.0157132E-2,2.9947585E-1,-9.158467E-2,5.8879204E-2,1.7648391E-1,-1.9475812E-1,-1.3388565E-1,2.2074541E-1,-2.5330228E-1,7.0262715E-2,2.6397344E-1,4.224685E-2,-2.1979637E-1,-3.8766336E-2,-8.01402E-2,-8.9822926E-2,-3.8692445E-1,-6.04534E-2,1.4146134E-1,-1.2642287E-1,2.8512397E-1,4.628002E-2,-8.21145E-2,2.0365357E-1,-3.9781593E-2,-1.21702336E-1,6.3320026E-2,-4.256671E-2,-1.396628E-1,-8.112629E-2,1.5403423E-1,1.0238717E-1,-4.686382E-2,4.2105266E-1,-1.511628E-1,2.1881607E-1,-2.0497805E-2,-1.4061025E-1,-2.3695547E-2,-1.7073828E-1,4.2105266E-1,2.173913E-1,-1.4203234E-1,-1.8875267E-2,4.9851775E-2,6.709012E-2,1.42938E-1,4.036096E-2,-1.0971814E-2,1.4678208E-2,-9.805029E-2,-8.6583465E-2,1.7443566E-2,1.09269634E-1,-3.2616846E-2,1.05869584E-1,2.500271E-2,1.2673166E-1,2.0385507E-1,3.1395346E-1,-9.824734E-2,-3.723125E-2,9.960681E-2,-2.4539879E-2,2.78481E-1,-3.8579967E-2,5.7974618E-2,1.6293928E-1,-9.3400285E-2,4.3283582E-1,3.851091E-3,1.1797753E-1,-1.6915348E-1,1.7427385E-1,-1.1245898E-1],"split_indices":[539,593,618,546,174,137,435,667,313,117,122,625,719,190,156,509,456,72,600,275,516,145,124,231,552,141,227,719,306,28,141,469,447,330,707,244,493,257,286,17,0,282,481,0,0,266,486,19,112,647,6,475,264,515,168,453,636,412,505,544,474,530,293,0,0,0,0,0,0,0,0,0,0,0,0,0,0,0,0,0,0,0,0,0,0,0,0,0,0,0,0,0,0,0,0,0,0,0,0,0,0,0,0,0,0,0,0,0,0,0,0,0,0,0,0,0,0,0,0,0,0],"split_type":[0,0,0,0,0,0,0,0,0,0,0,0,0,0,0,0,0,0,0,0,0,0,0,0,0,0,0,0,0,0,0,0,0,0,0,0,0,0,0,0,0,0,0,0,0,0,0,0,0,0,0,0,0,0,0,0,0,0,0,0,0,0,0,0,0,0,0,0,0,0,0,0,0,0,0,0,0,0,0,0,0,0,0,0,0,0,0,0,0,0,0,0,0,0,0,0,0,0,0,0,0,0,0,0,0,0,0,0,0,0,0,0,0,0,0,0,0,0,0,0,0],"sum_hessian":[2.6007682E4,6.5030405E3,1.950464E4,2.5564802E3,3.9465603E3,1.6178881E4,3.3257603E3,7.0336005E2,1.8531201E3,5.7248004E2,3.3740803E3,8.938881E3,7.2400005E3,1.5737601E3,1.7520001E3,2.9248E2,4.1088004E2,1.1353601E3,7.177601E2,1.056E1,5.6192004E2,4.4800005E0,3.3696003E3,4.1955205E3,4.7433604E3,1.4224001E3,5.8176006E3,8.0768005E2,7.660801E2,8.0704004E2,9.449601E2,1.2448001E2,1.6800002E2,2.9856003E2,1.1232001E2,1.4848001E2,9.8688007E2,4.4480002E2,2.7296002E2,5.4400005E0,5.1200004E0,9.8880005E1,4.6304004E2,2.88E0,1.6000001E0,3.3404802E3,2.9120003E1,2.0854402E3,2.11008E3,4.2144004E3,5.2896E2,8.432001E2,5.792E2,3.0396802E3,2.7779202E3,4.8928003E2,3.1840002E2,6.496001E1,7.0112006E2,7.075201E2,9.9520004E1,5.3504004E2,4.0992004E2,7.840001E1,4.608E1,1.6416002E2,3.8400002E0,2.0384001E2,9.472001E1,8.768001E1,2.4640001E1,7.936001E1,6.912E1,9.344001E1,8.9344006E2,4.2944003E2,1.5360001E1,1.06240005E2,1.6672002E2,1.2800001E0,4.1600003E0,1.7920002E1,8.096001E1,3.8048004E2,8.2560005E1,3.3392002E3,1.2800001E0,1.2800001E1,1.6320002E1,6.1568005E2,1.4697601E3,1.5104001E3,5.9968005E2,1.9404801E3,2.2739202E3,1.0528001E2,4.2368002E2,4.3488004E2,4.0832004E2,4.2016003E2,1.5904001E2,1.9344001E3,1.10528E3,1.1395201E3,1.6384001E3,4.1600003E0,4.8512003E2,2.2784001E2,9.0560005E1,1.8560001E1,4.64E1,2.1984001E2,4.8128003E2,1.152E1,6.9600006E2,7.0400004E0,9.248E1,2.5600002E0,5.3248004E2,8.64E0,4.0128003E2],"tree_param":{"num_deleted":"0","num_feature":"768","num_nodes":"121","size_leaf_vector":"0"}},{"base_weights":[2.743747E-3,-2.1157601E-1,3.3863267E-1,-3.78218E-1,5.6474775E-2,1.1635355E-1,6.1258185E-1,-1.9464867E-1,-4.6096587E-1,-1.149234E-1,3.686994E-1,-1.9431381E-1,3.1499118E-1,2.184715E-1,7.9178774E-1,-3.0757877E-1,4.267887E-2,-5.144285E-1,-2.8097242E-1,-2.9836679E-1,1.11706465E-1,6.2805504E-1,1.1029892E-1,1.4453843E-1,-3.2365173E-1,5.4443514E-1,4.223745E-2,4.834679E-1,-1.5254304E-1,9.219587E-1,4.5083424E-1,-1.488144E-1,-4.124154E-1,3.9999714E-1,-1.5055232E-1,-5.361437E-1,-3.0586994E-1,-3.267096E-1,4.3660548E-1,-6.1146477E-3,-3.9102486E-1,-2.8832091E-2,4.356222E-1,8.9516765E-1,4.0413257E-1,3.0182847E-1,-2.3895407E-1,-1.3533397E-1,3.495404E-1,-1.03060916E-1,-4.3423024E-1,9.523411E-1,4.4039395E-1,2.217111E-1,-1.671762E-1,7.6905423E-1,1.5760854E-1,6.3737795E-2,-4.3002665E-1,1.0745281E0,6.9852805E-1,7.644625E-1,1.8639658E-1,-1.6394675E-1,1.6247882E0,-2.7022195E-1,-4.6240512E-1,8.7744963E-1,1.2730765E-1,-3.310129E-1,6.1169613E-2,-5.556627E-1,-3.9804852E-1,-3.5831228E-1,5.202609E-1,-4.482519E-1,-2.3377322E-1,9.399335E-2,1.2521896E0,5.345007E-1,-1.297377E-1,-2.2838436E-1,-4.8575178E-1,1.9548139E-1,-1.6738887E-1,7.1129125E-1,1.475856E-1,1.0452462E0,3.9889905E-1,5.6325424E-1,1.2547529E-1,5.059272E-1,-2.689454E-2,-3.523619E-2,-4.5389196E-1,-2.5284618E-1,5.646946E-1,4.9270678E-1,-8.331508E-2,3.8947675E-1,-2.2183433E-1,-2.530353E-1,-5.1788193E-1,2.2497118E-1,1.0352534E0,5.147269E-1,-8.923184E-2,4.8885755E-2,4.5678592E-1,-2.7780864E-1,1.6525264E-1,9.5749E-1,3.7569743E-1,5.041159E-1,-4.088916E-2,2.9017863E-1,-2.6248816E-1,1.1130162E0,-4.5784417E-1,1.1200247E0,3.3236906E-1,4.874051E-1,9.1049737E-1,9.303755E-1,1.6033438E-1,4.5673755E-1,-1.0995756E-1],"categories":[],"categories_nodes":[],"categories_segments":[],"categories_sizes":[],"default_left":[1,1,1,1,1,1,1,1,1,1,1,1,1,1,1,1,1,1,1,1,1,1,1,1,1,1,1,1,1,1,1,1,1,1,1,1,1,1,1,1,1,1,1,1,1,1,1,1,1,1,1,1,1,1,1,1,1,1,1,1,1,1,1,0,0,0,0,0,0,0,0,0,0,0,0,0,0,0,0,0,0,0,0,0,0,0,0,0,0,0,0,0,0,0,0,0,0,0,0,0,0,0,0,0,0,0,0,0,0,0,0,0,0,0,0,0,0,0,0,0,0,0,0,0,0,0,0],"id":5,"left_children":[1,3,5,7,9,11,13,15,17,19,21,23,25,27,29,31,33,35,37,39,41,43,45,47,49,51,53,55,57,59,61,63,65,67,69,71,73,75,77,79,81,83,85,87,89,91,93,95,97,99,101,103,105,107,109,111,113,115,117,119,121,123,125,-1,-1,-1,-1,-1,-1,-1,-1,-1,-1,-1,-1,-1,-1,-1,-1,-1,-1,-1,-1,-1,-1,-1,-1,-1,-1,-1,-1,-1,-1,-1,-1,-1,-1,-1,-1,-1,-1,-1,-1,-1,-1,-1,-1,-1,-1,-1,-1,-1,-1,-1,-1,-1,-1,-1,-1,-1,-1,-1,-1,-1,-1,-1,-1],"loss_changes":[1.8469299E3,6.996418E2,6.0847815E2,1.4661987E2,3.2140787E2,3.406026E2,3.1597595E2,8.04893E1,6.3911743E1,1.6124294E2,1.4257776E2,9.440015E1,2.1065881E2,1.3777539E2,1.3613708E2,3.380449E1,6.6965096E1,2.3073975E1,5.0245842E1,5.8037094E1,7.901161E1,6.3163544E1,7.1474724E1,3.4209625E1,3.7970093E1,7.717328E1,5.788572E1,7.593413E1,3.5094868E1,7.512024E1,7.052289E1,2.2026619E1,8.581924E0,4.4203606E1,2.4076824E1,1.2301514E1,2.1250404E1,1.6112518E1,2.55621E1,3.4619377E1,2.496045E1,3.7677353E1,4.159482E1,3.5594177E1,2.562764E1,4.629476E1,1.656208E1,2.0910973E1,2.1356606E1,3.0605192E1,1.5598755E1,2.2123566E1,5.7470154E1,3.366817E1,2.6191233E1,3.1904938E1,2.6361967E1,2.439765E1,1.1501228E1,4.4222534E1,4.0100006E1,3.8886734E1,3.7192585E1,0E0,0E0,0E0,0E0,0E0,0E0,0E0,0E0,0E0,0E0,0E0,0E0,0E0,0E0,0E0,0E0,0E0,0E0,0E0,0E0,0E0,0E0,0E0,0E0,0E0,0E0,0E0,0E0,0E0,0E0,0E0,0E0,0E0,0E0,0E0,0E0,0E0,0E0,0E0,0E0,0E0,0E0,0E0,0E0,0E0,0E0,0E0,0E0,0E0,0E0,0E0,0E0,0E0,0E0,0E0,0E0,0E0,0E0,0E0,0E0,0E0,0E0,0E0,0E0],"parents":[2147483647,0,0,1,1,2,2,3,3,4,4,5,5,6,6,7,7,8,8,9,9,10,10,11,11,12,12,13,13,14,14,15,15,16,16,17,17,18,18,19,19,20,20,21,21,22,22,23,23,24,24,25,25,26,26,27,27,28,28,29,29,30,30,31,31,32,32,33,33,34,34,35,35,36,36,37,37,38,38,39,39,40,40,41,41,42,42,43,43,44,44,45,45,46,46,47,47,48,48,49,49,50,50,51,51,52,52,53,53,54,54,55,55,56,56,57,57,58,58,59,59,60,60,61,61,62,62],"right_children":[2,4,6,8,10,12,14,16,18,20,22,24,26,28,30,32,34,36,38,40,42,44,46,48,50,52,54,56,58,60,62,64,66,68,70,72,74,76,78,80,82,84,86,88,90,92,94,96,98,100,102,104,106,108,110,112,114,116,118,120,122,124,126,-1,-1,-1,-1,-1,-1,-1,-1,-1,-1,-1,-1,-1,-1,-1,-1,-1,-1,-1,-1,-1,-1,-1,-1,-1,-1,-1,-1,-1,-1,-1,-1,-1,-1,-1,-1,-1,-1,-1,-1,-1,-1,-1,-1,-1,-1,-1,-1,-1,-1,-1,-1,-1,-1,-1,-1,-1,-1,-1,-1,-1,-1,-1,-1],"split_conditions":[4.5062028E-2,5.2057886E-3,-1.1530557E-1,-1.5827112E-1,-9.971611E-2,1.6464077E-1,2.3435795E-1,-1.5078965E-1,1.4759722E-1,1.1828686E-1,-1.911695E-1,-2.2976638E-1,1.11755475E-1,-1.5643951E-1,5.451635E-2,4.714581E-1,-1.9664434E-1,4.5592427E-1,-5.2535455E-3,-1.6985801E-1,-1.7358586E-1,-2.519732E-1,-2.4688798E-1,-4.857874E-2,-1.23198286E-1,-4.9950615E-2,3.2365525E-1,-1.1912857E-1,-5.942954E-2,1.112687E-1,-3.2017447E-2,4.148062E-1,-9.1649786E-2,1.0815937E-1,1.0304055E-1,-1.4736429E-1,2.590862E-1,-1.3297522E-1,5.027755E-1,-9.5868155E-2,-1.4825311E-1,-6.36795E-2,-7.830822E-2,1.5749687E-1,1.1493564E-1,1.252199E-1,-3.0311078E-1,1.4042982E-1,-1.9095235E-1,3.7994822E-3,-2.4731877E-1,-4.9057522E-1,-1.3810633E-1,-1.2135404E-1,4.501421E-1,5.9957847E-2,8.630042E-2,-1.5846956E-1,-1.1938882E-1,-2.2680002E-1,1.4477941E-3,2.9833654E-1,9.5228106E-2,-4.9184028E-2,4.8743647E-1,-8.1066586E-2,-1.3872154E-1,2.632349E-1,3.81923E-2,-9.930388E-2,1.8350884E-2,-1.6669881E-1,-1.1941456E-1,-1.0749369E-1,1.5607826E-1,-1.3447557E-1,-7.0131965E-2,2.8198006E-2,3.756569E-1,1.6035022E-1,-3.892131E-2,-6.851531E-2,-1.4572553E-1,5.8644418E-2,-5.0216664E-2,2.1338739E-1,4.4275682E-2,3.135739E-1,1.1966972E-1,1.6897628E-1,3.7642587E-2,1.5177816E-1,-8.068362E-3,-1.0570858E-2,-1.361676E-1,-7.5853854E-2,1.6940838E-1,1.4781204E-1,-2.4994526E-2,1.1684303E-1,-6.65503E-2,-7.59106E-2,-1.5536459E-1,6.749135E-2,3.1057602E-1,1.5441807E-1,-2.6769554E-2,1.46657275E-2,1.3703579E-1,-8.33426E-2,4.9575794E-2,2.8724703E-1,1.1270923E-1,1.5123478E-1,-1.2266749E-2,8.705359E-2,-7.874645E-2,3.339049E-1,-1.3735326E-1,3.3600742E-1,9.9710725E-2,1.4622153E-1,2.7314922E-1,2.7911267E-1,4.8100315E-2,1.3702127E-1,-3.298727E-2],"split_indices":[388,359,182,435,182,477,424,182,296,477,189,189,534,509,344,19,189,667,182,759,427,191,137,132,692,657,194,278,692,603,468,633,436,512,633,75,549,434,420,118,419,594,43,386,512,603,513,359,509,534,361,459,361,520,667,0,603,396,344,311,698,662,512,0,0,0,0,0,0,0,0,0,0,0,0,0,0,0,0,0,0,0,0,0,0,0,0,0,0,0,0,0,0,0,0,0,0,0,0,0,0,0,0,0,0,0,0,0,0,0,0,0,0,0,0,0,0,0,0,0,0,0,0,0,0,0,0],"split_type":[0,0,0,0,0,0,0,0,0,0,0,0,0,0,0,0,0,0,0,0,0,0,0,0,0,0,0,0,0,0,0,0,0,0,0,0,0,0,0,0,0,0,0,0,0,0,0,0,0,0,0,0,0,0,0,0,0,0,0,0,0,0,0,0,0,0,0,0,0,0,0,0,0,0,0,0,0,0,0,0,0,0,0,0,0,0,0,0,0,0,0,0,0,0,0,0,0,0,0,0,0,0,0,0,0,0,0,0,0,0,0,0,0,0,0,0,0,0,0,0,0,0,0,0,0,0,0],"sum_hessian":[2.5654215E4,1.5661496E4,9.992719E3,9.657317E3,6.004178E3,5.5173945E3,4.4753247E3,3.0016833E3,6.6556343E3,3.8766772E3,2.1275007E3,2.1518865E3,3.365508E3,1.3995808E3,3.0757437E3,2.0336797E3,9.6800354E2,5.1300283E3,1.5256062E3,2.142298E3,1.7343793E3,1.0610741E3,1.0664268E3,5.94428E2,1.5574585E3,1.8273346E3,1.5381735E3,8.1626324E2,5.8331757E2,2.2246875E3,8.510562E2,8.0977606E2,1.2239037E3,3.3937317E2,6.286304E2,4.644834E3,4.8519418E2,1.4347052E3,9.090096E1,5.159644E2,1.6263336E3,1.2102113E3,5.24168E2,4.8250534E2,5.785687E2,6.888169E2,3.7760986E2,2.5146426E2,3.4296375E2,5.206854E2,1.0367731E3,3.6970566E2,1.4576289E3,8.2826624E2,7.0990717E2,4.342885E2,3.8197473E2,3.282432E2,2.5507439E2,1.3197133E3,9.049743E2,3.8845276E2,4.6260345E2,8.038254E2,5.950665E0,3.200219E2,9.038818E2,1.22561775E2,2.1681139E2,3.3906546E2,2.895649E2,4.0669688E3,5.7786536E2,4.5676526E2,2.8428934E1,6.200197E2,8.1468555E2,6.479641E1,2.6104553E1,9.540884E1,4.2055557E2,5.9984546E2,1.0264882E3,4.6194485E2,7.4826636E2,2.6708322E2,2.5708484E2,3.6962067E2,1.12884674E2,3.676234E2,2.1094528E2,4.2463126E2,2.641856E2,1.9446248E2,1.8314737E2,2.158661E2,3.5598152E1,2.576185E2,8.5345245E1,1.00722664E2,4.1996277E2,3.287357E2,7.0803735E2,3.8210194E1,3.3149545E2,1.2782542E3,1.7937474E2,4.7802997E2,3.5023627E2,5.327666E2,1.771406E2,2.926579E2,1.4163062E2,1.3855925E2,2.434155E2,1.938193E2,1.3442387E2,3.8261433E0,2.5124825E2,1.2430043E3,7.670896E1,4.5504538E2,4.4992896E2,3.0433307E2,8.4119705E1,2.4163622E2,2.2096724E2],"tree_param":{"num_deleted":"0","num_feature":"768","num_nodes":"127","size_leaf_vector":"0"}},{"base_weights":[-1.158544E-2,7.291326E-1,-4.110628E-1,1.0845984E0,1.318417E-1,1.08538084E-1,-4.5962054E-1,4.7487813E-1,1.1692718E0,4.752353E-1,-7.096573E-2,5.471565E-1,-1.9084083E-1,-5.041218E-1,-2.7136448E-1,7.109709E-1,-1.912136E-2,1.1949632E0,1.3665779E-1,8.633575E-2,7.418284E-1,-2.6152214E-1,1.6690063E-1,1.3518761E-1,8.8907695E-1,4.6563916E-2,-4.164022E-1,-5.0657004E-1,5.160797E-1,-3.3986858E-1,1.3137081E-1,8.6264604E-1,-6.817992E-2,-1.8308906E-1,3.8785017E-1,1.2165413E0,2.917968E-1,-5.155571E-1,5.764082E-1,3.869367E-1,-1.22988805E-1,9.67479E-1,2.526308E-1,-3.1519858E-3,-3.4077752E-1,-2.0654878E-1,3.2604012E-1,7.1286106E-1,-3.1257365E-2,1.0900056E0,1.7517129E-1,-1.8798982E-1,4.1068658E-1,1.464956E-2,-4.805548E-1,-4.1792896E-1,-5.3176826E-1,-1.24996394E-1,1.5855944E0,-1.6819398E-1,-4.1508147E-1,7.2939223E-1,-8.039709E-2,9.9897873E-1,4.310076E-1,3.6561158E-1,-3.933582E-1,-3.4778446E-1,1.7005908E-1,-2.4051456E-1,7.855866E-1,4.2709255E-1,1.2319043E0,1.034604E0,3.3210948E-2,4.882995E-1,-6.120997E-1,-2.2522545E-1,9.3703276E-1,6.809142E-1,4.2276286E-2,2.1342898E-2,-3.9954674E-1,1.1254501E0,2.169945E-1,6.21167E-1,-8.5299626E-2,-4.913988E-1,1.7461543E-1,-2.1867818E-1,-4.4082576E-1,-3.0948544E-1,1.7115776E-1,5.3190875E-1,-2.6875172E-2,1.1468817E0,4.4012237E-2,-1.4185224E-1,9.4222885E-1,1.2247303E0,1.3199306E-1,5.6293005E-1,-3.093482E-1,3.556408E-1,-3.0926198E-1,-2.1103207E-2,7.472366E-1,-1.3682202E-1,1.0342414E0,-5.113017E-1,3.4509793E-1,-2.4887007E-1,-4.6633658E-1,-5.323812E-1,1.6316898E0,-3.9399612E-1,1.0692495E0,3.605696E-2,1.7984762E0,-2.8765726E-1,1.5639448E-1,6.0256106E-1,-4.2627692E-1,1.14142515E-1,1.2980884E0,-2.1602717E-1,4.3874964E-1],"categories":[],"categories_nodes":[],"categories_segments":[],"categories_sizes":[],"default_left":[1,1,1,1,1,1,1,1,1,1,1,1,1,1,1,1,1,1,1,1,1,1,1,1,1,1,1,1,1,1,1,1,1,1,1,1,1,1,1,1,1,1,1,1,1,1,1,1,1,1,1,1,1,1,1,1,1,1,1,1,1,1,1,0,0,0,0,0,0,0,0,0,0,0,0,0,0,0,0,0,0,0,0,0,0,0,0,0,0,0,0,0,0,0,0,0,0,0,0,0,0,0,0,0,0,0,0,0,0,0,0,0,0,0,0,0,0,0,0,0,0,0,0,0,0,0,0],"id":6,"left_children":[1,3,5,7,9,11,13,15,17,19,21,23,25,27,29,31,33,35,37,39,41,43,45,47,49,51,53,55,57,59,61,63,65,67,69,71,73,75,77,79,81,83,85,87,89,91,93,95,97,99,101,103,105,107,109,111,113,115,117,119,121,123,125,-1,-1,-1,-1,-1,-1,-1,-1,-1,-1,-1,-1,-1,-1,-1,-1,-1,-1,-1,-1,-1,-1,-1,-1,-1,-1,-1,-1,-1,-1,-1,-1,-1,-1,-1,-1,-1,-1,-1,-1,-1,-1,-1,-1,-1,-1,-1,-1,-1,-1,-1,-1,-1,-1,-1,-1,-1,-1,-1,-1,-1,-1,-1,-1],"loss_changes":[7.5890234E3,1.9076787E3,4.2043018E2,2.9026514E2,2.33591E2,1.8719743E2,1.2751904E2,8.032202E1,1.310376E2,1.2905203E2,9.565132E1,8.1331406E1,4.5404743E1,3.104126E1,8.048009E1,5.512195E1,1.4994637E1,9.368457E1,3.5054848E1,3.1989054E1,8.130237E1,2.3987923E1,5.58603E1,2.535194E1,4.510959E1,3.5420918E1,1.2028191E1,2.7238281E1,2.076575E1,3.2106506E1,5.3823875E1,2.2524567E1,1.0984151E1,9.370465E0,1.6321033E1,5.662744E1,2.184556E1,5.079834E0,2.12726E1,2.1109299E1,1.198353E1,5.9648254E1,2.9262854E1,2.4041962E1,1.0854912E1,1.0983134E1,4.7869125E1,1.7067509E1,2.2254976E1,3.1621643E1,1.3429449E1,1.6748894E1,2.3622435E1,8.988783E0,9.783279E0,2.2192688E1,1.3558105E1,6.744273E0,3.6676903E0,2.9547533E1,1.9990662E1,3.873241E1,2.2233955E1,0E0,0E0,0E0,0E0,0E0,0E0,0E0,0E0,0E0,0E0,0E0,0E0,0E0,0E0,0E0,0E0,0E0,0E0,0E0,0E0,0E0,0E0,0E0,0E0,0E0,0E0,0E0,0E0,0E0,0E0,0E0,0E0,0E0,0E0,0E0,0E0,0E0,0E0,0E0,0E0,0E0,0E0,0E0,0E0,0E0,0E0,0E0,0E0,0E0,0E0,0E0,0E0,0E0,0E0,0E0,0E0,0E0,0E0,0E0,0E0,0E0,0E0,0E0,0E0],"parents":[2147483647,0,0,1,1,2,2,3,3,4,4,5,5,6,6,7,7,8,8,9,9,10,10,11,11,12,12,13,13,14,14,15,15,16,16,17,17,18,18,19,19,20,20,21,21,22,22,23,23,24,24,25,25,26,26,27,27,28,28,29,29,30,30,31,31,32,32,33,33,34,34,35,35,36,36,37,37,38,38,39,39,40,40,41,41,42,42,43,43,44,44,45,45,46,46,47,47,48,48,49,49,50,50,51,51,52,52,53,53,54,54,55,55,56,56,57,57,58,58,59,59,60,60,61,61,62,62],"right_children":[2,4,6,8,10,12,14,16,18,20,22,24,26,28,30,32,34,36,38,40,42,44,46,48,50,52,54,56,58,60,62,64,66,68,70,72,74,76,78,80,82,84,86,88,90,92,94,96,98,100,102,104,106,108,110,112,114,116,118,120,122,124,126,-1,-1,-1,-1,-1,-1,-1,-1,-1,-1,-1,-1,-1,-1,-1,-1,-1,-1,-1,-1,-1,-1,-1,-1,-1,-1,-1,-1,-1,-1,-1,-1,-1,-1,-1,-1,-1,-1,-1,-1,-1,-1,-1,-1,-1,-1,-1,-1,-1,-1,-1,-1,-1,-1,-1,-1,-1,-1,-1,-1,-1,-1,-1,-1],"split_conditions":[-6.472516E-1,1.4667317E-2,-1.0608372E-1,-1.3489325E-1,-1.1904615E-1,1.6153044E-1,4.4065857E-1,-2.7723294E-2,-5.9163213E-2,-1.6278023E-1,5.3020187E-2,9.238704E-2,-4.8788182E-2,2.7894613E-1,1.5324111E-1,-3.1790007E-2,3.7670338E-1,4.7715366E-1,-1.566055E-2,-2.455261E-1,3.9845598E-1,-2.478544E-2,-1.3020208E-1,-7.791509E-2,1.5737969E-1,9.19245E-2,-5.003406E-1,1.3696855E-1,1.3101676E-1,-1.1987229E-1,-1.14426784E-1,4.372874E-1,3.4419578E-1,3.1726903E-1,-2.7575836E-1,-2.932944E-1,5.948559E-2,-5.822007E-2,2.0925131E-1,1.9528124E-1,-1.0472036E-3,4.3226457E-1,2.3260083E-2,-1.2723678E-1,7.5048655E-2,3.8941312E-1,-1.6211143E-2,-4.412954E-1,9.1785505E-2,-6.6751144E-3,-1.6798282E-1,-3.931377E-2,-9.878808E-2,-2.704848E-1,4.7453523E-2,1.7686789E-1,5.259279E-1,1.7612775E-1,3.6601245E-2,-6.708227E-2,-1.2516437E-1,-4.0933408E-2,5.242677E-3,2.9969364E-1,1.2930228E-1,1.0968348E-1,-1.18007466E-1,-1.04335345E-1,5.1017728E-2,-7.215437E-2,2.3567599E-1,1.2812777E-1,3.695713E-1,3.103812E-1,9.963285E-3,1.4648986E-1,-1.8362992E-1,-6.756764E-2,2.8110984E-1,2.0427428E-1,1.2682886E-2,6.4028697E-3,-1.19864024E-1,3.3763504E-1,6.509835E-2,1.863501E-1,-2.5589889E-2,-1.4741965E-1,5.238463E-2,-6.560346E-2,-1.3224773E-1,-9.284563E-2,5.134733E-2,1.5957263E-1,-8.062552E-3,3.4406453E-1,1.3203672E-2,-4.2555675E-2,2.8266868E-1,3.674191E-1,3.9597917E-2,1.6887902E-1,-9.280446E-2,1.0669225E-1,-9.277859E-2,-6.3309623E-3,2.24171E-1,-4.1046605E-2,3.1027246E-1,-1.5339051E-1,1.03529386E-1,-7.4661024E-2,-1.3990098E-1,-1.5971436E-1,4.8950696E-1,-1.1819884E-1,3.2077485E-1,1.0817088E-2,5.395429E-1,-8.6297184E-2,4.6918347E-2,1.8076833E-1,-1.2788308E-1,3.4242757E-2,3.8942656E-1,-6.480815E-2,1.3162489E-1],"split_indices":[539,165,530,692,66,621,365,530,434,435,344,450,660,47,188,359,598,667,592,313,517,530,486,150,477,188,459,242,145,306,66,667,517,6,335,537,447,36,657,109,132,667,309,192,244,555,66,459,545,66,306,600,435,237,335,424,164,3,242,435,286,275,76,0,0,0,0,0,0,0,0,0,0,0,0,0,0,0,0,0,0,0,0,0,0,0,0,0,0,0,0,0,0,0,0,0,0,0,0,0,0,0,0,0,0,0,0,0,0,0,0,0,0,0,0,0,0,0,0,0,0,0,0,0,0,0,0],"split_type":[0,0,0,0,0,0,0,0,0,0,0,0,0,0,0,0,0,0,0,0,0,0,0,0,0,0,0,0,0,0,0,0,0,0,0,0,0,0,0,0,0,0,0,0,0,0,0,0,0,0,0,0,0,0,0,0,0,0,0,0,0,0,0,0,0,0,0,0,0,0,0,0,0,0,0,0,0,0,0,0,0,0,0,0,0,0,0,0,0,0,0,0,0,0,0,0,0,0,0,0,0,0,0,0,0,0,0,0,0,0,0,0,0,0,0,0,0,0,0,0,0,0,0,0,0,0,0],"sum_hessian":[2.564524E4,8.984743E3,1.6660496E4,5.632097E3,3.3526465E3,1.4237856E3,1.5236711E4,6.87576E2,4.944521E3,1.2443573E3,2.1082893E3,5.7724274E2,8.4654285E2,1.2322223E4,2.9144883E3,4.649347E2,2.226413E2,4.8243345E3,1.2018636E2,5.0662656E2,7.377308E2,1.1704967E3,9.3779254E2,2.6243665E2,3.148061E2,4.1283014E2,4.337127E2,1.2293225E4,2.8997587E1,2.4909424E3,4.235459E2,3.8908536E2,7.584934E1,1.5909322E2,6.3548096E1,4.711424E3,1.129108E2,4.8331383E1,7.185498E1,2.0762202E2,2.9900452E2,5.0418793E2,2.3354283E2,2.7501047E2,8.9548627E2,2.8012677E2,6.576658E2,5.796772E1,2.0446895E2,2.4525284E2,6.955323E1,2.513828E2,1.6144736E2,5.6286472E1,3.7742624E2,2.7249841E3,9.568241E3,1.8682356E1,1.0315232E1,7.598376E2,1.7311049E3,1.1012222E2,3.1342368E2,2.9469257E2,9.439281E1,3.244414E1,4.3405197E1,1.0850543E2,5.058778E1,2.4785679E1,3.8762417E1,9.0485565E1,4.620938E3,2.838158E1,8.452922E1,3.8842983E0,4.4447086E1,2.2411604E1,4.944338E1,1.11523026E2,9.609899E1,1.970761E2,1.0192842E2,4.1610208E2,8.8085846E1,1.1131169E2,1.2223114E2,7.2932785E1,2.020777E2,4.0473346E2,4.907528E2,2.2027554E2,5.9851234E1,4.1504648E2,2.426193E2,3.4721798E1,2.3245922E1,1.8437674E2,2.009221E1,2.1477132E2,3.0481524E1,3.854445E1,3.1008781E1,4.549743E1,2.0588536E2,7.1128105E1,9.0319244E1,4.97599E1,6.5265727E0,3.6424274E2,1.3183497E1,6.0794324E2,2.1170408E3,9.566284E3,1.9563389E0,1.5794734E1,2.887621E0,1.3872203E0,8.928012E0,5.555016E2,2.0433601E2,1.826248E1,1.7128424E3,5.3472824E1,5.6649403E1,2.4896422E2,6.445946E1],"tree_param":{"num_deleted":"0","num_feature":"768","num_nodes":"127","size_leaf_vector":"0"}},{"base_weights":[-5.3769075E-3,6.881328E-1,-3.1528667E-1,8.9156824E-1,1.5631588E-1,-4.1417474E-1,7.862981E-3,3.9857563E-1,1.0346705E0,-4.31272E-2,5.584587E-1,-4.788337E-1,-1.7315757E-1,-1.7782463E-1,3.514978E-1,6.0681945E-1,2.0107834E-2,1.114098E0,3.879717E-1,-2.1041377E-1,2.7445707E-1,7.669164E-1,1.4589888E-1,-1.5700737E-1,-4.9392462E-1,3.2819727E-1,-2.526818E-1,-3.477938E-1,3.689783E-2,-1.3011703E-1,5.544196E-1,1.3918939E-1,7.473528E-1,-1.24278456E-1,4.280454E-1,7.2734976E-1,1.1677648E0,3.8435858E-2,6.296084E-1,2.6921305E-1,-2.8419152E-1,6.5666807E-1,6.1033715E-2,-1.1266778E-1,8.538754E-1,7.3193914E-1,-3.1644486E-2,6.298193E-1,-2.298871E-1,-3.5122585E-1,-5.1275295E-1,1.4583358E-1,8.3777344E-1,-9.049232E-2,-3.794581E-1,2.7072313E-1,-3.7510562E-1,-1.8877578E-1,4.173556E-1,-2.7082157E-1,2.7881202E-1,8.779641E-1,1.8421273E-1,5.3847325E-1,-9.811023E-2,9.1185707E-1,4.4742623E-1,2.6730987E-1,-2.5045502E-1,1.1513381E-1,7.544347E-1,1.2640462E0,5.272191E-1,1.2303752E0,9.473643E-1,1.2426585E0,-4.4868175E-2,3.999241E-1,1.0100112E0,-2.617824E-1,4.9827802E-1,-9.872767E-2,-4.047104E-1,-2.1268441E-1,7.722009E-1,5.5905604E-1,-5.6534074E-2,1.1071372E0,-3.3793792E-1,4.8241523E-1,1.0285679E0,1.0392799E0,-1.6582349E-1,-2.2172563E-1,4.4042152E-1,1.389066E0,1.3515182E-1,7.449364E-1,-2.9117525E-1,-4.299771E-1,-1.742165E-1,-4.395558E-1,-5.34757E-1,3.0704352E-1,-2.711299E-1,4.8310757E-1,1.3844079E0,1.613476E-1,-2.3507938E-1,-4.3556798E-1,-1.6527654E-1,-2.0507517E-1,7.8412074E-1,-1.3067473E-1,-4.289186E-1,-3.528248E-1,7.592803E-2,7.119278E-1,5.903678E-2,-3.4103173E-1,3.3546987E-1,8.7891114E-1,1.6012443E-2,1.0469649E0,2.9545555E-1,6.3313866E-1,-8.147269E-3],"categories":[],"categories_nodes":[],"categories_segments":[],"categories_sizes":[],"default_left":[1,1,1,1,1,1,1,1,1,1,1,1,1,1,1,1,1,1,1,1,1,1,1,1,1,1,1,1,1,1,1,1,1,1,1,1,1,1,1,1,1,1,1,1,1,1,1,1,1,1,1,1,1,1,1,1,1,1,1,1,1,1,1,0,0,0,0,0,0,0,0,0,0,0,0,0,0,0,0,0,0,0,0,0,0,0,0,0,0,0,0,0,0,0,0,0,0,0,0,0,0,0,0,0,0,0,0,0,0,0,0,0,0,0,0,0,0,0,0,0,0,0,0,0,0,0,0],"id":7,"left_children":[1,3,5,7,9,11,13,15,17,19,21,23,25,27,29,31,33,35,37,39,41,43,45,47,49,51,53,55,57,59,61,63,65,67,69,71,73,75,77,79,81,83,85,87,89,91,93,95,97,99,101,103,105,107,109,111,113,115,117,119,121,123,125,-1,-1,-1,-1,-1,-1,-1,-1,-1,-1,-1,-1,-1,-1,-1,-1,-1,-1,-1,-1,-1,-1,-1,-1,-1,-1,-1,-1,-1,-1,-1,-1,-1,-1,-1,-1,-1,-1,-1,-1,-1,-1,-1,-1,-1,-1,-1,-1,-1,-1,-1,-1,-1,-1,-1,-1,-1,-1,-1,-1,-1,-1,-1,-1],"loss_changes":[5.515024E3,8.572954E2,5.667344E2,4.0398584E2,1.7599542E2,2.1153809E2,2.6528143E2,1.0175206E2,2.2773438E2,7.802642E1,6.2450256E1,5.191992E1,1.14668785E2,9.8517265E1,1.4260521E2,5.4630585E1,2.7107737E1,8.125049E1,4.1143974E1,3.411087E1,4.129819E1,3.704248E1,2.5558619E1,2.772828E1,2.7296143E1,3.6481728E1,5.0981537E1,2.5552414E1,1.0254529E2,2.4997803E1,1.2276581E2,1.8404787E1,3.1178375E1,1.686736E1,1.2199503E1,5.1390533E1,4.674463E1,2.0148714E1,2.4770607E1,1.5789178E1,1.8603096E1,1.839167E1,1.9136194E1,1.2558596E1,2.8036102E1,1.5928719E1,1.708513E1,1.5227669E1,2.656304E1,1.6586014E1,1.43125E1,1.9663553E1,1.9416733E1,3.9721794E1,1.6659882E1,1.5866296E1,1.892868E1,3.2585503E1,4.6890533E1,1.3853914E1,1.7550598E1,5.3578613E1,4.1446823E1,0E0,0E0,0E0,0E0,0E0,0E0,0E0,0E0,0E0,0E0,0E0,0E0,0E0,0E0,0E0,0E0,0E0,0E0,0E0,0E0,0E0,0E0,0E0,0E0,0E0,0E0,0E0,0E0,0E0,0E0,0E0,0E0,0E0,0E0,0E0,0E0,0E0,0E0,0E0,0E0,0E0,0E0,0E0,0E0,0E0,0E0,0E0,0E0,0E0,0E0,0E0,0E0,0E0,0E0,0E0,0E0,0E0,0E0,0E0,0E0,0E0,0E0,0E0,0E0],"parents":[2147483647,0,0,1,1,2,2,3,3,4,4,5,5,6,6,7,7,8,8,9,9,10,10,11,11,12,12,13,13,14,14,15,15,16,16,17,17,18,18,19,19,20,20,21,21,22,22,23,23,24,24,25,25,26,26,27,27,28,28,29,29,30,30,31,31,32,32,33,33,34,34,35,35,36,36,37,37,38,38,39,39,40,40,41,41,42,42,43,43,44,44,45,45,46,46,47,47,48,48,49,49,50,50,51,51,52,52,53,53,54,54,55,55,56,56,57,57,58,58,59,59,60,60,61,61,62,62],"right_children":[2,4,6,8,10,12,14,16,18,20,22,24,26,28,30,32,34,36,38,40,42,44,46,48,50,52,54,56,58,60,62,64,66,68,70,72,74,76,78,80,82,84,86,88,90,92,94,96,98,100,102,104,106,108,110,112,114,116,118,120,122,124,126,-1,-1,-1,-1,-1,-1,-1,-1,-1,-1,-1,-1,-1,-1,-1,-1,-1,-1,-1,-1,-1,-1,-1,-1,-1,-1,-1,-1,-1,-1,-1,-1,-1,-1,-1,-1,-1,-1,-1,-1,-1,-1,-1,-1,-1,-1,-1,-1,-1,-1,-1,-1,-1,-1,-1,-1,-1,-1,-1,-1,-1,-1,-1,-1],"split_conditions":[4.9755346E-2,9.084144E-2,1.4392295E-1,-7.618811E-2,2.1025723E-1,-2.5051367E-1,8.185744E-2,-1.3765019E-1,-2.9369943E-2,-1.1037552E-1,-1.740272E-1,9.836778E-2,3.8210794E-2,8.023134E-2,-1.2287737E-1,9.9442914E-2,1.4560169E-1,9.955776E-2,-8.0051064E-2,-2.6255274E-1,-2.2159958E-1,-1.1440878E-1,-2.580191E-1,-3.01731E-1,1.09727904E-1,-5.8914732E-2,9.3530595E-2,3.288378E-1,-7.622817E-2,8.373459E-2,-1.7875095E-1,-3.6516795E-1,7.8547776E-2,5.314118E-4,-7.8346446E-2,-3.6952335E-2,-1.526385E-1,1.5233259E-2,1.7088768E-1,-3.8145638E-1,1.000914E-1,-1.0080097E-1,-4.076207E-1,-4.948761E-1,-1.5059963E-1,1.0616882E-1,-4.7384422E-2,4.0094233E-1,1.5367079E-1,-3.2544202E-1,5.4581153E-1,1.4900655E-1,-3.451863E-2,-1.3297457E-1,3.8057166E-1,8.2965285E-2,8.85413E-2,-6.0530927E-2,-1.3110477E-1,2.8805938E-1,1.3709944E-1,-1.1286859E-1,-7.942172E-3,1.6154198E-1,-2.943307E-2,2.7355713E-1,1.3422787E-1,8.019297E-2,-7.513651E-2,3.4540143E-2,2.2633041E-1,3.7921387E-1,1.5816574E-1,3.6911255E-1,2.8420928E-1,3.7279755E-1,-1.3460453E-2,1.19977236E-1,3.0300337E-1,-7.853472E-2,1.4948341E-1,-2.9618302E-2,-1.2141313E-1,-6.380533E-2,2.3166028E-1,1.6771682E-1,-1.6960222E-2,3.3214116E-1,-1.01381384E-1,1.4472458E-1,3.0857038E-1,3.11784E-1,-4.974705E-2,-6.651769E-2,1.3212647E-1,4.1671982E-1,4.0545546E-2,2.2348092E-1,-8.7352574E-2,-1.2899314E-1,-5.226495E-2,-1.3186674E-1,-1.6042711E-1,9.211306E-2,-8.133897E-2,1.4493227E-1,4.153224E-1,4.840428E-2,-7.052381E-2,-1.306704E-1,-4.9582966E-2,-6.1522555E-2,2.3523623E-1,-3.9202422E-2,-1.2867558E-1,-1.0584745E-1,2.277841E-2,2.1357834E-1,1.7711034E-2,-1.02309525E-1,1.0064097E-1,2.6367337E-1,4.803733E-3,3.1408948E-1,8.863667E-2,1.899416E-1,-2.4441807E-3],"split_indices":[677,28,600,426,244,168,192,182,141,759,478,497,599,104,426,600,192,600,419,478,182,436,141,589,677,419,302,483,533,506,141,9,689,689,542,724,182,281,600,615,302,528,9,523,435,263,694,586,659,513,483,302,759,141,665,606,677,528,272,160,412,75,4,0,0,0,0,0,0,0,0,0,0,0,0,0,0,0,0,0,0,0,0,0,0,0,0,0,0,0,0,0,0,0,0,0,0,0,0,0,0,0,0,0,0,0,0,0,0,0,0,0,0,0,0,0,0,0,0,0,0,0,0,0,0,0,0],"split_type":[0,0,0,0,0,0,0,0,0,0,0,0,0,0,0,0,0,0,0,0,0,0,0,0,0,0,0,0,0,0,0,0,0,0,0,0,0,0,0,0,0,0,0,0,0,0,0,0,0,0,0,0,0,0,0,0,0,0,0,0,0,0,0,0,0,0,0,0,0,0,0,0,0,0,0,0,0,0,0,0,0,0,0,0,0,0,0,0,0,0,0,0,0,0,0,0,0,0,0,0,0,0,0,0,0,0,0,0,0,0,0,0,0,0,0,0,0,0,0,0,0,0,0,0,0,0,0],"sum_hessian":[2.5658162E4,7.9242397E3,1.7733922E4,5.7312095E3,2.1930303E3,1.3578454E4,4.1554683E3,1.2902017E3,4.441008E3,1.4665742E3,7.2645605E2,1.0705457E4,2.872997E3,2.6980327E3,1.4574352E3,8.318762E2,4.5832547E2,3.9545837E3,4.8642413E2,9.608086E2,5.0576562E2,4.8203506E2,2.4442102E2,4.800203E2,1.0225437E4,3.928945E2,2.4801025E3,1.505609E3,1.1924238E3,4.3214365E2,1.0252915E3,1.9268839E2,6.391878E2,3.3902545E2,1.1930003E2,4.8365927E2,3.4709243E3,1.9929546E2,2.871287E2,1.27738144E2,8.330705E2,1.8047809E2,3.2528754E2,4.3341663E1,4.386934E2,5.6105095E1,1.8831592E2,4.004485E1,4.3997543E2,1.1942139E3,9.031223E3,2.902927E2,1.0260181E2,1.088833E3,1.3912694E3,6.3294643E1,1.4423143E3,7.4877924E2,4.4364456E2,3.2176746E2,1.103762E2,5.463949E2,4.7889664E2,7.135546E1,1.21332924E2,4.114659E2,2.277219E2,8.2346115E1,2.5667932E2,6.159819E1,5.7701843E1,1.2992346E2,3.537358E2,2.6994836E3,7.714406E2,1.1994128E1,1.8730132E2,1.8031012E2,1.06818565E2,3.8454334E1,8.928381E1,3.2884198E2,5.042285E2,2.1072495E1,1.594056E2,6.1407497E1,2.6388004E2,6.1461964E0,3.7195465E1,1.4152371E2,2.9716968E2,4.167903E1,1.4426065E1,1.3463455E2,5.3681366E1,1.5084354E1,2.4960495E1,2.5365633E1,4.146098E2,8.2551447E2,3.6869943E2,2.092254E3,6.938969E3,2.0954158E2,8.0751114E1,6.337002E1,3.9231785E1,3.97083E2,6.9175006E2,1.1016364E3,2.8963303E2,3.3161922E1,3.013272E1,2.6085953E2,1.1814548E3,4.6207645E2,2.8670276E2,2.4293886E2,2.007057E2,2.887652E2,3.3002266E1,3.290155E1,7.747465E1,4.229026E2,1.23492325E2,1.4296242E2,3.3593423E2],"tree_param":{"num_deleted":"0","num_feature":"768","num_nodes":"127","size_leaf_vector":"0"}},{"base_weights":[5.477285E-3,-2.4722955E-1,3.0186945E-1,-3.513862E-2,-3.6774915E-1,6.283133E-1,1.4943251E-1,3.56148E-1,-1.1045377E-1,-2.111968E-1,-4.4943842E-1,7.193008E-1,3.1967285E-1,1.7882507E-2,3.067819E-1,7.1538687E-1,2.1301526E-1,-2.0547312E-2,-2.5378522E-1,-2.458198E-1,2.622668E-1,-4.85107E-1,-2.9029137E-1,4.6596235E-1,7.974966E-1,1.5047462E-1,5.602883E-1,9.847304E-2,-1.6025259E-1,1.5686104E-1,4.6923125E-1,3.4933147E-1,1.0436126E0,5.944784E-1,1.20164886E-1,2.667993E-1,-7.352303E-2,-1.1466714E-1,-3.7584445E-1,2.0760442E-3,-2.8469294E-1,8.481815E-1,1.1864866E-1,-2.2524351E-1,-5.007378E-1,-1.938176E-1,-4.177279E-1,9.970366E-1,3.9469805E-1,9.0787125E-1,6.1582774E-1,4.3242973E-1,9.629125E-3,8.1338465E-1,3.3935735E-1,-3.0626446E-2,1.9107898E-1,7.2565507E-3,-2.6696202E-1,3.06192E-1,4.1937407E-2,5.724353E-1,2.4664076E-1,-1.9016275E-2,6.7210054E-1,5.1461782E-2,1.1763846E0,-3.3108816E-1,7.9407257E-1,7.221983E-1,5.8559578E-2,1.4766262E-1,1.0141722E0,-1.3838964E-2,-2.694474E-1,-1.5347034E-1,5.0705194E-1,-2.6961455E-1,-4.6931085E-1,3.150716E-1,-1.5857922E-1,-1.5648256E-1,-3.386889E-1,1.4398963E0,8.2593806E-2,6.591013E-1,-5.6732245E-2,8.059307E-1,-2.646491E-1,-5.210685E-1,-3.4202594E-1,-2.7236125E-1,1.6028635E-2,-4.3161878E-1,1.052056E0,-1.6260266E-2,1.149223E0,7.3594195E-1,2.7848455E-1,6.3218486E-1,9.472925E-1,4.3403035E-1,7.612702E-1,5.534231E-1,-2.9924154E-1,-3.5010305E-1,1.5295386E-1,9.144045E-1,5.330208E-2,1.7628354E-1,8.4031373E-1,-1.1891045E-1,1.2156655E-1,4.3146002E-1,1.3336493E-1,1.5467285E-1,-2.3191902E-1,1.7667217E0,-2.7853408E-1,5.979454E-1,2.2260217E-1,-7.127899E-2,1.9290175E-1,7.03676E-1,3.9982295E-1,4.3121454E-1,9.95429E-2],"categories":[],"categories_nodes":[],"categories_segments":[],"categories_sizes":[],"default_left":[1,1,1,1,1,1,1,1,1,1,1,1,1,1,1,1,1,1,1,1,1,1,1,1,1,1,1,1,1,1,1,1,1,1,1,1,1,1,1,1,1,1,1,1,1,1,1,1,1,1,1,1,1,1,1,1,1,1,1,1,1,1,1,0,0,0,0,0,0,0,0,0,0,0,0,0,0,0,0,0,0,0,0,0,0,0,0,0,0,0,0,0,0,0,0,0,0,0,0,0,0,0,0,0,0,0,0,0,0,0,0,0,0,0,0,0,0,0,0,0,0,0,0,0,0,0,0],"id":8,"left_children":[1,3,5,7,9,11,13,15,17,19,21,23,25,27,29,31,33,35,37,39,41,43,45,47,49,51,53,55,57,59,61,63,65,67,69,71,73,75,77,79,81,83,85,87,89,91,93,95,97,99,101,103,105,107,109,111,113,115,117,119,121,123,125,-1,-1,-1,-1,-1,-1,-1,-1,-1,-1,-1,-1,-1,-1,-1,-1,-1,-1,-1,-1,-1,-1,-1,-1,-1,-1,-1,-1,-1,-1,-1,-1,-1,-1,-1,-1,-1,-1,-1,-1,-1,-1,-1,-1,-1,-1,-1,-1,-1,-1,-1,-1,-1,-1,-1,-1,-1,-1,-1,-1,-1,-1,-1,-1],"loss_changes":[1.9205715E3,3.537751E2,5.871406E2,1.4786781E2,1.1277258E2,1.052511E2,1.6653534E2,4.149292E1,5.421241E1,4.9702393E1,3.2774902E1,5.7079834E1,3.480545E1,6.2940594E1,8.915039E1,2.730983E1,2.0492424E1,3.9394215E1,2.7494781E1,2.7196854E1,1.7303406E1,1.9121826E1,1.3001884E1,2.5585556E1,4.3849243E1,2.0032112E1,1.9488182E1,3.6092865E1,2.441349E1,3.271004E1,4.0239502E1,1.3137803E1,1.5870773E1,2.1212364E1,1.7322052E1,3.5720573E1,2.554396E1,1.8396614E1,8.4459305E0,1.9337046E1,1.683638E1,1.8252382E1,1.5892349E1,1.1204463E1,1.4232056E1,1.0017433E1,9.797333E0,1.2441559E1,2.3861877E1,1.4350586E1,2.1883453E1,1.5042774E1,1.7453863E1,1.25453415E1,1.5409174E1,1.6966557E1,2.4329086E1,1.8808159E1,2.0125847E1,2.0086159E1,1.8449898E1,2.690805E1,1.5122955E1,0E0,0E0,0E0,0E0,0E0,0E0,0E0,0E0,0E0,0E0,0E0,0E0,0E0,0E0,0E0,0E0,0E0,0E0,0E0,0E0,0E0,0E0,0E0,0E0,0E0,0E0,0E0,0E0,0E0,0E0,0E0,0E0,0E0,0E0,0E0,0E0,0E0,0E0,0E0,0E0,0E0,0E0,0E0,0E0,0E0,0E0,0E0,0E0,0E0,0E0,0E0,0E0,0E0,0E0,0E0,0E0,0E0,0E0,0E0,0E0,0E0,0E0,0E0,0E0],"parents":[2147483647,0,0,1,1,2,2,3,3,4,4,5,5,6,6,7,7,8,8,9,9,10,10,11,11,12,12,13,13,14,14,15,15,16,16,17,17,18,18,19,19,20,20,21,21,22,22,23,23,24,24,25,25,26,26,27,27,28,28,29,29,30,30,31,31,32,32,33,33,34,34,35,35,36,36,37,37,38,38,39,39,40,40,41,41,42,42,43,43,44,44,45,45,46,46,47,47,48,48,49,49,50,50,51,51,52,52,53,53,54,54,55,55,56,56,57,57,58,58,59,59,60,60,61,61,62,62],"right_children":[2,4,6,8,10,12,14,16,18,20,22,24,26,28,30,32,34,36,38,40,42,44,46,48,50,52,54,56,58,60,62,64,66,68,70,72,74,76,78,80,82,84,86,88,90,92,94,96,98,100,102,104,106,108,110,112,114,116,118,120,122,124,126,-1,-1,-1,-1,-1,-1,-1,-1,-1,-1,-1,-1,-1,-1,-1,-1,-1,-1,-1,-1,-1,-1,-1,-1,-1,-1,-1,-1,-1,-1,-1,-1,-1,-1,-1,-1,-1,-1,-1,-1,-1,-1,-1,-1,-1,-1,-1,-1,-1,-1,-1,-1,-1,-1,-1,-1,-1,-1,-1,-1,-1,-1,-1,-1],"split_conditions":[1.2543473E-1,-7.522923E-2,-9.132E-1,-4.8607635E-1,-7.974729E-2,-1.0038558E-1,1.9251594E-1,-1.923503E-1,6.4519435E-2,5.6015897E-1,-7.955568E-2,2.628479E-1,5.4007804E-1,3.5428144E-2,2.0259584E-1,2.595073E-1,-4.3807223E-1,-5.18695E-1,2.1072882E-1,-1.7638293E-1,-2.7217941E-2,-3.30425E-1,1.4828081E-1,-8.764298E-1,-5.069692E-3,-6.7564204E-2,3.6340338E-1,-2.6254509E-2,3.4608644E-1,8.019525E-2,-3.2030588E-1,5.3934105E-2,3.355509E-1,-4.7380823E-1,-6.479393E-3,3.1087047E-1,5.181752E-2,2.154266E-1,-1.00677274E-1,-2.9800594E-2,-1.2892663E-1,3.105942E-1,-1.7124014E-1,-4.5378006E-1,-9.717651E-3,4.9952775E-2,1.238001E-1,-2.9846883E-1,-6.0878724E-1,6.30206E-2,-4.8149507E-2,5.105915E-1,3.1033018E-1,-2.7099484E-1,5.613904E-1,1.8673822E-1,-3.6784363E-1,4.9246353E-1,-3.1139946E-1,3.3471483E-1,-7.975024E-2,-1.17317945E-1,-3.399017E-1,-5.7048826E-3,2.0163018E-1,1.5438535E-2,3.5291538E-1,-9.9326454E-2,2.3822178E-1,2.166595E-1,1.7567875E-2,4.429879E-2,3.0425167E-1,-4.1516894E-3,-8.083422E-2,-4.60411E-2,1.5211558E-1,-8.088437E-2,-1.4079326E-1,9.4521485E-2,-4.7573768E-2,-4.694477E-2,-1.01606674E-1,4.3196893E-1,2.4778143E-2,1.977304E-1,-1.7019674E-2,2.4177921E-1,-7.939473E-2,-1.5632056E-1,-1.0260779E-1,-8.170838E-2,4.8085907E-3,-1.2948564E-1,3.156168E-1,-4.87808E-3,3.447669E-1,2.207826E-1,8.354537E-2,1.8965547E-1,2.8418776E-1,1.3020912E-1,2.2838108E-1,1.6602693E-1,-8.977246E-2,-1.0503092E-1,4.588616E-2,2.7432138E-1,1.5990624E-2,5.2885063E-2,2.5209412E-1,-3.5673134E-2,3.6469966E-2,1.2943801E-1,4.000948E-2,4.6401855E-2,-6.957571E-2,5.3001654E-1,-8.356023E-2,1.7938362E-1,6.678066E-2,-2.1383697E-2,5.7870526E-2,2.111028E-1,1.1994689E-1,1.2936437E-1,2.9862871E-2],"split_indices":[28,533,58,407,692,230,167,382,149,429,141,515,429,149,760,16,622,459,632,757,251,264,205,227,152,450,312,440,312,118,45,628,15,675,541,760,618,344,692,149,759,543,757,45,612,369,690,75,459,534,21,437,398,495,294,262,685,420,43,99,278,257,685,0,0,0,0,0,0,0,0,0,0,0,0,0,0,0,0,0,0,0,0,0,0,0,0,0,0,0,0,0,0,0,0,0,0,0,0,0,0,0,0,0,0,0,0,0,0,0,0,0,0,0,0,0,0,0,0,0,0,0,0,0,0,0,0],"split_type":[0,0,0,0,0,0,0,0,0,0,0,0,0,0,0,0,0,0,0,0,0,0,0,0,0,0,0,0,0,0,0,0,0,0,0,0,0,0,0,0,0,0,0,0,0,0,0,0,0,0,0,0,0,0,0,0,0,0,0,0,0,0,0,0,0,0,0,0,0,0,0,0,0,0,0,0,0,0,0,0,0,0,0,0,0,0,0,0,0,0,0,0,0,0,0,0,0,0,0,0,0,0,0,0,0,0,0,0,0,0,0,0,0,0,0,0,0,0,0,0,0,0,0,0,0,0,0],"sum_hessian":[2.5639705E4,1.3839867E4,1.1799839E4,5.015268E3,8.824599E3,3.755121E3,8.044718E3,8.089228E2,4.206345E3,3.0270444E3,5.797554E3,2.8991255E3,8.559956E2,4.3821714E3,3.6625464E3,2.2933441E2,5.7958844E2,2.5856235E3,1.6207216E3,2.8212178E3,2.0582661E2,4.734413E3,1.0631414E3,6.8543036E2,2.213695E3,5.0353827E2,3.5245734E2,3.017475E3,1.364696E3,1.905744E3,1.7568025E3,1.0939518E2,1.1993923E2,1.12401115E2,4.671873E2,4.0185855E2,2.1837651E3,7.5833826E2,8.623833E2,3.8256006E2,2.4386577E3,3.9553905E1,1.662727E2,2.6949185E2,4.4649214E3,6.065121E2,4.5662927E2,7.955814E1,6.058722E2,1.3745669E3,8.3912823E2,1.6705157E2,3.3648666E2,1.6302077E2,1.8943657E2,1.2606732E3,1.7568019E3,5.3142065E2,8.3327545E2,8.280793E2,1.0776648E3,1.199215E3,5.575875E2,5.152983E1,5.786535E1,1.4319918E1,1.0561931E2,1.9822153E1,9.2578964E1,4.2373394E1,4.248139E2,3.476398E2,5.4218742E1,1.6746809E3,5.0908417E2,7.144977E2,4.3840607E1,4.0545044E2,4.5693286E2,1.2943263E2,2.5312744E2,7.238398E2,1.714818E3,2.1813614E1,1.774029E1,4.006146E1,1.2621124E2,9.203387E0,2.6028848E2,3.955895E3,5.0902618E2,4.4111035E2,1.6540175E2,4.530538E2,3.5754652E0,1.0505162E1,6.905298E1,1.5256244E2,4.5330978E2,1.7409534E2,1.2004716E3,3.7472324E2,4.6440503E2,1.4355595E2,2.3495619E1,9.545657E1,2.410301E2,1.4371684E2,1.9303928E1,1.4393427E2,4.55023E1,7.9799286E2,4.626804E2,3.3887976E2,1.4179221E3,3.2899643E2,2.0242422E2,3.856515E0,8.2941895E2,1.8304488E2,6.450344E2,6.1612604E2,4.615387E2,6.795003E2,5.197146E2,2.4643596E2,3.1115158E2],"tree_param":{"num_deleted":"0","num_feature":"768","num_nodes":"127","size_leaf_vector":"0"}},{"base_weights":[8.752524E-3,-3.1276897E-1,1.2322834E-1,-1.1435232E-1,-4.4023278E-1,1.7072918E-1,-2.3942408E-1,-2.6143089E-2,-2.6790413E-1,-1.9567609E-1,-5.0297683E-1,2.6401353E-1,5.903575E-2,-3.619457E-1,-5.9509728E-2,-2.0714714E-1,7.208724E-2,-7.894746E-3,-3.6208254E-1,-3.2826978E-1,1.7809229E-2,-5.312136E-1,-2.858456E-1,3.331057E-1,1.0296668E-1,-2.4339678E-2,1.9173366E-1,-7.620918E-2,-4.0310603E-1,2.3563245E-1,-1.8316285E-1,-2.5084347E-1,2.3465927E-1,-5.1305663E-2,2.0256206E-1,-2.533665E-1,2.4649774E-1,-3.8187468E-1,4.087525E-1,-4.1014764E-1,-2.1699949E-3,4.565237E-1,-7.396579E-2,1.949197E-1,-5.3500265E-1,1.2172041E0,-3.0606055E-1,3.8831952E-1,1.5145665E-1,1.90319E-1,-2.881585E-2,1.0525575E-1,-9.970573E-2,9.876052E-2,3.2045925E-1,-2.0070836E-1,4.3099204E-1,-4.4464433E-1,-1.3603069E-1,-2.647251E-1,3.2667512E-1,7.2785564E-2,-2.6507765E-1,5.274324E-1,-2.7457437E-1,4.2672075E-2,1.1129111E0,3.7035996E-1,-9.8962665E-2,2.9839098E-1,-6.717414E-2,-2.9886815E-1,1.1555604E0,7.9123926E-1,5.9288766E-2,-3.9364192E-1,4.978645E-1,1.548132E0,-1.18306205E-1,-4.2144302E-1,1.5247614E0,-3.7441477E-1,3.103952E-1,7.723835E-1,-2.531233E-1,1.4438957E0,-1.0034026E-1,-1.229333E-1,1.5463955E0,2.0530508E-1,-5.381452E-1,1.7726811E0,-7.96612E-3,-3.2250333E-1,1.3649569E0,2.568713E-1,4.8853925E-1,2.3656692E-2,2.999201E-1,4.9336335E-1,1.430516E-1,-1.4991531E-1,1.487723E-1,2.5157148E-1,1.4092613E-2,-2.7121544E-1,-4.884149E-2,2.5098085E-1,4.148544E-2,1.2319903E-1,4.4585875E-1,-2.4363771E-1,1.1467156E0,1.019723E0,-2.2063616E-1,-2.9198697E-1,-5.066742E-1,1.8943383E-1,-3.2122463E-1,7.8629935E-1,-3.9038852E-1,6.1859334E-1,1.4090669E-1,1.7333487E-1,-5.047822E-1,-1.3309886E-1,-4.4226938E-1],"categories":[],"categories_nodes":[],"categories_segments":[],"categories_sizes":[],"default_left":[1,1,1,1,1,1,1,1,1,1,1,1,1,1,1,1,1,1,1,1,1,1,1,1,1,1,1,1,1,1,1,1,1,1,1,1,1,1,1,1,1,1,1,1,1,1,1,1,1,1,1,1,1,1,1,1,1,1,1,1,1,1,1,0,0,0,0,0,0,0,0,0,0,0,0,0,0,0,0,0,0,0,0,0,0,0,0,0,0,0,0,0,0,0,0,0,0,0,0,0,0,0,0,0,0,0,0,0,0,0,0,0,0,0,0,0,0,0,0,0,0,0,0,0,0,0,0],"id":9,"left_children":[1,3,5,7,9,11,13,15,17,19,21,23,25,27,29,31,33,35,37,39,41,43,45,47,49,51,53,55,57,59,61,63,65,67,69,71,73,75,77,79,81,83,85,87,89,91,93,95,97,99,101,103,105,107,109,111,113,115,117,119,121,123,125,-1,-1,-1,-1,-1,-1,-1,-1,-1,-1,-1,-1,-1,-1,-1,-1,-1,-1,-1,-1,-1,-1,-1,-1,-1,-1,-1,-1,-1,-1,-1,-1,-1,-1,-1,-1,-1,-1,-1,-1,-1,-1,-1,-1,-1,-1,-1,-1,-1,-1,-1,-1,-1,-1,-1,-1,-1,-1,-1,-1,-1,-1,-1,-1],"loss_changes":[9.430916E2,1.7009717E2,3.255378E2,3.565298E1,6.2750122E1,1.740653E2,4.8225563E1,2.9765985E1,2.3516823E1,2.3724606E1,1.9828857E1,1.0126416E2,8.414271E1,1.5280289E1,3.244683E1,1.1427607E1,1.7484768E1,1.60746E1,1.0912987E1,1.3801495E1,1.2997689E1,8.035706E0,1.183338E1,6.383136E1,3.148461E1,4.563531E1,3.5089294E1,1.0515184E1,1.2560944E1,1.2048661E1,1.3150131E1,1.0051201E1,8.976389E0,1.1262512E1,1.36617775E1,8.742848E0,1.2846118E1,7.317581E0,1.1072605E1,9.673004E0,1.2303994E1,1.2712505E1,1.0839182E1,6.9332085E0,6.782837E0,3.5575328E0,1.0688614E1,6.422327E1,2.8198376E1,2.3487476E1,2.3483786E1,2.2914227E1,2.5757668E1,1.4857574E1,3.0376076E1,7.989112E0,1.2833778E1,9.1710205E0,9.377438E0,5.719044E0,1.1985168E1,8.951282E0,1.1041412E1,0E0,0E0,0E0,0E0,0E0,0E0,0E0,0E0,0E0,0E0,0E0,0E0,0E0,0E0,0E0,0E0,0E0,0E0,0E0,0E0,0E0,0E0,0E0,0E0,0E0,0E0,0E0,0E0,0E0,0E0,0E0,0E0,0E0,0E0,0E0,0E0,0E0,0E0,0E0,0E0,0E0,0E0,0E0,0E0,0E0,0E0,0E0,0E0,0E0,0E0,0E0,0E0,0E0,0E0,0E0,0E0,0E0,0E0,0E0,0E0,0E0,0E0,0E0,0E0],"parents":[2147483647,0,0,1,1,2,2,3,3,4,4,5,5,6,6,7,7,8,8,9,9,10,10,11,11,12,12,13,13,14,14,15,15,16,16,17,17,18,18,19,19,20,20,21,21,22,22,23,23,24,24,25,25,26,26,27,27,28,28,29,29,30,30,31,31,32,32,33,33,34,34,35,35,36,36,37,37,38,38,39,39,40,40,41,41,42,42,43,43,44,44,45,45,46,46,47,47,48,48,49,49,50,50,51,51,52,52,53,53,54,54,55,55,56,56,57,57,58,58,59,59,60,60,61,61,62,62],"right_children":[2,4,6,8,10,12,14,16,18,20,22,24,26,28,30,32,34,36,38,40,42,44,46,48,50,52,54,56,58,60,62,64,66,68,70,72,74,76,78,80,82,84,86,88,90,92,94,96,98,100,102,104,106,108,110,112,114,116,118,120,122,124,126,-1,-1,-1,-1,-1,-1,-1,-1,-1,-1,-1,-1,-1,-1,-1,-1,-1,-1,-1,-1,-1,-1,-1,-1,-1,-1,-1,-1,-1,-1,-1,-1,-1,-1,-1,-1,-1,-1,-1,-1,-1,-1,-1,-1,-1,-1,-1,-1,-1,-1,-1,-1,-1,-1,-1,-1,-1,-1,-1,-1,-1,-1,-1,-1],"split_conditions":[-6.4071333E-1,-2.3822083E-1,-1.2128818E-1,1.8062906E-1,1.3556747E-1,1.8630499E-1,-1.8014765E-1,-1.5166873E-1,-3.3209556E-1,-1.2849662E-1,3.2798958E-3,1.0896489E-3,1.613361E-1,-6.322906E-2,-1.8408783E-1,9.955997E-3,-6.2136376E-1,-1.2525824E-1,5.1298194E-2,-1.5361187E-1,1.6180667E-1,1.8601996E-1,-2.0149997E-1,7.812235E-2,5.532697E-2,-2.0435942E-2,-3.5906726E-1,6.501967E-2,-5.4748185E-2,-3.9877203E-1,-8.514448E-2,-4.6826565E-1,-4.5057565E-1,-1.2363981E-1,-6.627192E-1,2.283703E-1,-2.2826062E-1,2.1581525E-1,4.21634E-2,3.0954593E-1,9.35222E-2,-1.7966779E-1,-1.1421663E-1,3.8355894E-2,-2.4998681E-1,8.622365E-1,1.904505E-2,-2.7799866E-1,1.560509E-1,1.8264484E-1,6.2415935E-2,9.60843E-2,3.0773643E-1,-2.2439283E-1,4.1302174E-1,7.449225E-2,-1.1111246E-1,-2.6705677E-2,3.2356635E-2,-4.3838125E-2,1.7853148E-2,2.1350612E-1,-8.566356E-3,1.5822972E-1,-8.2372315E-2,1.2801623E-2,3.3387333E-1,1.1110799E-1,-2.96888E-2,8.9517295E-2,-2.0152241E-2,-8.966045E-2,3.4666812E-1,2.3737179E-1,1.7786631E-2,-1.1809258E-1,1.4935936E-1,4.644396E-1,-3.549186E-2,-1.2643291E-1,4.5742846E-1,-1.1232444E-1,9.311856E-2,2.3171507E-1,-7.5936995E-2,4.3316874E-1,-3.010208E-2,-3.687999E-2,4.639187E-1,6.159153E-2,-1.6144356E-1,5.318044E-1,-2.3898361E-3,-9.6751004E-2,4.0948707E-1,7.70614E-2,1.4656179E-1,7.097008E-3,8.9976035E-2,1.4800902E-1,4.291548E-2,-4.4974595E-2,4.463169E-2,7.5471446E-2,4.227784E-3,-8.136463E-2,-1.4652448E-2,7.5294256E-2,1.2445632E-2,3.695971E-2,1.3375764E-1,-7.309131E-2,3.440147E-1,3.0591694E-1,-6.619085E-2,-8.7596096E-2,-1.5200226E-1,5.683015E-2,-9.63674E-2,2.358898E-1,-1.1711656E-1,1.85578E-1,4.227201E-2,5.2000463E-2,-1.5143466E-1,-3.992966E-2,-1.3268082E-1],"split_indices":[539,593,264,174,174,320,261,481,593,714,530,698,711,426,101,454,431,757,266,313,515,20,283,655,340,528,311,144,755,137,692,729,523,219,370,259,567,439,628,386,687,761,636,449,339,172,49,168,586,650,534,302,719,478,719,681,622,692,426,106,132,390,338,0,0,0,0,0,0,0,0,0,0,0,0,0,0,0,0,0,0,0,0,0,0,0,0,0,0,0,0,0,0,0,0,0,0,0,0,0,0,0,0,0,0,0,0,0,0,0,0,0,0,0,0,0,0,0,0,0,0,0,0,0,0,0,0],"split_type":[0,0,0,0,0,0,0,0,0,0,0,0,0,0,0,0,0,0,0,0,0,0,0,0,0,0,0,0,0,0,0,0,0,0,0,0,0,0,0,0,0,0,0,0,0,0,0,0,0,0,0,0,0,0,0,0,0,0,0,0,0,0,0,0,0,0,0,0,0,0,0,0,0,0,0,0,0,0,0,0,0,0,0,0,0,0,0,0,0,0,0,0,0,0,0,0,0,0,0,0,0,0,0,0,0,0,0,0,0,0,0,0,0,0,0,0,0,0,0,0,0,0,0,0,0,0,0],"sum_hessian":[2.5620963E4,6.7266064E3,1.8894355E4,2.6317654E3,4.0948413E3,1.6706623E4,2.187733E3,1.6722794E3,9.5948596E2,8.369171E2,3.257924E3,9.10278E3,7.6038423E3,1.3008457E3,8.8688727E2,5.878919E2,1.0843875E3,2.5541518E2,7.0407074E2,5.1593634E2,3.209808E2,2.8817249E3,3.7619922E2,6.3692017E3,2.7335784E3,4.670277E3,2.9335652E3,1.6415152E2,1.1366942E3,2.6159415E2,6.252931E2,5.3537366E2,5.2518257E1,5.576307E2,5.2675684E2,1.2998875E2,1.2542643E2,6.869374E2,1.7133375E1,4.1218604E2,1.037503E2,5.4842316E1,2.661385E2,1.4697312E1,2.8670276E3,4.206658E0,3.7199255E2,4.8836396E3,1.4855621E3,1.6436425E3,1.0899359E3,1.7171542E3,2.9531228E3,1.7043507E3,1.2292145E3,1.3228477E2,3.1866747E1,9.831238E2,1.5357042E2,3.9977234E1,2.2161693E2,1.5162906E2,4.7366403E2,1.5213326E1,5.2016034E2,4.3957638E1,8.560618E0,5.5936573E1,5.016941E2,3.8859485E2,1.3816196E2,1.26685295E2,3.3034568E0,3.1254742E1,9.417169E1,6.784155E2,8.521824E0,4.806192E0,1.2327184E1,4.1057144E2,1.6145971E0,4.7264038E1,5.648626E1,3.7889507E1,1.6952808E1,3.6275167E0,2.62511E2,1.2634782E1,2.062531E0,1.1846936E1,2.8551807E3,2.5869026E0,1.6197554E0,3.6916696E2,2.8255956E0,2.1142075E3,2.7694321E3,7.9896136E2,6.8660077E2,2.2050252E2,1.42314E3,6.481266E2,4.418094E2,6.5850397E2,1.0586503E3,6.744856E2,2.2786372E3,4.6503702E2,1.2393137E3,4.7849634E2,7.5071814E2,1.2899416E2,3.290611E0,1.6444572E1,1.5422174E1,2.8570422E2,6.9741956E2,5.568511E1,9.788531E1,3.707899E0,3.6269333E1,8.5278915E1,1.3633801E2,1.2974203E2,2.1887022E1,2.7246985E2,2.0119418E2],"tree_param":{"num_deleted":"0","num_feature":"768","num_nodes":"127","size_leaf_vector":"0"}},{"base_weights":[4.0038675E-3,2.745644E-1,-1.8328106E-1,-6.454373E-2,4.5394978E-1,-3.0864725E-1,1.0036057E-1,3.871235E-1,-2.0777765E-1,5.5766827E-1,1.3855593E-1,-3.9557394E-1,-1.005012E-1,2.9480806E-1,-1.311972E-1,5.587509E-1,-7.3397094E-3,-3.455987E-1,9.8782055E-2,6.5203077E-1,2.9095727E-1,2.55961E-1,-1.2873164E-1,-4.6216676E-1,-2.4267016E-1,-2.3582673E-1,9.468698E-2,5.5932176E-1,1.738764E-1,-3.0481234E-1,2.9921113E-2,7.8370947E-1,2.9967746E-1,-1.838547E-1,5.024942E-1,-5.8096047E-2,-4.222876E-1,4.0310222E-1,-1.2189319E-1,2.3565471E-1,7.237202E-1,3.7500447E-1,-1.8075724E-1,-3.4325173E-1,3.2896906E-1,-2.6095003E-1,2.4167314E-1,-3.5661843E-1,-5.102718E-1,1.8325809E-1,-3.3262843E-1,3.9098047E-2,-3.028486E-1,3.7459707E-1,-6.9695555E-2,7.4741954E-1,1.757581E-1,3.04331E-1,-5.8440555E-2,-2.744734E-3,-3.7852404E-1,4.3916184E-1,-6.9604345E-2,8.702949E-1,-7.116974E-2,6.750583E-1,1.0850737E-1,-2.3197523E-1,1.1016917E0,9.942349E-1,5.9122287E-2,1.381477E-1,-3.396527E-1,-1.14563815E-1,-4.802071E-1,1.0615673E0,2.9268593E-1,2.270265E-1,-3.2422817E-1,3.9149873E-2,5.722452E-1,8.615345E-1,6.013479E-1,-2.680758E-2,4.7946963E-1,5.0941086E-1,-2.785831E-1,-3.7107342E-1,1.0355356E0,6.899175E-1,2.5055292E-1,-4.2049927E-1,-5.3417046E-2,7.679741E-1,-6.23425E-2,-2.3304075E-1,-4.4808298E-1,-5.262236E-1,-3.290453E-1,5.5565697E-1,-8.747844E-2,-3.4664374E-2,-3.8219887E-1,3.513427E-1,-1.4326833E-1,-5.2337587E-2,-3.5472608E-1,4.8578578E-1,-2.2601408E-1,9.4922E-2,-2.8201497E-1,8.4117204E-1,2.4668609E-1,-3.2751936E-2,4.8585883E-1,4.1882E-1,3.6146823E-2,1.7129649E-1,-2.4303783E-1,7.5492233E-1,-8.35973E-2,-4.1334918E-1,-1.6217554E-2,1.4570856E-1,7.392547E-1,4.419106E-2,-2.669921E-1],"categories":[],"categories_nodes":[],"categories_segments":[],"categories_sizes":[],"default_left":[1,1,1,1,1,1,1,1,1,1,1,1,1,1,1,1,1,1,1,1,1,1,1,1,1,1,1,1,1,1,1,1,1,1,1,1,1,1,1,1,1,1,1,1,1,1,1,1,1,1,1,1,1,1,1,1,1,1,1,1,1,1,1,0,0,0,0,0,0,0,0,0,0,0,0,0,0,0,0,0,0,0,0,0,0,0,0,0,0,0,0,0,0,0,0,0,0,0,0,0,0,0,0,0,0,0,0,0,0,0,0,0,0,0,0,0,0,0,0,0,0,0,0,0,0,0,0],"id":10,"left_children":[1,3,5,7,9,11,13,15,17,19,21,23,25,27,29,31,33,35,37,39,41,43,45,47,49,51,53,55,57,59,61,63,65,67,69,71,73,75,77,79,81,83,85,87,89,91,93,95,97,99,101,103,105,107,109,111,113,115,117,119,121,123,125,-1,-1,-1,-1,-1,-1,-1,-1,-1,-1,-1,-1,-1,-1,-1,-1,-1,-1,-1,-1,-1,-1,-1,-1,-1,-1,-1,-1,-1,-1,-1,-1,-1,-1,-1,-1,-1,-1,-1,-1,-1,-1,-1,-1,-1,-1,-1,-1,-1,-1,-1,-1,-1,-1,-1,-1,-1,-1,-1,-1,-1,-1,-1,-1],"loss_changes":[1.2710833E3,6.2421765E2,5.2714307E2,2.2980411E2,2.1945728E2,1.8596448E2,2.0465263E2,5.790869E1,1.1396741E2,1.2690503E2,5.219235E1,7.372351E1,8.0052E1,7.8926956E1,5.8050575E1,3.450078E1,2.3517448E1,4.0996414E1,5.6266205E1,1.1115137E2,5.246254E1,5.0649933E1,2.4938898E1,2.5460327E1,8.443573E1,3.2986618E1,5.7138718E1,5.5756516E1,5.144219E1,2.2238762E1,4.390127E1,2.3628952E1,1.9920826E1,1.2261991E1,1.4594868E1,2.1757893E1,2.611972E1,2.528896E1,3.4385303E1,3.6307594E1,5.3130493E1,4.711017E1,1.3681092E1,5.215827E0,2.8987488E1,1.238785E1,2.1510008E1,1.7804428E1,9.84906E0,3.8828438E1,2.6845673E1,2.0074049E1,1.8681671E1,3.0789192E1,2.7388344E1,2.4177734E1,1.6580973E1,3.3353447E1,2.5954058E1,1.2127163E1,1.0123703E1,1.8459812E1,1.9492277E1,0E0,0E0,0E0,0E0,0E0,0E0,0E0,0E0,0E0,0E0,0E0,0E0,0E0,0E0,0E0,0E0,0E0,0E0,0E0,0E0,0E0,0E0,0E0,0E0,0E0,0E0,0E0,0E0,0E0,0E0,0E0,0E0,0E0,0E0,0E0,0E0,0E0,0E0,0E0,0E0,0E0,0E0,0E0,0E0,0E0,0E0,0E0,0E0,0E0,0E0,0E0,0E0,0E0,0E0,0E0,0E0,0E0,0E0,0E0,0E0,0E0,0E0,0E0,0E0],"parents":[2147483647,0,0,1,1,2,2,3,3,4,4,5,5,6,6,7,7,8,8,9,9,10,10,11,11,12,12,13,13,14,14,15,15,16,16,17,17,18,18,19,19,20,20,21,21,22,22,23,23,24,24,25,25,26,26,27,27,28,28,29,29,30,30,31,31,32,32,33,33,34,34,35,35,36,36,37,37,38,38,39,39,40,40,41,41,42,42,43,43,44,44,45,45,46,46,47,47,48,48,49,49,50,50,51,51,52,52,53,53,54,54,55,55,56,56,57,57,58,58,59,59,60,60,61,61,62,62],"right_children":[2,4,6,8,10,12,14,16,18,20,22,24,26,28,30,32,34,36,38,40,42,44,46,48,50,52,54,56,58,60,62,64,66,68,70,72,74,76,78,80,82,84,86,88,90,92,94,96,98,100,102,104,106,108,110,112,114,116,118,120,122,124,126,-1,-1,-1,-1,-1,-1,-1,-1,-1,-1,-1,-1,-1,-1,-1,-1,-1,-1,-1,-1,-1,-1,-1,-1,-1,-1,-1,-1,-1,-1,-1,-1,-1,-1,-1,-1,-1,-1,-1,-1,-1,-1,-1,-1,-1,-1,-1,-1,-1,-1,-1,-1,-1,-1,-1,-1,-1,-1,-1,-1,-1,-1,-1,-1],"split_conditions":[6.725356E-2,-8.898269E-2,2.0322052E-1,-2.2470587E-1,-5.7674296E-2,1.5817665E-1,3.9759505E-1,-1.8110049E-1,-1.8052574E-2,-1.5369685E-1,-1.3768648E-1,7.5002816E-3,1.7397159E-3,-2.914436E-1,-4.1239277E-2,9.735771E-2,2.9606473E-1,6.4834885E-2,9.41287E-2,-4.8137605E-1,-1.4299273E-1,-5.587639E-1,3.0829608E-1,-1.3935488E-1,-2.8267467E-1,-1.8770401E-1,-2.196592E-1,1.9817719E-1,-1.3874171E-2,5.1289576E-1,-2.9644966E-1,1.3349998E-1,-2.0902503E-1,2.5254527E-2,7.157978E-4,-1.6895676E-1,-1.3669142E-1,-3.5115123E-1,-5.3916797E-2,-4.5076326E-2,-2.8812777E-2,-1.923098E-1,-1.5619197E-1,1.6368517E-1,-9.695506E-2,2.0070863E-1,3.052803E-1,1.5749548E-1,-8.3319575E-2,9.480017E-2,-4.0209645E-1,1.3628879E-1,-3.8714208E-2,-1.3343808E-1,-2.0973563E-1,-1.0578465E-1,-3.566873E-4,1.7371376E-1,-3.4882307E-1,-2.2544104E-1,2.9993963E-1,-7.115941E-2,5.038639E-1,2.610885E-1,-2.1350924E-2,2.025175E-1,3.2552212E-2,-6.959257E-2,3.3050752E-1,2.982705E-1,1.7736686E-2,4.144431E-2,-1.0189581E-1,-3.4369145E-2,-1.4406213E-1,3.184702E-1,8.780578E-2,6.8107955E-2,-9.7268455E-2,1.1744962E-2,1.7167357E-1,2.5846034E-1,1.8040438E-1,-8.042274E-3,1.438409E-1,1.5282327E-1,-8.3574936E-2,-1.1132203E-1,3.106607E-1,2.0697527E-1,7.516588E-2,-1.2614979E-1,-1.6025115E-2,2.3039223E-1,-1.8702751E-2,-6.9912225E-2,-1.344249E-1,-1.5786709E-1,-9.871359E-2,1.666971E-1,-2.6243532E-2,-1.0399313E-2,-1.1465967E-1,1.0540282E-1,-4.29805E-2,-1.5701277E-2,-1.0641783E-1,1.4573574E-1,-6.7804225E-2,2.8476601E-2,-8.4604494E-2,2.523516E-1,7.400583E-2,-9.825582E-3,1.4575766E-1,1.2564601E-1,1.0844047E-2,5.138895E-2,-7.291135E-2,2.2647671E-1,-2.5079193E-2,-1.2400476E-1,-4.8652664E-3,4.371257E-2,2.2177643E-1,1.3257318E-2,-8.009763E-2],"split_indices":[534,698,477,189,278,296,19,191,660,396,189,132,132,249,132,603,735,603,603,459,233,459,663,435,249,278,249,534,450,352,249,421,197,454,394,249,692,249,436,714,534,141,426,710,35,280,365,512,141,512,513,534,22,191,98,500,132,603,311,442,633,359,19,0,0,0,0,0,0,0,0,0,0,0,0,0,0,0,0,0,0,0,0,0,0,0,0,0,0,0,0,0,0,0,0,0,0,0,0,0,0,0,0,0,0,0,0,0,0,0,0,0,0,0,0,0,0,0,0,0,0,0,0,0,0,0,0],"split_type":[0,0,0,0,0,0,0,0,0,0,0,0,0,0,0,0,0,0,0,0,0,0,0,0,0,0,0,0,0,0,0,0,0,0,0,0,0,0,0,0,0,0,0,0,0,0,0,0,0,0,0,0,0,0,0,0,0,0,0,0,0,0,0,0,0,0,0,0,0,0,0,0,0,0,0,0,0,0,0,0,0,0,0,0,0,0,0,0,0,0,0,0,0,0,0,0,0,0,0,0,0,0,0,0,0,0,0,0,0,0,0,0,0,0,0,0,0,0,0,0,0,0,0,0,0,0,0],"sum_hessian":[2.5082582E4,1.0260019E4,1.4822564E4,3.5499233E3,6.7100947E3,1.0279196E4,4.543368E3,8.5430255E2,2.6956208E3,5.048957E3,1.6611376E3,7.2503696E3,3.0288267E3,2.4694272E3,2.0739412E3,5.9500476E2,2.592978E2,1.8595083E3,8.361126E2,3.7284019E3,1.3205552E3,1.1542013E3,5.0693625E2,5.0492793E3,2.20109E3,1.788581E3,1.2402457E3,7.736338E2,1.6957933E3,9.9782733E2,1.0761138E3,3.173867E2,2.7761807E2,1.9308661E2,6.6211174E1,3.9193222E2,1.467576E3,3.51102E2,4.8501062E2,5.482757E2,3.1801262E3,1.1210232E3,1.99532E2,1.24952644E2,1.0292487E3,3.7380103E2,1.3313521E2,1.5834373E3,3.4658423E3,3.8363666E2,1.8174534E3,3.506453E2,1.4379358E3,4.5840176E2,7.8184393E2,5.184431E2,2.5519066E2,1.0857784E3,6.1001483E2,1.9593413E2,8.018932E2,2.0984312E2,8.662707E2,2.881806E2,2.9206074E1,9.282199E1,1.847961E2,1.8690976E2,6.176849E0,3.080411E1,3.5407063E1,2.3125668E2,1.6067555E2,2.3294214E2,1.2346339E3,4.918343E1,3.0191855E2,1.7797568E2,3.0703494E2,3.4688E2,2.0139566E2,1.4928528E3,1.6872734E3,2.3146515E2,8.8955804E2,2.4248674E1,1.7528333E2,1.23197586E2,1.7550573E0,1.8230469E2,8.46944E2,2.1075137E2,1.6304967E2,4.8187916E1,8.494729E1,6.7499695E2,9.0844025E2,3.1837046E3,2.8213766E2,1.61054E2,2.2258266E2,2.5947403E2,1.5579794E3,1.2894362E2,2.2170168E2,2.4703543E2,1.1909003E3,3.8695712E2,7.144463E1,4.407051E2,3.4113885E2,4.361102E2,8.233293E1,1.5312479E2,1.0206588E2,7.605393E2,3.252392E2,2.718104E2,3.3820444E2,1.8088673E1,1.7784544E2,7.3144525E2,7.044794E1,1.0684633E2,1.0299679E2,5.4997974E2,3.16291E2],"tree_param":{"num_deleted":"0","num_feature":"768","num_nodes":"127","size_leaf_vector":"0"}},{"base_weights":[-1.8876461E-2,5.4286516E-1,-3.7667158E-1,7.613174E-1,4.3814845E-2,-7.205646E-2,-4.5447144E-1,8.266305E-1,2.249472E-1,1.6663392E-1,-3.1242302E-1,2.7461022E-1,-2.6268607E-1,-4.9216855E-1,-3.3106074E-1,4.483602E-1,8.7783664E-1,-2.6713985E-1,3.587461E-1,3.1776887E-1,-1.6973889E-1,-1.650443E-1,-4.0023008E-1,6.048607E-1,-5.6867756E-2,-3.3887276E-1,1.4234552E-1,-4.958486E-1,3.6445117E-1,-3.9313224E-1,-1.7881286E-1,5.8016646E-1,-8.2839675E-2,3.4359062E-1,9.0199685E-1,4.5166668E-1,-3.7999883E-1,5.5824095E-1,3.1452114E-3,-1.21566005E-1,4.2763865E-1,-2.8989652E-1,1.5355097E-1,3.194773E-2,-3.727808E-1,-4.41847E-1,-7.427777E-2,7.707656E-1,2.3663934E-2,-2.4980167E-1,3.5287166E-1,-1.783807E-1,-4.4257507E-1,-7.803206E-2,6.083995E-1,2.5028238E-1,-4.990892E-1,1.0499679E0,-1.8075038E-1,1.6623382E-1,-4.0439254E-1,-2.5487265E-1,2.1853921E-1,6.557482E-1,-5.9346996E-2,-4.1036177E-1,6.028826E-1,5.4055494E-1,-3.4962416E-1,9.13306E-1,4.0109277E-1,9.947177E-1,-1.7502971E-1,2.5431964E-1,-4.717656E-1,6.774044E-1,-2.283446E-1,3.7791815E-1,-1.840923E-1,-2.7216592E-1,1.740356E-1,2.720765E-1,7.463828E-1,-3.921401E-1,-2.9247059E-3,-4.036176E-1,3.5148478E-1,8.8391113E-1,-3.866107E-2,1.0695357E-1,-4.5900196E-1,-4.5061314E-1,8.1885004E-1,3.7548405E-1,-4.292593E-1,8.946916E-1,1.8197718E-1,1.2305999E0,-1.3527945E-1,-3.5451165E-1,2.0268738E-1,7.83975E-1,-1.0348679E-1,6.865445E-2,-3.340132E-1,-4.5488104E-1,5.956599E-1,-1.9948134E-1,6.1395127E-1,1.6796294E-1,1.0772852E0,-1.6182421E-1,1.0337838E0,-4.2224953E-1,-5.156798E-1,1.3153672E0,-4.1568246E-1,9.422335E-1,-3.3178937E-1,1.3645892E0,-2.2439496E-1,-4.2657587E-1,-1.7993261E-1,-2.6714545E-1,1.158531E0,6.9792163E-1,-1.303218E-1],"categories":[],"categories_nodes":[],"categories_segments":[],"categories_sizes":[],"default_left":[1,1,1,1,1,1,1,1,1,1,1,1,1,1,1,1,1,1,1,1,1,1,1,1,1,1,1,1,1,1,1,1,1,1,1,1,1,1,1,1,1,1,1,1,1,1,1,1,1,1,1,1,1,1,1,1,1,1,1,1,1,1,1,0,0,0,0,0,0,0,0,0,0,0,0,0,0,0,0,0,0,0,0,0,0,0,0,0,0,0,0,0,0,0,0,0,0,0,0,0,0,0,0,0,0,0,0,0,0,0,0,0,0,0,0,0,0,0,0,0,0,0,0,0,0,0,0],"id":11,"left_children":[1,3,5,7,9,11,13,15,17,19,21,23,25,27,29,31,33,35,37,39,41,43,45,47,49,51,53,55,57,59,61,63,65,67,69,71,73,75,77,79,81,83,85,87,89,91,93,95,97,99,101,103,105,107,109,111,113,115,117,119,121,123,125,-1,-1,-1,-1,-1,-1,-1,-1,-1,-1,-1,-1,-1,-1,-1,-1,-1,-1,-1,-1,-1,-1,-1,-1,-1,-1,-1,-1,-1,-1,-1,-1,-1,-1,-1,-1,-1,-1,-1,-1,-1,-1,-1,-1,-1,-1,-1,-1,-1,-1,-1,-1,-1,-1,-1,-1,-1,-1,-1,-1,-1,-1,-1,-1],"loss_changes":[4.8998887E3,1.0341128E3,3.529165E2,2.3094751E2,1.2646152E2,2.0038028E2,5.502588E1,1.13524414E2,4.7340973E1,1.0930968E2,9.523994E0,1.1781351E2,6.0411926E1,2.88208E1,2.6190277E1,4.928694E1,6.65376E1,1.2662362E1,4.005098E1,7.164549E1,2.5951084E1,1.1403889E1,6.2571335E0,5.1957E1,4.2607704E1,2.7328903E1,3.1928688E1,2.1999268E1,1.4929968E1,1.2495514E1,2.4434397E1,2.7279572E1,3.1843342E1,3.1004362E1,2.7698486E1,7.44051E0,7.8979206E0,3.405587E1,1.4378587E1,1.3291193E1,5.8639038E1,1.4274666E1,2.014281E1,8.684987E0,5.6568604E0,4.910942E0,8.7350025E0,3.043193E1,2.3326939E1,1.7425438E1,3.403824E1,2.4939066E1,1.3043594E1,1.790868E1,2.0422829E1,1.3014271E1,1.1265625E1,7.399952E0,4.1833863E0,1.8864908E1,9.555817E0,1.2061771E1,2.1854557E1,0E0,0E0,0E0,0E0,0E0,0E0,0E0,0E0,0E0,0E0,0E0,0E0,0E0,0E0,0E0,0E0,0E0,0E0,0E0,0E0,0E0,0E0,0E0,0E0,0E0,0E0,0E0,0E0,0E0,0E0,0E0,0E0,0E0,0E0,0E0,0E0,0E0,0E0,0E0,0E0,0E0,0E0,0E0,0E0,0E0,0E0,0E0,0E0,0E0,0E0,0E0,0E0,0E0,0E0,0E0,0E0,0E0,0E0,0E0,0E0,0E0,0E0,0E0,0E0],"parents":[2147483647,0,0,1,1,2,2,3,3,4,4,5,5,6,6,7,7,8,8,9,9,10,10,11,11,12,12,13,13,14,14,15,15,16,16,17,17,18,18,19,19,20,20,21,21,22,22,23,23,24,24,25,25,26,26,27,27,28,28,29,29,30,30,31,31,32,32,33,33,34,34,35,35,36,36,37,37,38,38,39,39,40,40,41,41,42,42,43,43,44,44,45,45,46,46,47,47,48,48,49,49,50,50,51,51,52,52,53,53,54,54,55,55,56,56,57,57,58,58,59,59,60,60,61,61,62,62],"right_children":[2,4,6,8,10,12,14,16,18,20,22,24,26,28,30,32,34,36,38,40,42,44,46,48,50,52,54,56,58,60,62,64,66,68,70,72,74,76,78,80,82,84,86,88,90,92,94,96,98,100,102,104,106,108,110,112,114,116,118,120,122,124,126,-1,-1,-1,-1,-1,-1,-1,-1,-1,-1,-1,-1,-1,-1,-1,-1,-1,-1,-1,-1,-1,-1,-1,-1,-1,-1,-1,-1,-1,-1,-1,-1,-1,-1,-1,-1,-1,-1,-1,-1,-1,-1,-1,-1,-1,-1,-1,-1,-1,-1,-1,-1,-1,-1,-1,-1,-1,-1,-1,-1,-1,-1,-1,-1],"split_conditions":[-6.472516E-1,4.0175665E-2,-4.5727246E-2,1.0192989E-1,7.204664E-2,1.666325E-1,4.1593915E-1,-1.0204538E-1,7.3717006E-2,1.4859265E-2,-1.1139318E0,-1.3875633E-1,1.3157853E-1,1.7142312E-1,1.24718785E-1,-4.284908E-2,2.1360585E-1,4.3019205E-2,2.709579E-1,4.333294E-1,3.3825606E-2,2.9023093E-1,1.5138865E-1,-8.6176835E-2,3.1808706E-4,-1.9080529E-1,2.1901876E-1,-1.0416636E-2,4.281415E-2,-7.814661E-2,1.6219242E-1,4.4741476E-1,-1.3966545E-2,-6.759778E-2,4.5368198E-1,-7.8242555E-2,-4.2436332E-1,7.9026006E-2,-1.7188446E-1,-8.881739E-2,-8.122514E-2,5.556823E-1,8.0514506E-2,-3.4927544E-1,-2.1852353E-3,3.498922E-1,1.5901822E-1,-2.0063981E-2,-1.1024324E-1,4.881423E-3,-6.0672425E-2,-2.251156E-2,-1.0302242E-1,-8.327813E-3,-4.2700917E-2,-4.1630886E-2,-7.761582E-2,1.6313057E-1,1.287499E-1,-1.0426971E-1,1.3527042E-1,2.0390607E-1,3.6906475E-1,1.9672446E-1,-1.78041E-2,-1.23108536E-1,1.808648E-1,1.6216649E-1,-1.04887255E-1,2.7399182E-1,1.2032784E-1,2.9841533E-1,-5.2508917E-2,7.62959E-2,-1.415297E-1,2.0322134E-1,-6.850339E-2,1.1337545E-1,-5.5227693E-2,-8.164978E-2,5.221068E-2,8.162295E-2,2.2391485E-1,-1.1764203E-1,-8.774118E-4,-1.2108528E-1,1.0544544E-1,2.6517335E-1,-1.1598322E-2,3.208607E-2,-1.3770059E-1,-1.3518395E-1,2.4565502E-1,1.1264522E-1,-1.287778E-1,2.684075E-1,5.4593157E-2,3.6917996E-1,-4.0583834E-2,-1.063535E-1,6.080622E-2,2.3519251E-1,-3.1046038E-2,2.0596335E-2,-1.0020396E-1,-1.3646431E-1,1.7869797E-1,-5.9844404E-2,1.8418539E-1,5.0388884E-2,3.2318556E-1,-4.8547264E-2,3.1013516E-1,-1.2667486E-1,-1.5470394E-1,3.946102E-1,-1.2470474E-1,2.8267005E-1,-9.9536814E-2,4.0937677E-1,-6.731849E-2,-1.2797277E-1,-5.3979784E-2,-8.014364E-2,3.475593E-1,2.093765E-1,-3.909654E-2],"split_indices":[539,165,530,4,530,621,365,528,603,150,349,756,188,645,77,359,657,447,203,267,110,23,188,306,110,618,462,280,81,286,188,398,278,434,683,680,411,269,756,435,230,586,512,691,139,304,242,660,321,98,66,169,519,545,528,50,481,17,473,104,450,385,667,0,0,0,0,0,0,0,0,0,0,0,0,0,0,0,0,0,0,0,0,0,0,0,0,0,0,0,0,0,0,0,0,0,0,0,0,0,0,0,0,0,0,0,0,0,0,0,0,0,0,0,0,0,0,0,0,0,0,0,0,0,0,0,0],"split_type":[0,0,0,0,0,0,0,0,0,0,0,0,0,0,0,0,0,0,0,0,0,0,0,0,0,0,0,0,0,0,0,0,0,0,0,0,0,0,0,0,0,0,0,0,0,0,0,0,0,0,0,0,0,0,0,0,0,0,0,0,0,0,0,0,0,0,0,0,0,0,0,0,0,0,0,0,0,0,0,0,0,0,0,0,0,0,0,0,0,0,0,0,0,0,0,0,0,0,0,0,0,0,0,0,0,0,0,0,0,0,0,0,0,0,0,0,0,0,0,0,0,0,0,0,0,0,0],"sum_hessian":[2.4376943E4,9.484957E3,1.4891987E4,6.5967827E3,2.8881738E3,3.0300713E3,1.1861916E4,5.880216E3,7.1656714E2,2.148109E3,7.40065E2,1.0748954E3,1.9551758E3,9.084097E3,2.7778196E3,7.022572E2,5.1779585E3,1.5297127E2,5.635959E2,1.4822002E3,6.659088E2,2.7737976E2,4.626852E2,5.380315E2,5.3686395E2,1.645769E3,3.0940677E2,9.045657E3,3.8439175E1,1.9721792E3,8.056403E2,5.62574E2,1.3968326E2,2.2468987E2,4.9532686E3,2.0351175E1,1.3262009E2,3.6068115E2,2.0291475E2,2.9649658E2,1.1857035E3,4.8554782E2,1.8036101E2,1.4280608E2,1.345737E2,4.0998373E2,5.270147E1,4.1830002E2,1.1973149E2,3.6526297E2,1.7160095E2,6.470696E2,9.9869946E2,2.1063757E2,9.876919E1,3.878796E1,9.006869E3,1.6618208E1,2.1820967E1,3.8645844E1,1.9335333E3,6.765047E2,1.2913567E2,5.0309018E2,5.9483784E1,9.480367E1,4.487959E1,1.7514566E2,4.9544212E1,4.8431006E3,1.1016816E2,1.0588599E1,9.762576E0,1.6537407E1,1.1608269E2,3.1334924E2,4.7331905E1,6.7263115E1,1.3565164E2,1.9647693E2,1.0001966E2,7.9806415E2,3.876394E2,3.5772833E2,1.27819496E2,4.7005356E1,1.3335565E2,1.0048062E1,1.3275803E2,2.0465157E1,1.14108536E2,4.0779077E2,2.1929631E0,2.3221746E1,2.9479723E1,3.4513727E2,7.316275E1,1.3148212E1,1.0658328E2,2.9679785E2,6.846512E1,8.7873E1,8.372796E1,2.5031075E2,3.9675885E2,9.87556E2,1.1143414E1,1.7979387E2,3.0843712E1,5.1629997E1,4.7139194E1,2.5938349E1,1.2849609E1,1.6040599E3,7.4028096E3,1.415717E1,2.4610379E0,1.9659159E0,1.9855051E1,8.887577E0,2.9758268E1,1.7588099E3,1.7472333E2,6.7148505E2,5.0196133E0,5.3971252E1,7.5164406E1],"tree_param":{"num_deleted":"0","num_feature":"768","num_nodes":"127","size_leaf_vector":"0"}},{"base_weights":[-8.930369E-3,4.6944833E-1,-3.0815175E-1,6.3107145E-1,8.7255694E-2,-3.9177456E-1,-2.6181825E-2,3.9696956E-1,7.897987E-1,-1.2040988E-1,3.3416545E-1,-2.5379512E-1,-4.6558687E-1,-2.0230262E-1,2.8430203E-1,6.1481977E-1,1.554083E-1,4.863647E-1,8.6051434E-1,1.8765204E-1,-2.1547438E-1,5.331116E-1,2.465444E-2,-4.251991E-2,-3.4337777E-1,-4.837699E-1,-2.84041E-1,-2.7856443E-2,-3.782526E-1,-1.1587616E-2,5.7370305E-1,7.1988904E-1,2.821775E-1,3.5159633E-1,-1.0167359E-1,6.744259E-1,1.6835728E-1,9.466733E-1,7.339568E-1,4.0177345E-1,-7.348243E-2,2.724049E-1,-2.6106575E-1,7.333616E-1,2.8165004E-1,3.497538E-1,-1.497375E-1,-1.9912189E-1,2.53047E-1,-4.2759782E-1,-2.2016963E-1,-4.9793375E-1,-3.1343937E-1,-3.595757E-1,9.106911E-3,-2.5064874E-1,1.7043632E-1,-1.0813783E-1,-4.338865E-1,2.5471368E-1,-2.0347144E-1,2.720294E-1,8.0114037E-1,-1.8080358E-1,7.4859726E-1,7.8970954E-2,5.7462466E-1,3.4078638E-4,4.917014E-1,-3.1493214E-1,6.483416E-2,3.376116E-2,7.627722E-1,-2.3553453E-2,6.202777E-1,1.3608968E-1,9.5591134E-1,4.403415E-1,8.1026787E-1,1.3645528E-1,6.3107306E-1,-1.5409859E-1,5.782927E-1,-8.818436E-2,6.835808E-1,-3.684949E-1,-1.1872298E-1,8.002167E-1,-8.516804E-2,5.3931993E-1,-3.9770845E-2,8.587002E-1,1.4385945E-1,-3.037403E-1,1.11952454E-1,2.0534079E-1,-2.669209E-1,8.339894E-2,6.3126034E-1,-4.813902E-1,-3.25477E-1,-2.6841393E-1,2.0907158E-1,8.535709E-1,-4.990953E-1,-3.3317015E-1,8.095898E-1,-3.9367253E-1,1.0943502E-1,-2.9016018E-1,3.256487E-1,-4.0387997E-1,-5.9455313E-2,5.9757984E-1,1.3954845E-2,-3.4053996E-1,2.2746742E-1,-2.1393844E-1,-4.7352177E-1,-3.0090591E-2,6.252714E-1,3.8060358E-1,-2.888653E-1,-6.841679E-2,4.8636296E-1,9.246257E-1,2.4827269E-1],"categories":[],"categories_nodes":[],"categories_segments":[],"categories_sizes":[],"default_left":[1,1,