{"learner":{"attributes":{"best_iteration":"29","best_ntree_limit":"30"},"feature_names":[],"feature_types":[],"gradient_booster":{"model":{"gbtree_model_param":{"num_parallel_tree":"1","num_trees":"150","size_leaf_vector":"0"},"tree_info":[0,1,2,3,4,0,1,2,3,4,0,1,2,3,4,0,1,2,3,4,0,1,2,3,4,0,1,2,3,4,0,1,2,3,4,0,1,2,3,4,0,1,2,3,4,0,1,2,3,4,0,1,2,3,4,0,1,2,3,4,0,1,2,3,4,0,1,2,3,4,0,1,2,3,4,0,1,2,3,4,0,1,2,3,4,0,1,2,3,4,0,1,2,3,4,0,1,2,3,4,0,1,2,3,4,0,1,2,3,4,0,1,2,3,4,0,1,2,3,4,0,1,2,3,4,0,1,2,3,4,0,1,2,3,4,0,1,2,3,4,0,1,2,3,4,0,1,2,3,4],"trees":[{"base_weights":[5.9074853E-2,-4.2495963E-1,2.1426515E-1,1.0824742E0,-4.4959125E-1,4.6005283E-2,5.005441E-1,1.5384614E0,8.77193E-2,-4.7072855E-1,1.111111E0,7.142857E-1,-2.0997899E-2,3.4928226E-1,1.1313868E0,9.5505613E-1,-4.921077E-1,-5.4404145E-1,9.843937E-1,-1.8389238E-1,2.0948711E-1,5.174644E-1,-1.2635379E-1,1.4060963E0,-1.452282E-1,8.77193E-2,1.4035088E0,1.1538461E0,-5.0982225E-1,-2.0737326E-1,1.3494539E0,-2.4006473E-1,7.566765E-1,1.1228533E-1,1.1323155E0,1.1997225E0,3.5815713E-1,-2.8571427E-1,9.459459E-1,1.6686113E0,-0E0,1.1538461E0,-5.472637E-1,-5.315298E-1,5.371901E-1,9.6491224E-1,-5.405405E-1,-1.459854E-1,1.6729678E0,-2.764977E-1,1.0248446E0,-1.7412935E-1,1.8012421E0,3.636769E-1,-2.4856596E-1,1.7216116E0,-1.7241378E-1,4.1076484E-1,1.8320609E0,1.1804222E0,1.9453797E-1,9.5041317E-1,-4.118689E-1,1.6279069E0,-4.3209875E-1,1.9063771E0,1.7241378E-1,-5.228758E-1,1.4035088E0],"categories":[],"categories_nodes":[],"categories_segments":[],"categories_sizes":[],"default_left":[1,1,1,1,1,1,1,0,0,1,0,1,1,1,1,1,1,0,1,1,1,1,1,1,1,0,0,0,1,1,1,1,1,1,1,1,1,1,1,1,1,0,0,0,0,0,0,0,0,0,0,0,0,0,0,0,0,0,0,0,0,0,0,0,0,0,0,0,0],"id":0,"left_children":[1,3,5,7,9,11,13,-1,-1,15,-1,17,19,21,23,25,27,-1,29,31,33,35,37,39,41,-1,-1,-1,43,45,47,49,51,53,55,57,59,61,63,65,67,-1,-1,-1,-1,-1,-1,-1,-1,-1,-1,-1,-1,-1,-1,-1,-1,-1,-1,-1,-1,-1,-1,-1,-1,-1,-1,-1,-1],"loss_changes":[6.900982E1,8.7697525E0,3.3473877E1,1.6249976E0,7.787216E0,1.9675648E1,2.4158913E1,0E0,0E0,7.1138573E0,0E0,1.4144514E1,1.505792E1,1.6784021E1,1.7500633E1,1.261581E0,6.868744E0,0E0,1.4776264E1,1.2593405E1,1.4773912E1,1.637358E1,9.737144E0,1.5015869E1,5.6661787E0,0E0,0E0,0E0,5.1447983E0,3.911697E0,1.2648743E1,1.053438E1,1.3420087E1,1.3824645E1,1.2383497E1,1.3635391E1,1.6824444E1,8.032662E0,7.657736E0,1.1866241E1,6.1644306E0,0E0,0E0,0E0,0E0,0E0,0E0,0E0,0E0,0E0,0E0,0E0,0E0,0E0,0E0,0E0,0E0,0E0,0E0,0E0,0E0,0E0,0E0,0E0,0E0,0E0,0E0,0E0,0E0],"parents":[2147483647,0,0,1,1,2,2,3,3,4,4,5,5,6,6,9,9,11,11,12,12,13,13,14,14,15,15,16,16,18,18,19,19,20,20,21,21,22,22,23,23,24,24,28,28,29,29,30,30,31,31,32,32,33,33,34,34,35,35,36,36,37,37,38,38,39,39,40,40],"right_children":[2,4,6,8,10,12,14,-1,-1,16,-1,18,20,22,24,26,28,-1,30,32,34,36,38,40,42,-1,-1,-1,44,46,48,50,52,54,56,58,60,62,64,66,68,-1,-1,-1,-1,-1,-1,-1,-1,-1,-1,-1,-1,-1,-1,-1,-1,-1,-1,-1,-1,-1,-1,-1,-1,-1,-1,-1,-1],"split_conditions":[-1.25165E-2,-8.29255E-1,6.1915E-3,3.07785E-1,1.36095E0,-5.4497004E-1,-4.33075E-1,4.6153846E-1,2.6315792E-2,-7.9432E-1,3.333333E-1,-3.56275E-1,2.89275E-1,3.34625E-1,3.60105E-1,3.1842E-1,-1.14685E0,-1.6321245E-1,-3.97425E-1,6.2664497E-1,3.52445E-1,-2.4926502E-1,2.0346001E-1,1.4026E-2,-5.0874E-1,2.6315792E-2,4.2105266E-1,3.4615386E-1,7.0218E-1,-4.1965503E-1,-7.09345E-1,2.78445E-1,1.1283E-2,-4.0566E-1,-4.49525E-4,-2.2552499E-1,-1.87695E-1,-9.8247504E-1,1.7922E-1,3.1949502E-1,5.04605E-1,3.4615386E-1,-1.6417912E-1,-1.5945894E-1,1.6115703E-1,2.8947368E-1,-1.6216215E-1,-4.379562E-2,5.0189036E-1,-8.294931E-2,3.074534E-1,-5.2238807E-2,5.4037267E-1,1.09103076E-1,-7.456979E-2,5.164835E-1,-5.1724136E-2,1.2322946E-1,5.496183E-1,3.5412666E-1,5.8361392E-2,2.8512397E-1,-1.23560674E-1,4.883721E-1,-1.2962963E-1,5.719131E-1,5.1724136E-2,-1.5686274E-1,4.2105266E-1],"split_indices":[19984,3891,11048,12,9832,6356,3484,0,0,18457,0,548,10566,7165,11008,1,11308,0,4663,122,8809,6270,14622,4127,7673,0,0,0,5181,35,1244,8455,1895,3394,6536,6369,3765,7127,5068,12939,2728,0,0,0,0,0,0,0,0,0,0,0,0,0,0,0,0,0,0,0,0,0,0,0,0,0,0,0,0],"split_type":[0,0,0,0,0,0,0,0,0,0,0,0,0,0,0,0,0,0,0,0,0,0,0,0,0,0,0,0,0,0,0,0,0,0,0,0,0,0,0,0,0,0,0,0,0,0,0,0,0,0,0,0,0,0,0,0,0,0,0,0,0,0,0,0,0,0,0,0,0],"sum_hessian":[9.1648004E2,2.2208002E2,6.944E2,2.88E0,2.1920001E2,4.3808002E2,2.5632E2,1.6000001E0,1.2800001E0,2.1696002E2,2.2400002E0,3.904E1,3.9904004E2,2.0800002E2,4.8320004E1,2.5600002E0,2.1440001E2,6.7200003E0,3.2320004E1,2.3392001E2,1.6512001E2,1.536E2,5.4400005E1,3.9680004E1,8.64E0,1.2800001E0,1.2800001E0,1.6000001E0,2.1280002E2,7.6800003E0,2.4640001E1,2.2144002E2,1.24800005E1,1.5040001E2,1.4720001E1,2.7840002E1,1.2576001E2,4.8000004E1,6.4000006E0,3.3280003E1,6.4000006E0,1.6000001E0,7.0400004E0,2.0896002E2,3.8400002E0,1.2800001E0,6.4000006E0,4.4800005E0,2.0160002E1,2.1600002E2,5.4400005E0,7.0400004E0,5.4400005E0,8.864001E1,6.1760006E1,9.920001E0,4.8E0,1.3120001E1,1.4720001E1,1.9840002E1,1.05920006E2,3.8400002E0,4.4160004E1,4.1600003E0,2.2400002E0,2.8480001E1,4.8E0,5.1200004E0,1.2800001E0],"tree_param":{"num_deleted":"0","num_feature":"40000","num_nodes":"69","size_leaf_vector":"0"}},{"base_weights":[-6.9538295E-2,1.4424514E0,-3.2726714E-1,1.2044244E0,2.0290635E0,4.3453932E-1,-4.4720238E-1,1.2924001E0,-5.109489E-1,2.23733E0,5.1724136E-1,1.8032786E0,2.5614327E-1,-4.5696536E-1,1.728395E0,5.450237E-1,1.5485182E0,-0E0,2.353706E0,-4.109589E-1,1.0824742E0,2.1698112E0,-3.8461536E-1,1.1678004E0,5.037783E-2,1.1570247E0,-4.6790406E-1,1.5207373E0,3.4013603E-2,1.7667356E0,3.5353532E-1,2.4151967E0,5.2631575E-1,1.3824885E-1,1.9477911E0,6.8376064E-1,-2.105263E-1,1.7977527E0,-3.508772E-1,9.523809E-1,-4.7611928E-1,2.0915031E0,1.12359546E-1,-3.1830236E-1,1.5168539E0,6.2231755E-1,1.9460112E0,-5.279503E-1,1.1801242E0,1.4197531E0,-5.279503E-1,8.77193E-2,2.2119815E0,-5.934718E-2,1.5384614E0,-3.2929596E-1,1.0465115E0,1.6438355E0,-3.508772E-1,1.111111E0,-4.831164E-1],"categories":[],"categories_nodes":[],"categories_segments":[],"categories_sizes":[],"default_left":[1,1,1,1,1,1,1,1,0,1,1,1,1,1,0,1,1,0,1,0,0,0,0,1,1,1,1,1,1,1,1,0,0,1,1,1,1,0,0,1,1,0,0,0,0,0,0,0,0,0,0,0,0,0,0,0,0,0,0,0,0],"id":1,"left_children":[1,3,5,7,9,11,13,15,-1,17,19,21,23,25,-1,27,29,-1,31,-1,-1,-1,-1,33,35,37,39,41,43,45,47,-1,-1,49,51,53,55,-1,-1,57,59,-1,-1,-1,-1,-1,-1,-1,-1,-1,-1,-1,-1,-1,-1,-1,-1,-1,-1,-1,-1],"loss_changes":[3.5799878E2,1.6238556E1,7.188852E1,1.539534E1,1.0543045E1,2.5723719E1,1.5200104E1,1.6988403E1,0E0,8.425629E0,3.4878187E0,1.0618149E1,1.7957075E1,1.2479675E1,0E0,1.2572815E1,1.7326538E1,0E0,2.1852417E0,0E0,0E0,0E0,0E0,1.3896357E1,1.3264975E1,5.306981E0,8.298508E0,6.7424545E0,9.698454E0,1.0680389E1,9.279125E0,0E0,0E0,8.159996E0,4.7004433E0,1.4953461E1,8.854597E0,0E0,0E0,4.3615894E0,7.968506E0,0E0,0E0,0E0,0E0,0E0,0E0,0E0,0E0,0E0,0E0,0E0,0E0,0E0,0E0,0E0,0E0,0E0,0E0,0E0,0E0],"parents":[2147483647,0,0,1,1,2,2,3,3,4,4,5,5,6,6,7,7,9,9,10,10,11,11,12,12,13,13,15,15,16,16,18,18,23,23,24,24,25,25,26,26,27,27,28,28,29,29,30,30,33,33,34,34,35,35,36,36,39,39,40,40],"right_children":[2,4,6,8,10,12,14,16,-1,18,20,22,24,26,-1,28,30,-1,32,-1,-1,-1,-1,34,36,38,40,42,44,46,48,-1,-1,50,52,54,56,-1,-1,58,60,-1,-1,-1,-1,-1,-1,-1,-1,-1,-1,-1,-1,-1,-1,-1,-1,-1,-1,-1,-1],"split_conditions":[-1.7643E-3,4.8993498E-2,-2.33745E-2,1.4381499E0,6.09125E-1,-1.4022E-1,1.0947001E0,-3.3706E-1,-1.5328467E-1,-6.61435E-1,-4.42705E-2,9.60465E-1,-1.6569501E-1,-8.65055E-1,5.185185E-1,-5.7203496E-1,5.79285E-1,-0E0,5.7057E-1,-1.2328767E-1,3.247423E-1,6.509434E-1,-1.15384616E-1,-1.19265005E-1,3.4303002E-2,-7.3085E-2,-8.6336005E-1,1.02965E-2,2.4684E-1,-1.81115E-1,7.4553505E-2,7.24559E-1,1.5789473E-1,-6.67825E-1,-1.27635E0,5.8300996E-1,5.3003997E-1,5.3932583E-1,-1.05263166E-1,5.74665E-1,-1.33015E0,6.2745094E-1,3.3707865E-2,-9.549072E-2,4.550562E-1,1.8669528E-1,5.8380336E-1,-1.583851E-1,3.5403726E-1,4.2592594E-1,-1.583851E-1,2.6315792E-2,6.635945E-1,-1.7804155E-2,4.6153846E-1,-9.878879E-2,3.1395346E-1,4.9315068E-1,-1.05263166E-1,3.333333E-1,-1.4493492E-1],"split_indices":[24855,34120,19984,14753,15711,27743,4365,19515,0,18108,636,20353,6012,12159,0,21882,1275,0,374,0,0,0,0,9371,4801,518,6959,1095,17197,10105,27812,0,0,2143,949,15680,2641,0,0,157,11287,0,0,0,0,0,0,0,0,0,0,0,0,0,0,0,0,0,0,0,0],"split_type":[0,0,0,0,0,0,0,0,0,0,0,0,0,0,0,0,0,0,0,0,0,0,0,0,0,0,0,0,0,0,0,0,0,0,0,0,0,0,0,0,0,0,0,0,0,0,0,0,0,0,0,0,0,0,0,0,0,0,0,0,0],"sum_hessian":[9.1648004E2,1.328E2,7.8368005E2,9.664001E1,3.6160004E1,1.06240005E2,6.7744006E2,9.216E1,4.4800005E0,3.1360003E1,4.8E0,1.1200001E1,9.504001E1,6.752001E2,2.2400002E0,2.4320002E1,6.7840004E1,1.6000001E0,2.9760002E1,1.9200001E0,2.88E0,9.6E0,1.6000001E0,1.6640001E1,7.840001E1,3.8400002E0,6.7136005E2,7.6800003E0,1.6640001E1,5.6960003E1,1.0880001E1,2.8480001E1,1.2800001E0,7.6800003E0,8.960001E0,2.2400002E1,5.6000004E1,2.5600002E0,1.2800001E0,3.2000003E0,6.6816003E2,5.1200004E0,2.5600002E0,1.4080001E1,2.5600002E0,8.320001E0,4.8640003E1,5.4400005E0,5.4400005E0,2.2400002E0,5.4400005E0,1.2800001E0,7.6800003E0,1.24800005E1,9.920001E0,5.1840004E1,4.1600003E0,1.9200001E0,1.2800001E0,2.2400002E0,6.6592004E2],"tree_param":{"num_deleted":"0","num_feature":"40000","num_nodes":"61","size_leaf_vector":"0"}},{"base_weights":[5.2535202E-2,-2.5111252E-1,2.1063787E-1,-3.0257598E-1,4.4303796E-1,2.977081E-1,-2.4742267E-1,-3.44557E-1,5.524079E-1,-4.7169808E-1,1.1821085E0,4.252292E-1,-7.88741E-2,1.5702479E0,-3.3920136E-1,2.4208565E-1,-3.9171922E-1,1.2903225E0,-5.279503E-1,-5.579399E-1,8.77193E-2,-2.6548672E-1,1.7777777E0,6.300568E-1,1.0121457E-1,-1.4616126E-1,1.3793103E0,1.7977527E0,5.2631575E-1,-4.3267003E-1,7.512953E-1,1.3793103E0,-1.678657E-1,1.3013698E0,-4.0936577E-1,-4.3209875E-1,1.9565216E0,-4.3209875E-1,8.77193E-2,2.162162E0,-0E0,7.109794E-1,-4.1570437E-1,4.9764995E-2,1.7256637E0,-2.576937E-1,5.4421765E-1,1.9469026E0,-3.508772E-1,-5.150433E-1,3.333333E-1,1.6666666E0,-2.6548672E-1,1.85567E0,2.739726E-1,-4.4321328E-1,1.111111E0,-4.3894652E-1,5.2631575E-1,8.6418295E-1,1.4767931E-1,-5.860349E-1,9.6491224E-1,5.863192E-1,-1.323043E-1,-3.142857E-1,1.3402061E0,1.5284973E0,-2.0146519E-1,9.6491224E-1,-5.520995E-1,1.728395E0,-3.8461536E-1,8.77193E-2,-4.3209875E-1],"categories":[],"categories_nodes":[],"categories_segments":[],"categories_sizes":[],"default_left":[1,1,1,1,1,1,1,1,1,1,1,1,1,1,1,1,1,1,0,0,0,1,1,1,1,1,1,0,0,1,1,1,1,0,1,0,0,0,0,0,0,1,1,1,0,1,1,0,0,1,1,0,1,0,0,0,0,0,0,0,0,0,0,0,0,0,0,0,0,0,0,0,0,0,0],"id":2,"left_children":[1,3,5,7,9,11,13,15,17,19,21,23,25,27,29,31,33,35,-1,-1,-1,37,39,41,43,45,47,-1,-1,49,51,53,55,-1,57,-1,-1,-1,-1,-1,-1,59,61,63,-1,65,67,-1,-1,69,71,-1,73,-1,-1,-1,-1,-1,-1,-1,-1,-1,-1,-1,-1,-1,-1,-1,-1,-1,-1,-1,-1,-1,-1],"loss_changes":[4.4098827E1,1.1372633E1,2.4158474E1,1.0724239E1,1.5511925E1,2.4423042E1,1.6714504E1,7.8516617E0,1.1937861E1,5.603409E-1,1.1267818E1,2.5126549E1,1.28901005E1,2.0331287E-1,9.82061E0,1.0245661E1,8.297211E0,1.08055E1,0E0,0E0,0E0,3.03898E-1,6.150152E0,1.9959198E1,1.2300264E1,9.728241E0,6.3789625E0,0E0,0E0,5.6258907E0,7.6277375E0,2.5455208E0,6.366541E0,0E0,7.3708763E0,0E0,0E0,0E0,0E0,0E0,0E0,1.8516525E1,4.638463E0,1.4211369E1,0E0,1.0176615E1,1.3255005E1,0E0,0E0,4.8344955E0,9.679011E0,0E0,3.03898E-1,0E0,0E0,0E0,0E0,0E0,0E0,0E0,0E0,0E0,0E0,0E0,0E0,0E0,0E0,0E0,0E0,0E0,0E0,0E0,0E0,0E0,0E0],"parents":[2147483647,0,0,1,1,2,2,3,3,4,4,5,5,6,6,7,7,8,8,9,9,10,10,11,11,12,12,13,13,14,14,15,15,16,16,17,17,21,21,22,22,23,23,24,24,25,25,26,26,29,29,30,30,31,31,32,32,34,34,41,41,42,42,43,43,45,45,46,46,49,49,50,50,52,52],"right_children":[2,4,6,8,10,12,14,16,18,20,22,24,26,28,30,32,34,36,-1,-1,-1,38,40,42,44,46,48,-1,-1,50,52,54,56,-1,58,-1,-1,-1,-1,-1,-1,60,62,64,-1,66,68,-1,-1,70,72,-1,74,-1,-1,-1,-1,-1,-1,-1,-1,-1,-1,-1,-1,-1,-1,-1,-1,-1,-1,-1,-1,-1,-1],"split_conditions":[-2.50905E-2,5.73215E-1,2.24365E-1,5.5353E-1,-1.3593501E-1,3.37675E-1,-6.0887504E-1,-6.63375E-1,2.8045E-1,5.42655E-1,8.6987495E-1,1.72435E-1,6.7072E-1,5.63025E-1,4.9400002E-1,-3.3102E-1,-8.4035003E-1,-2.35525E-1,-1.583851E-1,-1.6738197E-1,2.6315792E-2,4.0183E-1,7.5083005E-1,1.06035E-1,8.1485E-1,3.88265E-1,4.5899498E-1,5.3932583E-1,1.5789473E-1,3.21095E-1,-2.1218E0,2.3344E-1,6.0614E-1,3.9041096E-1,6.9968E-1,-1.2962963E-1,5.869565E-1,-1.2962963E-1,2.6315792E-2,6.486486E-1,-0E0,4.28755E-1,5.29655E-1,-1.3141999E-1,5.176991E-1,6.8743E-1,-2.48505E-1,5.840708E-1,-1.05263166E-1,-5.97485E-1,-3.6682498E-1,5E-1,-2.2727E-1,5.56701E-1,8.219178E-2,-1.3296399E-1,3.333333E-1,-1.3168396E-1,1.5789473E-1,2.592549E-1,4.4303797E-2,-1.7581047E-1,2.8947368E-1,1.7589577E-1,-3.969129E-2,-9.428571E-2,4.0206185E-1,4.5854923E-1,-6.043956E-2,2.8947368E-1,-1.6562986E-1,5.185185E-1,-1.15384616E-1,2.6315792E-2,-1.2962963E-1],"split_indices":[16126,9683,5940,6922,450,7732,7748,5606,10724,1,7158,1432,5496,1,7050,2876,9710,781,0,0,0,1,2338,14871,3674,5247,57,0,0,87,10355,1468,10213,0,1486,0,0,0,0,0,0,1035,1337,6932,0,11381,8041,0,0,11635,6546,0,0,0,0,0,0,0,0,0,0,0,0,0,0,0,0,0,0,0,0,0,0,0,0],"split_type":[0,0,0,0,0,0,0,0,0,0,0,0,0,0,0,0,0,0,0,0,0,0,0,0,0,0,0,0,0,0,0,0,0,0,0,0,0,0,0,0,0,0,0,0,0,0,0,0,0,0,0,0,0,0,0,0,0,0,0,0,0,0,0,0,0,0,0,0,0,0,0,0,0,0,0],"sum_hessian":[9.1648004E2,3.1360004E2,6.0288007E2,2.9248E2,2.112E1,5.0688004E2,9.600001E1,2.7936002E2,1.3120001E1,9.6E0,1.152E1,3.7856003E2,1.2832E2,3.8400002E0,9.216E1,2.0480001E1,2.5888E2,7.6800003E0,5.4400005E0,8.320001E0,1.2800001E0,3.5200002E0,8.000001E0,2.3136002E2,1.4720001E2,1.2352001E2,4.8E0,2.5600002E0,1.2800001E0,8.544E1,6.7200003E0,4.8E0,1.5680001E1,1.9200001E0,2.5696002E2,2.2400002E0,5.4400005E0,2.2400002E0,1.2800001E0,6.4000006E0,1.6000001E0,2.1504001E2,1.6320002E1,1.4368001E2,3.5200002E0,1.06880005E2,1.6640001E1,3.5200002E0,1.2800001E0,7.744E1,8.000001E0,3.2000003E0,3.5200002E0,2.88E0,1.9200001E0,1.3440001E1,2.2400002E0,2.4960002E2,7.3600006E0,1.6864001E2,4.64E1,1.5040001E1,1.2800001E0,3.5840004E1,1.07840004E2,1.0400001E2,2.88E0,6.7200003E0,9.920001E0,1.2800001E0,7.616E1,2.2400002E0,5.76E0,1.2800001E0,2.2400002E0],"tree_param":{"num_deleted":"0","num_feature":"40000","num_nodes":"75","size_leaf_vector":"0"}},{"base_weights":[-3.0518374E-3,2.1473207E-1,-1.0912505E-1,9.0847336E-2,6.517803E-1,-1.3738298E-1,5.7536465E-1,3.8386002E-2,1.0223641E0,3.0997303E-1,1.2917398E0,-1.7902718E-1,3.5745046E-1,1.2928349E0,-1.8691587E-1,-1.3282731E-1,3.639649E-1,-4.7619045E-1,1.5879828E0,1.3070539E0,3.3444814E-2,1.6666666E0,-3.1007752E-1,1.1971567E-1,-2.5079077E-1,9.149623E-2,1.2840466E0,1.6981131E0,-4.3209875E-1,1.1538461E0,-4.8042703E-1,5.6581986E-1,-2.2401705E-1,2.148997E-1,1.5207373E0,-3.508772E-1,1.9402984E0,1.8644067E0,-1.6853932E-1,1.2068965E0,-1.8661518E-1,1.7699115E-1,2.0026524E0,-4.639175E-1,8.77193E-2,9.6881956E-1,-5.1133834E-2,-2.6522413E-1,9.4890505E-1,9.9999994E-1,-1.9204389E-1,-4.3209875E-1,1.8159204E0,1.8518518E-1,2.0813396E0,-5.6224895E-1,8.77193E-2,-5.325444E-1,1.1591694E0,-3.115628E-1,6.557377E-1,1.3513513E0,7.886435E-2,-3.8461536E-1,2.0056496E0,2.1301775E0,5.2631575E-1,2.0689654E0,5.2631575E-1,8.77193E-2,-3.508772E-1,-3.508772E-1,1.7256637E0,1.1570247E0,-4.1850218E-1,9.6491224E-1,-4.3209875E-1,2.2340424E0,2.739726E-1,-1.554404E-1,1.6548042E0,-1.9979766E-1,9.427609E-1,1.0619469E0,-2.7841693E-1,-3.8461536E-1,1.5979381E0,1.5384614E0,-4.3209875E-1,1.0619469E0,-4.056162E-1,2.1301775E0,8.77193E-2],"categories":[],"categories_nodes":[],"categories_segments":[],"categories_sizes":[],"default_left":[1,1,1,1,1,1,1,1,1,1,1,1,1,1,1,1,1,0,1,1,1,1,1,1,1,1,1,1,0,0,1,1,1,1,1,0,1,1,1,1,1,1,1,0,0,1,1,1,1,1,1,0,1,0,0,0,0,0,0,0,0,0,0,0,0,0,0,0,0,0,0,0,0,0,0,0,0,0,0,0,0,0,0,0,0,0,0,0,0,0,0,0,0],"id":3,"left_children":[1,3,5,7,9,11,13,15,17,19,21,23,25,27,29,31,33,-1,35,37,39,41,43,45,47,49,51,53,-1,-1,55,57,59,61,63,-1,65,67,69,71,73,75,77,-1,-1,79,81,83,85,87,89,-1,91,-1,-1,-1,-1,-1,-1,-1,-1,-1,-1,-1,-1,-1,-1,-1,-1,-1,-1,-1,-1,-1,-1,-1,-1,-1,-1,-1,-1,-1,-1,-1,-1,-1,-1,-1,-1,-1,-1,-1,-1],"loss_changes":[2.1218176E1,1.6229351E1,1.20255995E1,1.1472249E1,1.4097866E1,1.2303698E1,1.3739479E1,1.2537106E1,1.1368264E1,1.2231386E1,1.4185638E1,1.1789663E1,1.1326824E1,9.709917E0,5.6072464E0,9.52772E0,1.3033418E1,0E0,7.0472107E0,8.242413E0,9.49051E0,8.955036E0,3.5647136E-1,1.5560315E1,7.915575E0,9.764358E0,1.0167959E1,5.7603836E0,0E0,0E0,5.7183194E-1,1.1904997E1,1.0312248E1,1.0684339E1,8.791107E0,0E0,1.0374794E0,8.489952E-1,1.9712201E-1,5.2926016E0,1.0167895E1,2.586152E0,5.419918E0,0E0,0E0,1.4108429E1,1.348051E1,7.9667454E0,5.357526E0,7.6049395E0,8.240308E0,0E0,4.1796627E0,0E0,0E0,0E0,0E0,0E0,0E0,0E0,0E0,0E0,0E0,0E0,0E0,0E0,0E0,0E0,0E0,0E0,0E0,0E0,0E0,0E0,0E0,0E0,0E0,0E0,0E0,0E0,0E0,0E0,0E0,0E0,0E0,0E0,0E0,0E0,0E0,0E0,0E0,0E0,0E0],"parents":[2147483647,0,0,1,1,2,2,3,3,4,4,5,5,6,6,7,7,8,8,9,9,10,10,11,11,12,12,13,13,14,14,15,15,16,16,18,18,19,19,20,20,21,21,22,22,23,23,24,24,25,25,26,26,27,27,30,30,31,31,32,32,33,33,34,34,36,36,37,37,38,38,39,39,40,40,41,41,42,42,45,45,46,46,47,47,48,48,49,49,50,50,52,52],"right_children":[2,4,6,8,10,12,14,16,18,20,22,24,26,28,30,32,34,-1,36,38,40,42,44,46,48,50,52,54,-1,-1,56,58,60,62,64,-1,66,68,70,72,74,76,78,-1,-1,80,82,84,86,88,90,-1,92,-1,-1,-1,-1,-1,-1,-1,-1,-1,-1,-1,-1,-1,-1,-1,-1,-1,-1,-1,-1,-1,-1,-1,-1,-1,-1,-1,-1,-1,-1,-1,-1,-1,-1,-1,-1,-1,-1,-1,-1],"split_conditions":[-8.0634E-2,3.735E-1,1.0599E0,9.755E-1,5.59255E-1,5.81025E-1,7.4052E-1,9.80785E-1,-2.2483501E-1,-3.8016E-1,1.35985E-1,-5.4836E-1,8.12505E-2,1.8737E-1,-9.61095E-1,-9.25845E-1,4.48775E-1,-1.4285713E-1,-3.75315E-1,-7.2676E-1,-4.9201E-1,-1.90945E-1,4.3234998E-1,-5.3652E-1,6.1256003E-1,-6.1830497E-1,-1.8209E-1,-2.7777E-1,-1.2962963E-1,3.4615386E-1,-2.2703E-2,-2.4275498E0,1.8399E-1,-5.9138E-1,-1.87995E-1,-1.05263166E-1,6.75165E-1,3.97415E-1,-1.53845E-2,-1.6928E-1,-5.145E-1,-1.895E-1,4.3344998E-1,-1.3917525E-1,2.6315792E-2,-2.39035E-2,3.40145E-1,-1.19495E0,1.7284E-1,4.87555E-1,-1.23375E0,-1.2962963E-1,1.4519E-1,5.5555556E-2,6.244019E-1,-1.6867469E-1,2.6315792E-2,-1.5976332E-1,3.4775084E-1,-9.3468845E-2,1.9672132E-1,4.054054E-1,2.3659306E-2,-1.15384616E-1,6.016949E-1,6.390533E-1,1.5789473E-1,6.2068963E-1,1.5789473E-1,2.6315792E-2,-1.05263166E-1,-1.05263166E-1,5.176991E-1,3.4710744E-1,-1.2555066E-1,2.8947368E-1,-1.2962963E-1,6.7021275E-1,8.219178E-2,-4.6632122E-2,4.9644127E-1,-5.99393E-2,2.8282827E-1,3.1858408E-1,-8.3525084E-2,-1.15384616E-1,4.7938144E-1,4.6153846E-1,-1.2962963E-1,3.1858408E-1,-1.21684864E-1,6.390533E-1,2.6315792E-2],"split_indices":[11893,13537,2719,15266,7831,12775,7961,7261,6134,19894,18854,1704,14736,2173,4878,13127,7140,0,4845,13684,1787,8314,0,14662,22535,9682,21171,2142,0,0,3,8255,21254,10393,2600,0,56,10,0,105,1189,403,11189,0,0,18088,4836,1985,1135,1501,2049,0,4162,0,0,0,0,0,0,0,0,0,0,0,0,0,0,0,0,0,0,0,0,0,0,0,0,0,0,0,0,0,0,0,0,0,0,0,0,0,0,0,0],"split_type":[0,0,0,0,0,0,0,0,0,0,0,0,0,0,0,0,0,0,0,0,0,0,0,0,0,0,0,0,0,0,0,0,0,0,0,0,0,0,0,0,0,0,0,0,0,0,0,0,0,0,0,0,0,0,0,0,0,0,0,0,0,0,0,0,0,0,0,0,0,0,0,0,0,0,0,0,0,0,0,0,0,0,0,0,0,0,0,0,0,0,0,0,0],"sum_hessian":[9.1648004E2,2.9984003E2,6.1664E2,2.3456001E2,6.528001E1,5.9296E2,2.3680002E1,2.2304001E2,1.152E1,4.3520004E1,2.1760002E1,5.4752E2,4.5440002E1,1.1840001E1,1.1840001E1,1.4656001E2,7.648E1,3.2000003E0,8.320001E0,8.64E0,3.488E1,1.76E1,4.1600003E0,1.05920006E2,4.4160004E2,3.6160004E1,9.280001E0,9.6E0,2.2400002E0,1.6000001E0,1.0240001E1,1.6320002E1,1.3024E2,6.88E1,7.6800003E0,1.2800001E0,7.0400004E0,6.0800004E0,2.5600002E0,4.8E0,3.0080002E1,3.5200002E0,1.4080001E1,2.88E0,1.2800001E0,1.6960001E1,8.896001E1,4.3712003E2,4.4800005E0,8.000001E0,2.8160002E1,2.2400002E0,7.0400004E0,2.2400002E0,7.3600006E0,8.960001E0,1.2800001E0,5.76E0,1.056E1,1.1904001E2,1.1200001E1,6.4000006E0,6.2400005E1,1.6000001E0,6.0800004E0,5.76E0,1.2800001E0,4.8E0,1.2800001E0,1.2800001E0,1.2800001E0,1.2800001E0,3.5200002E0,3.8400002E0,2.6240002E1,1.2800001E0,2.2400002E0,1.2160001E1,1.9200001E0,6.7200003E0,1.0240001E1,7.808E1,1.0880001E1,3.5200002E0,4.3360004E2,1.6000001E0,2.88E0,5.76E0,2.2400002E0,3.5200002E0,2.4640001E1,5.76E0,1.2800001E0],"tree_param":{"num_deleted":"0","num_feature":"40000","num_nodes":"93","size_leaf_vector":"0"}},{"base_weights":[-3.9019924E-2,-4.7845748E-1,5.9431795E-2,-5.064056E-1,9.5505613E-1,-2.1093285E-1,1.5869549E-1,-5.2946925E-1,9.589041E-1,1.4035088E0,8.77193E-2,-2.5906736E-1,7.4297184E-1,-3.4470566E-2,2.9302898E-1,9.6491224E-1,-5.4720235E-1,-3.2928747E-1,5.361596E-1,-3.1007752E-1,1.5517241E0,-1.3360739E-1,5.569155E-1,2.3075895E-1,1.0189573E0,-5.650983E-1,7.692307E-1,-3.786982E-1,5.421687E-1,-2.2222221E-1,1.3184079E0,8.77193E-2,-4.639175E-1,1.9469026E0,8.77193E-2,-2.0490879E-1,5.7906455E-1,-2.4590163E-1,9.869646E-1,-1.0716152E-1,3.4498125E-1,1.5439093E0,3.2786885E-1,7.692307E-1,-5.8335423E-1,-4.2435423E-1,6.7567563E-1,-3.4482756E-1,1.4341085E0,-5.405405E-1,7.692307E-1,1.8217053E0,3.0927834E-1,9.467455E-1,-2.4901092E-1,1.2660943E0,-1.452282E-1,9.589041E-1,-5.642023E-1,1.4730878E0,4.7846887E-2,1.1313868E0,-1.9988894E-1,2.7751195E-1,1.185819E0,1.9649805E0,3.305785E-1,-2.7027026E-1,1.0344827E0],"categories":[],"categories_nodes":[],"categories_segments":[],"categories_sizes":[],"default_left":[1,1,1,1,1,1,1,1,0,0,0,1,1,1,1,0,1,1,1,1,1,1,1,1,1,1,0,1,1,1,1,0,0,0,0,1,1,1,1,1,1,1,1,0,0,0,0,0,0,0,0,0,0,0,0,0,0,0,0,0,0,0,0,0,0,0,0,0,0],"id":4,"left_children":[1,3,5,7,9,11,13,15,-1,-1,-1,17,19,21,23,-1,25,27,29,31,33,35,37,39,41,43,-1,45,47,49,51,-1,-1,-1,-1,53,55,57,59,61,63,65,67,-1,-1,-1,-1,-1,-1,-1,-1,-1,-1,-1,-1,-1,-1,-1,-1,-1,-1,-1,-1,-1,-1,-1,-1,-1,-1],"loss_changes":[3.972173E1,7.2159996E0,2.0173328E1,6.1001816E0,1.261581E0,9.465619E0,1.4268378E1,4.862335E0,0E0,0E0,0E0,1.0953852E1,8.96365E0,1.3340784E1,1.4419865E1,0E0,4.25782E0,7.868149E0,9.808595E0,3.5647136E-1,3.1847687E0,1.0007159E1,1.1525492E1,1.1611755E1,8.679598E0,4.3628006E0,0E0,8.422136E0,8.374348E0,3.256179E0,3.5200405E0,0E0,0E0,0E0,0E0,9.258159E0,9.120962E0,5.2196E0,9.735716E0,9.014275E0,1.2399033E1,6.564308E0,5.4359617E0,0E0,0E0,0E0,0E0,0E0,0E0,0E0,0E0,0E0,0E0,0E0,0E0,0E0,0E0,0E0,0E0,0E0,0E0,0E0,0E0,0E0,0E0,0E0,0E0,0E0,0E0],"parents":[2147483647,0,0,1,1,2,2,3,3,4,4,5,5,6,6,7,7,11,11,12,12,13,13,14,14,16,16,17,17,18,18,19,19,20,20,21,21,22,22,23,23,24,24,25,25,27,27,28,28,29,29,30,30,35,35,36,36,37,37,38,38,39,39,40,40,41,41,42,42],"right_children":[2,4,6,8,10,12,14,16,-1,-1,-1,18,20,22,24,-1,26,28,30,32,34,36,38,40,42,44,-1,46,48,50,52,-1,-1,-1,-1,54,56,58,60,62,64,66,68,-1,-1,-1,-1,-1,-1,-1,-1,-1,-1,-1,-1,-1,-1,-1,-1,-1,-1,-1,-1,-1,-1,-1,-1,-1,-1],"split_conditions":[-5.179E-3,8.4441E-1,-4.7887498E-1,1.08605E0,-1.21711E-1,4.33945E-1,-4.1930002E-1,-9.5862997E-1,2.8767124E-1,4.2105266E-1,2.6315792E-2,9.03455E-1,-1.7078E-2,4.3776E-1,6.37925E-1,2.8947368E-1,1.02775E0,8.04605E-1,-7.4397504E-2,1.167195E-1,4.8444504E-1,3.2525998E-1,-8.71435E-1,-5.1283002E-2,-2.7156502E-1,-1.4396E0,2.3076923E-1,7.78865E-1,1.9913E-1,4.3001503E-1,-3.83425E-2,2.6315792E-2,-1.3917525E-1,5.840708E-1,2.6315792E-2,-1.9900501E0,1.3046551E-2,-1.939E-1,2.6208E-1,-1.44685E-1,8.3535004E-1,2.3076999E-1,1.4617E-1,2.3076923E-1,-1.7500627E-1,-1.2730627E-1,2.027027E-1,-1.0344827E-1,4.3023255E-1,-1.6216215E-1,2.3076923E-1,5.4651165E-1,9.27835E-2,2.8402367E-1,-7.4703276E-2,3.798283E-1,-4.3568462E-2,2.8767124E-1,-1.692607E-1,4.4192636E-1,1.4354067E-2,3.3941603E-1,-5.9966687E-2,8.325359E-2,3.5574573E-1,5.8949417E-1,9.917355E-2,-8.108108E-2,3.1034482E-1],"split_indices":[22555,10001,12343,20744,0,11843,9827,17305,0,0,0,3367,11892,9193,8137,0,3287,11810,7854,2,563,2509,2149,8024,7678,11297,0,13710,3437,44,329,0,0,0,0,684,8338,12337,9474,7066,8802,7847,5472,0,0,0,0,0,0,0,0,0,0,0,0,0,0,0,0,0,0,0,0,0,0,0,0,0,0],"split_type":[0,0,0,0,0,0,0,0,0,0,0,0,0,0,0,0,0,0,0,0,0,0,0,0,0,0,0,0,0,0,0,0,0,0,0,0,0,0,0,0,0,0,0,0,0,0,0,0,0,0,0,0,0,0,0,0,0,0,0,0,0,0,0,0,0,0,0,0,0],"sum_hessian":[9.1648004E2,1.6704001E2,7.4944006E2,1.6448001E2,2.5600002E0,2.0096E2,5.4848004E2,1.6256001E2,1.9200001E0,1.2800001E0,1.2800001E0,1.9200002E2,8.960001E0,2.2528001E2,3.232E2,1.2800001E0,1.6128001E2,1.7696E2,1.5040001E1,4.1600003E0,4.8E0,1.936E2,3.1680002E1,2.9888004E2,2.4320002E1,1.5968001E2,1.6000001E0,1.6800002E2,8.960001E0,8.000001E0,7.0400004E0,1.2800001E0,2.88E0,3.5200002E0,1.2800001E0,1.7664001E2,1.6960001E1,1.1200001E1,2.0480001E1,7.5520004E1,2.2336002E2,1.3120001E1,1.1200001E1,1.6000001E0,1.5808002E2,1.616E2,6.4000006E0,4.8E0,4.1600003E0,6.4000006E0,1.6000001E0,4.1600003E0,2.88E0,5.76E0,1.7088E2,8.320001E0,8.64E0,1.9200001E0,9.280001E0,1.3120001E1,7.3600006E0,4.4800005E0,7.104001E1,2.0800002E2,1.5360001E1,9.280001E0,3.8400002E0,6.4000006E0,4.8E0],"tree_param":{"num_deleted":"0","num_feature":"40000","num_nodes":"69","size_leaf_vector":"0"}},{"base_weights":[4.7916222E-2,-3.783808E-1,1.6368829E-1,-4.1633445E-1,5.038853E-1,4.5231737E-2,4.2013374E-1,1.6134067E-1,-4.8664552E-1,1.4421085E0,-4.8029432E-1,3.1892592E-1,-8.88216E-2,5.2477634E-1,-1.5013508E-1,1.4940457E0,-1.8410279E-1,-5.0355667E-1,1.1625798E0,4.722764E-1,1.700474E0,5.346116E-1,-1.20173E-1,-1.8302104E-1,3.130466E-1,1.0127298E0,3.8119408E-1,-4.0916467E-1,8.76805E-1,1.2497191E0,-3.8673624E-1,-5.2587956E-1,6.944883E-1,7.4226123E-1,-1.4528414E-2,1.1672457E0,-2.3688915E-1,8.6795974E-1,-2.2136389E-1,8.712793E-1,8.031943E-3,-2.4155138E-1,1.2113624E0,4.7773764E-2,6.415382E-1,9.191003E-1,-5.3449136E-1,1.4776149E0,-4.2491525E-1,1.0214764E0,-5.6171715E-1,-5.432316E-1,9.1839576E-1,3.9118767E-2,1.1548293E0,1.2067839E0,4.2346668E-1,-4.507597E-1,5.9736437E-1,1.1567565E-1,1.45862E0,4.229672E-1,-4.4259647E-1,-2.4574356E-1,1.4922056E0,-2.8561854E-1,2.8419468E-1,-1.1329826E-1,1.208323E0,6.565963E-1,-3.599693E-1,-5.132013E-1,6.235941E-1,1.5018388E0,2.4028292E-1,5.448048E-1,-2.5086728E-1,9.9568444E-1,1.6771981E-1,-6.039758E-1,5.9712917E-1],"categories":[],"categories_nodes":[],"categories_segments":[],"categories_sizes":[],"default_left":[1,1,1,1,1,1,1,1,1,1,0,1,1,1,1,0,1,1,0,0,0,1,1,1,1,1,1,1,1,0,1,1,1,1,1,1,1,1,1,1,1,1,1,1,1,0,1,0,0,0,0,0,0,0,0,0,0,0,0,0,0,0,0,0,0,0,0,0,0,0,0,0,0,0,0,0,0,0,0,0,0],"id":5,"left_children":[1,3,5,7,9,11,13,15,17,19,-1,21,23,25,27,-1,29,31,-1,-1,-1,33,35,37,39,41,43,45,47,-1,49,51,53,55,57,59,61,63,65,67,69,71,73,75,77,-1,79,-1,-1,-1,-1,-1,-1,-1,-1,-1,-1,-1,-1,-1,-1,-1,-1,-1,-1,-1,-1,-1,-1,-1,-1,-1,-1,-1,-1,-1,-1,-1,-1,-1,-1],"loss_changes":[4.538808E1,6.7879257E0,2.1942596E1,7.750824E0,8.591967E0,1.8213327E1,1.3702946E1,1.0056801E1,5.2890244E0,3.5692406E-1,0E0,1.5517509E1,1.2681271E1,1.31451E1,9.981843E0,0E0,5.644451E0,4.8483734E0,0E0,0E0,0E0,1.2508844E1,8.475451E0,1.1104012E1,1.0838024E1,1.1081875E1,1.3061703E1,5.413838E0,6.5756307E0,0E0,4.597169E0,4.6373825E0,1.0099237E0,1.1269333E1,8.558499E0,1.2726579E0,7.090783E0,7.1343074E0,8.593662E0,7.6020184E0,1.0307778E1,1.9073868E0,1.0231541E1,1.0113271E1,1.4031338E1,0E0,2.5350575E0,0E0,0E0,0E0,0E0,0E0,0E0,0E0,0E0,0E0,0E0,0E0,0E0,0E0,0E0,0E0,0E0,0E0,0E0,0E0,0E0,0E0,0E0,0E0,0E0,0E0,0E0,0E0,0E0,0E0,0E0,0E0,0E0,0E0,0E0],"parents":[2147483647,0,0,1,1,2,2,3,3,4,4,5,5,6,6,7,7,8,8,9,9,11,11,12,12,13,13,14,14,16,16,17,17,21,21,22,22,23,23,24,24,25,25,26,26,27,27,28,28,30,30,31,31,32,32,33,33,34,34,35,35,36,36,37,37,38,38,39,39,40,40,41,41,42,42,43,43,44,44,46,46],"right_children":[2,4,6,8,10,12,14,16,18,20,-1,22,24,26,28,-1,30,32,-1,-1,-1,34,36,38,40,42,44,46,48,-1,50,52,54,56,58,60,62,64,66,68,70,72,74,76,78,-1,80,-1,-1,-1,-1,-1,-1,-1,-1,-1,-1,-1,-1,-1,-1,-1,-1,-1,-1,-1,-1,-1,-1,-1,-1,-1,-1,-1,-1,-1,-1,-1,-1,-1,-1],"split_conditions":[-1.25165E-2,8.16205E-1,2.1416E-1,-2.6589E0,-3.05725E-1,-6.8402E-2,4.1751E-1,8.34355E-2,8.9603996E-1,-2.15345E-1,-1.440883E-1,1.9927E-1,3.8590002E-1,-3.1463E-1,1.05423495E-1,4.4821373E-1,-4.67085E-1,1.2630501E0,3.4877396E-1,1.4168292E-1,5.101422E-1,2.00495E-1,-1.7984E-1,-1.4107001E0,-5.6173503E-1,1.12985E-1,-1.2569499E-1,-1.06245E0,6.7260996E-2,3.7491575E-1,-3.0215E0,9.07385E-1,6.21235E-1,1.44405E-1,1.46135E-3,7.69615E-2,-6.9920003E-1,-2.47575E-1,3.77195E-1,-2.09845E-1,-6.24695E-1,8.3886003E-1,1.09616E-1,4.39175E-1,-3.19175E-1,2.757301E-1,9.5122504E-1,4.4328448E-1,-1.2747458E-1,3.0644292E-1,-1.6851515E-1,-1.6296948E-1,2.7551875E-1,1.173563E-2,3.4644878E-1,3.6203519E-1,1.2704001E-1,-1.3522792E-1,1.7920932E-1,3.4702696E-2,4.37586E-1,1.2689017E-1,-1.3277894E-1,-7.372307E-2,4.476617E-1,-8.5685566E-2,8.525841E-2,-3.3989478E-2,3.624969E-1,1.969789E-1,-1.07990794E-1,-1.5396039E-1,1.8707824E-1,4.5055166E-1,7.208488E-2,1.6344145E-1,-7.5260185E-2,2.9870534E-1,5.0315946E-2,-1.8119274E-1,1.7913875E-1],"split_indices":[19984,19193,10807,14455,2351,10356,1656,4764,4297,130,0,508,12498,646,7939,0,17245,21425,0,0,0,6492,866,5349,5927,9361,10476,7527,5108,0,3655,872,1,7428,8548,2,7443,8471,1268,163,5794,619,5387,5464,8178,0,1367,0,0,0,0,0,0,0,0,0,0,0,0,0,0,0,0,0,0,0,0,0,0,0,0,0,0,0,0,0,0,0,0,0,0],"split_type":[0,0,0,0,0,0,0,0,0,0,0,0,0,0,0,0,0,0,0,0,0,0,0,0,0,0,0,0,0,0,0,0,0,0,0,0,0,0,0,0,0,0,0,0,0,0,0,0,0,0,0,0,0,0,0,0,0,0,0,0,0,0,0,0,0,0,0,0,0,0,0,0,0,0,0,0,0,0,0,0,0],"sum_hessian":[9.174017E2,1.9544904E2,7.2195264E2,1.8789424E2,7.5547976E0,4.9464432E2,2.2730832E2,2.0247374E1,1.6764687E2,3.6294937E0,3.925304E0,1.6216861E2,3.324757E2,1.9213239E2,3.517594E1,3.4834347E0,1.6763939E1,1.6663289E2,1.0139781E0,1.3583953E0,2.2710984E0,1.0860449E2,5.3564114E1,2.697823E2,6.269342E1,4.230586E1,1.4982652E2,2.8570938E1,6.605004E0,1.4359386E0,1.5328E1,1.6413564E2,2.4972546E0,7.855016E1,3.0054327E1,3.704251E0,4.9859863E1,8.734416E0,2.6104788E2,2.149575E1,4.1197674E1,5.754234E0,3.6551624E1,6.621241E1,8.361411E1,1.9172698E0,2.6653667E1,4.4267225E0,2.1782813E0,1.1594363E0,1.4168564E1,1.6280353E2,1.3321068E0,1.4780254E0,1.0192292E0,3.0834726E1,4.7715435E1,1.769939E1,1.2354936E1,1.1068016E0,2.5974493E0,1.1598544E1,3.826132E1,3.355061E0,5.3793545E0,2.3199695E2,2.905092E1,5.651205E0,1.5844544E1,1.4629847E1,2.6567825E1,4.688789E0,1.065445E0,2.7714802E1,8.836821E0,2.4542246E1,4.1670162E1,4.7219456E1,3.6394657E1,2.5551043E1,1.1026253E0],"tree_param":{"num_deleted":"0","num_feature":"40000","num_nodes":"81","size_leaf_vector":"0"}},{"base_weights":[-6.564196E-2,9.0923244E-1,-2.9359162E-1,9.8240876E-1,2.0893155E-1,3.1308043E-1,-4.0875944E-1,1.0588732E0,3.0174166E-1,9.1532797E-1,-4.093496E-1,8.4155947E-1,9.151495E-2,7.433415E-1,-4.256506E-1,-5.0165553E-2,1.1001906E0,1.044681E0,-2.945701E-1,-3.479195E-1,1.1886965E0,-5.858394E-1,4.0159574E-1,1.0176059E0,-4.8624438E-1,-9.328358E-2,8.892945E-1,-4.7337565E-1,1.6373616E0,8.571391E-1,-4.3880728E-1,5.771995E-1,-4.6988896E-1,-4.294747E-1,1.1267024E0,1.1932986E0,1.0222991E-1,-5.629255E-1,8.25224E-1,1.1827179E0,-2.6893255E-1,9.0872014E-1,-2.3398064E-1,-4.434136E-1,1.1727076E0,-3.9829016E-1,1.493931E0,1.1168836E0,-4.4650966E-1,1.1630951E0,2.9796578E-2,-4.1887164E-1,1.3239595E0,6.4265564E-2,-4.164636E-1,-3.7157333E-1,1.2358118E0,-3.49566E-1,6.8288815E-1,1.4098798E0,-3.7547845E-1,1.4683847E0,1.6989486E-1,-4.5567346E-1,8.956138E-1],"categories":[],"categories_nodes":[],"categories_segments":[],"categories_sizes":[],"default_left":[1,1,1,1,1,1,1,1,1,1,1,1,1,1,1,1,1,1,1,0,0,0,0,1,0,1,1,0,0,1,1,0,0,0,1,0,0,0,0,1,1,1,1,0,1,0,0,1,1,0,0,0,0,0,0,0,0,0,0,0,0,0,0,0,0],"id":6,"left_children":[1,3,5,7,9,11,13,15,17,19,21,23,25,27,29,31,33,35,37,-1,-1,-1,-1,39,-1,41,43,-1,-1,45,47,-1,-1,-1,49,-1,-1,-1,-1,51,53,55,57,-1,59,-1,-1,61,63,-1,-1,-1,-1,-1,-1,-1,-1,-1,-1,-1,-1,-1,-1,-1,-1],"loss_changes":[1.9844028E2,8.4678955E0,5.0680565E1,7.6418304E0,7.9226627E0,1.3506231E1,1.2158539E1,6.338318E0,7.771265E0,3.305821E0,1.6531681E0,8.476604E0,1.2298617E1,1.0735727E1,1.0508766E1,1.8198774E0,5.8466797E0,9.5946693E-1,3.507338E0,0E0,0E0,0E0,0E0,6.7910404E0,0E0,9.824528E0,6.4418764E0,0E0,0E0,5.7384124E0,7.627556E0,0E0,0E0,0E0,5.1652374E0,0E0,0E0,0E0,0E0,6.7055664E0,2.3718902E-1,4.060439E0,6.658799E0,0E0,5.377487E0,0E0,0E0,8.2126E-1,7.697937E0,0E0,0E0,0E0,0E0,0E0,0E0,0E0,0E0,0E0,0E0,0E0,0E0,0E0,0E0,0E0,0E0],"parents":[2147483647,0,0,1,1,2,2,3,3,4,4,5,5,6,6,7,7,8,8,9,9,10,10,11,11,12,12,13,13,14,14,15,15,16,16,17,17,18,18,23,23,25,25,26,26,29,29,30,30,34,34,39,39,40,40,41,41,42,42,44,44,47,47,48,48],"right_children":[2,4,6,8,10,12,14,16,18,20,22,24,26,28,30,32,34,36,38,-1,-1,-1,-1,40,-1,42,44,-1,-1,46,48,-1,-1,-1,50,-1,-1,-1,-1,52,54,56,58,-1,60,-1,-1,62,64,-1,-1,-1,-1,-1,-1,-1,-1,-1,-1,-1,-1,-1,-1,-1,-1],"split_conditions":[-1.7643E-3,7.4467504E-1,-2.33745E-2,7.80515E-1,6.0459998E-2,2.5948E-3,-1.1166501E0,-1.00369E0,-2.34505E-1,1.8755999E-1,3.8924497E-1,5.9774E-1,2.71155E-1,-3.07945E-1,-8.37825E-1,-5.8426E-1,-8.03825E-1,-8.02095E-2,5.83955E-1,-1.04375854E-1,3.5660896E-1,-1.7575182E-1,1.2047873E-1,4.57155E-1,-1.4587332E-1,9.557E-3,-3.1397998E-1,-1.420127E-1,4.9120852E-1,-1.4352649E-2,-5.6551504E-1,1.7315987E-1,-1.409667E-1,-1.2884241E-1,8.26105E-1,3.5798958E-1,3.0668974E-2,-1.6887766E-1,2.475672E-1,-7.8408504E-1,3.41135E-2,-2.7481002E-1,7.4329996E-1,-1.3302408E-1,6.2343E-1,-1.19487055E-1,4.4817933E-1,-2.0375E0,1.26955E0,3.4892854E-1,8.938974E-3,-1.2566149E-1,3.9718786E-1,1.927967E-2,-1.2493909E-1,-1.11472E-1,3.7074357E-1,-1.04869805E-1,2.0486645E-1,4.2296395E-1,-1.1264354E-1,4.4051543E-1,5.096846E-2,-1.3670205E-1,2.6868415E-1],"split_indices":[24855,11405,19984,20428,7124,10401,12450,23143,19111,525,846,18334,22917,3594,8659,40,8291,103,2911,0,0,0,0,11997,0,3058,5214,0,0,2260,16680,0,0,0,8348,0,0,0,0,12894,5,19748,12721,0,8716,0,0,55,3411,0,0,0,0,0,0,0,0,0,0,0,0,0,0,0,0],"split_type":[0,0,0,0,0,0,0,0,0,0,0,0,0,0,0,0,0,0,0,0,0,0,0,0,0,0,0,0,0,0,0,0,0,0,0,0,0,0,0,0,0,0,0,0,0,0,0,0,0,0,0,0,0,0,0,0,0,0,0,0,0,0,0,0,0],"sum_hessian":[8.907798E2,1.682471E2,7.225327E2,1.5196503E2,1.6282076E1,1.150042E2,6.075285E2,1.3611823E2,1.5846811E1,7.3752694E0,8.906807E0,3.3145992E1,8.1858215E1,8.156939E0,5.993716E2,4.8812814E0,1.3123694E2,6.7211223E0,9.125689E0,1.2635661E0,6.1117034E0,7.5428143E0,1.3639926E0,2.9472065E1,3.6739259E0,6.71797E1,1.467851E1,3.6542263E0,4.502712E0,5.433688E0,5.9393787E2,1.8062578E0,3.0750234E0,1.9768765E0,1.2926006E2,5.5757093E0,1.1454129E0,7.76268E0,1.3630086E0,2.6191404E1,3.2806606E0,7.599508E0,5.9580196E1,2.4751117E0,1.2203398E1,1.9546503E0,3.4790378E0,2.2166872E0,5.917212E2,1.25050835E2,4.209226E0,1.9632922E0,2.4228113E1,1.1800091E0,2.1006515E0,1.5187736E0,6.0807343E0,5.345954E1,6.120655E0,1.065973E1,1.5436684E0,1.2150902E0,1.0015972E0,5.8836444E2,3.356768E0],"tree_param":{"num_deleted":"0","num_feature":"40000","num_nodes":"65","size_leaf_vector":"0"}},{"base_weights":[4.4053752E-2,1.1201297E-1,-4.4407946E-1,-1.919448E-1,2.0114519E-1,-4.9229738E-1,9.232501E-1,-2.3151158E-1,1.2178487E0,3.080021E-1,-7.224028E-2,-5.509393E-1,2.116105E-1,1.250537E0,8.4918424E-2,7.5975455E-2,-3.8911763E-1,1.1864927E-1,1.5222106E0,4.4216385E-1,5.2385494E-2,-1.4526224E-1,7.1717584E-1,4.0748423E-1,-5.784308E-1,9.7233665E-1,-4.8861328E-1,-2.2490337E-1,5.667415E-1,7.877222E-1,-4.3327224E-1,-5.9251722E-2,5.41976E-1,-1.5330403E-1,4.2302805E-1,-2.1959133E-1,5.8267117E-1,1.3448589E0,-2.5031096E-1,6.036657E-1,5.460879E-2,-5.9736913E-1,5.588334E-1,2.9236993E-1,1.2893256E0,8.4953195E-1,-4.5024627E-1,1.3901349E0,5.326715E-2,-3.4989935E-1,1.3827275E0,-4.7914615E-1,5.539168E-1,-2.0120937E-1,1.182128E0,7.7637357E-1,2.624198E-1,-2.2143719E-1,9.79059E-1,-2.2697604E-1,7.33424E-1,-2.5843567E-1,1.2400094E0,-2.6102415E-1,1.2129601E0,-3.4450686E-1,1.6497718E0,-5.1207894E-1,5.5166525E-1],"categories":[],"categories_nodes":[],"categories_segments":[],"categories_sizes":[],"default_left":[1,1,1,1,1,1,1,1,1,1,1,1,1,0,0,1,1,0,0,1,1,1,1,1,1,1,0,1,1,1,1,1,1,1,1,1,1,1,1,0,0,0,0,0,0,0,0,0,0,0,0,0,0,0,0,0,0,0,0,0,0,0,0,0,0,0,0,0,0],"id":7,"left_children":[1,3,5,7,9,11,13,15,17,19,21,23,25,-1,-1,27,29,-1,-1,31,33,35,37,39,41,43,-1,45,47,49,51,53,55,57,59,61,63,65,67,-1,-1,-1,-1,-1,-1,-1,-1,-1,-1,-1,-1,-1,-1,-1,-1,-1,-1,-1,-1,-1,-1,-1,-1,-1,-1,-1,-1,-1,-1],"loss_changes":[3.047844E1,2.1874279E1,7.8584003E0,1.0504558E1,1.8242655E1,4.6211624E0,1.0387862E0,8.709106E0,1.5466037E0,1.5361809E1,1.02546E1,2.8972015E0,5.3302402E0,0E0,0E0,9.212825E0,6.502653E0,0E0,0E0,1.4749569E1,1.1923526E1,8.893678E0,9.492815E0,2.0263863E-1,2.4576569E0,6.367359E-1,0E0,9.790989E0,9.933041E0,3.626455E0,5.470125E0,8.999903E0,1.587336E1,7.9912634E0,1.1420707E1,8.696042E0,8.444045E0,5.359686E0,1.7049763E0,0E0,0E0,0E0,0E0,0E0,0E0,0E0,0E0,0E0,0E0,0E0,0E0,0E0,0E0,0E0,0E0,0E0,0E0,0E0,0E0,0E0,0E0,0E0,0E0,0E0,0E0,0E0,0E0,0E0,0E0],"parents":[2147483647,0,0,1,1,2,2,3,3,4,4,5,5,6,6,7,7,8,8,9,9,10,10,11,11,12,12,15,15,16,16,19,19,20,20,21,21,22,22,23,23,24,24,25,25,27,27,28,28,29,29,30,30,31,31,32,32,33,33,34,34,35,35,36,36,37,37,38,38],"right_children":[2,4,6,8,10,12,14,16,18,20,22,24,26,-1,-1,28,30,-1,-1,32,34,36,38,40,42,44,-1,46,48,50,52,54,56,58,60,62,64,66,68,-1,-1,-1,-1,-1,-1,-1,-1,-1,-1,-1,-1,-1,-1,-1,-1,-1,-1,-1,-1,-1,-1,-1,-1,-1,-1,-1,-1,-1,-1],"split_conditions":[1.178675E-2,-1.36665E-1,1.0746E0,1.6262E0,3.07295E-1,5.0895E-1,-2.56295E-1,-1.4412999E-1,-1.7493999E-1,2.52985E-1,4.4026E-1,-4.61205E-1,-1.31035E-2,3.7516114E-1,2.5475528E-2,1.9049999E-1,-9.2641E-1,3.559478E-2,4.566632E-1,2.8413498E-1,1.8862501E-1,6.24045E-1,4.069E-2,-3.25265E-1,9.2435503E-1,-4.57245E-1,-1.4658399E-1,-2.70045E-1,-4.58075E-1,-5.53435E-2,8.4935E-1,4.07455E-1,-1.25575E-1,8.10325E-1,-1.15635E-1,1.1565E0,2.2284001E-1,-1.56625E-1,-2.6881498E-1,1.8109971E-1,1.6382637E-2,-1.7921075E-1,1.6765003E-1,8.7710984E-2,3.867977E-1,2.548596E-1,-1.3507389E-1,4.170405E-1,1.5980147E-2,-1.0496981E-1,4.1481826E-1,-1.4374386E-1,1.6617505E-1,-6.0362812E-2,3.546384E-1,2.3291208E-1,7.872594E-2,-6.643116E-2,2.937177E-1,-6.8092816E-2,2.2002721E-1,-7.7530704E-2,3.7200284E-1,-7.830725E-2,3.6388806E-1,-1.0335206E-1,4.9493155E-1,-1.5362369E-1,1.6549958E-1],"split_indices":[24302,13450,24219,5753,8132,24586,15,11048,124,1257,1504,38457,2012,0,0,8260,10226,0,0,5153,3452,446,9192,3,4548,62,0,3232,9418,250,20019,12346,1906,499,3381,6512,601,775,94,0,0,0,0,0,0,0,0,0,0,0,0,0,0,0,0,0,0,0,0,0,0,0,0,0,0,0,0,0,0],"split_type":[0,0,0,0,0,0,0,0,0,0,0,0,0,0,0,0,0,0,0,0,0,0,0,0,0,0,0,0,0,0,0,0,0,0,0,0,0,0,0,0,0,0,0,0,0,0,0,0,0,0,0,0,0,0,0,0,0,0,0,0,0,0,0,0,0,0,0,0,0],"sum_hessian":[9.16269E2,8.049695E2,1.11299484E2,1.8226338E2,6.227061E2,1.08126434E2,3.1730483E0,1.7810065E2,4.1627283E0,4.476202E2,1.7508588E2,1.0001185E2,8.114585E0,1.9284708E0,1.2445774E0,6.052847E1,1.1757218E2,1.2040708E0,2.9586573E0,2.930707E2,1.5454951E2,1.6100839E2,1.4077488E1,2.403325E0,9.760852E1,3.70301E0,4.411575E0,3.7859375E1,2.2669092E1,3.6427562E0,1.1392943E2,4.872126E1,2.4434944E2,9.9768814E1,5.4780704E1,1.467247E2,1.4283685E1,8.301569E0,5.77592E0,1.0878366E0,1.3154886E0,9.647667E1,1.1318552E0,1.7886174E0,1.9143928E0,6.0834627E0,3.1775913E1,8.051161E0,1.4617931E1,1.3924322E0,2.2503242E0,1.0936209E2,4.567336E0,4.447343E1,4.2478323E0,1.3194296E2,1.1240648E2,9.486531E1,4.9035053E0,1.7791677E1,3.698903E1,1.4372275E2,3.0019495E0,6.358354E0,7.925331E0,1.2494053E0,7.0521636E0,4.627097E0,1.1488227E0],"tree_param":{"num_deleted":"0","num_feature":"40000","num_nodes":"69","size_leaf_vector":"0"}},{"base_weights":[1.7984556E-4,-9.773176E-2,1.6660604E-1,9.65317E-1,-1.15751676E-1,3.7289047E-1,-1.3516343E-2,1.3703582E0,-3.9980718E-1,-1.8289773E-1,1.7183296E-1,1.22906774E-1,6.897545E-1,3.9175656E-1,-1.7516285E-1,1.5352821E0,4.2362633E-1,6.3172245E-1,-2.0500422E-1,-1.1872731E-1,5.431088E-1,1.050175E0,1.4204979E-3,3.6752582E-1,1.2022462E0,4.266769E-2,9.6690804E-1,-2.5812796E-1,5.031512E-1,1.0888915E0,-4.716484E-1,7.0423394E-2,-2.6965633E-1,9.6271867E-1,-2.4697192E-1,-1.5224636E-1,8.639389E-1,-3.9266014E-1,1.4005309E0,-1.1542186E-1,8.697867E-1,1.2464821E0,1.3245949E-1,1.4300368E0,-2.5058475E-1,-1.8238504E-1,1.014176E0,1.2215785E0,-4.501743E-1,-4.2046577E-1,1.5058647E-1,1.3441156E0,-2.1652944E-1,-1.2292951E-2,1.6768687E0,5.1694393E-1,-2.2485922E-1,-3.008029E-1,4.929735E-1,1.6142617E0,4.6067752E-2,8.455782E-1,-3.5320538E-1,-4.233076E-1,9.280101E-1,1.4169545E0,2.4672413E-1,2.8250453E-1,1.6607075E0,6.444534E-1,-2.4276523E-1,1.2225784E0,-4.0102866E-1,1.5006026E0,7.759739E-3,-8.182086E-2,1.1041536E0,-3.9803487E-1,1.6087471E0,1.8053187E-1,-4.318684E-1,6.942E-1,-4.5566225E-1,1.3732889E0,-3.257868E-1,-1.6317958E-1,1.4738865E0,4.4156152E-1,-4.9438623E-1,-3.2493132E-1,6.995522E-1,5.170103E-2,1.6584398E0,8.6537355E-1,-5.308826E-1],"categories":[],"categories_nodes":[],"categories_segments":[],"categories_sizes":[],"default_left":[1,1,1,1,1,1,1,1,0,1,1,1,1,1,1,0,0,1,1,1,1,1,1,1,1,1,1,1,1,1,0,1,1,1,1,1,1,0,1,1,1,1,1,1,1,1,1,1,0,1,1,1,1,0,0,0,0,0,0,0,0,0,0,0,0,0,0,0,0,0,0,0,0,0,0,0,0,0,0,0,0,0,0,0,0,0,0,0,0,0,0,0,0,0,0],"id":8,"left_children":[1,3,5,7,9,11,13,15,-1,17,19,21,23,25,27,-1,-1,29,31,33,35,37,39,41,43,45,47,49,51,53,-1,55,57,59,61,63,65,-1,67,69,71,73,75,77,79,81,83,85,-1,87,89,91,93,-1,-1,-1,-1,-1,-1,-1,-1,-1,-1,-1,-1,-1,-1,-1,-1,-1,-1,-1,-1,-1,-1,-1,-1,-1,-1,-1,-1,-1,-1,-1,-1,-1,-1,-1,-1,-1,-1,-1,-1,-1,-1],"loss_changes":[1.4745624E1,1.1025551E1,1.2459242E1,5.858077E0,1.0866913E1,1.2294249E1,1.1854261E1,5.412798E-1,0E0,8.330493E0,1.1578317E1,9.976624E0,1.0903801E1,1.0319954E1,7.40632E0,0E0,0E0,6.70628E0,7.9274483E0,8.655381E0,1.0624879E1,5.736E0,8.148031E0,8.8477745E0,8.989765E0,7.4350514E0,7.567499E0,7.751146E0,9.024542E0,5.8364697E0,0E0,1.1353036E1,8.697037E0,3.89045E0,6.6886806E0,4.9901714E0,1.0687546E1,0E0,1.9957066E0,7.0067363E0,4.7601504E0,2.8483772E0,7.489552E0,8.054844E0,4.2074805E-1,6.968786E0,3.5218782E0,6.093521E0,0E0,5.5194798E0,9.017957E0,2.6738691E0,3.3968678E0,0E0,0E0,0E0,0E0,0E0,0E0,0E0,0E0,0E0,0E0,0E0,0E0,0E0,0E0,0E0,0E0,0E0,0E0,0E0,0E0,0E0,0E0,0E0,0E0,0E0,0E0,0E0,0E0,0E0,0E0,0E0,0E0,0E0,0E0,0E0,0E0,0E0,0E0,0E0,0E0,0E0,0E0],"parents":[2147483647,0,0,1,1,2,2,3,3,4,4,5,5,6,6,7,7,9,9,10,10,11,11,12,12,13,13,14,14,17,17,18,18,19,19,20,20,21,21,22,22,23,23,24,24,25,25,26,26,27,27,28,28,29,29,31,31,32,32,33,33,34,34,35,35,36,36,38,38,39,39,40,40,41,41,42,42,43,43,44,44,45,45,46,46,47,47,49,49,50,50,51,51,52,52],"right_children":[2,4,6,8,10,12,14,16,-1,18,20,22,24,26,28,-1,-1,30,32,34,36,38,40,42,44,46,48,50,52,54,-1,56,58,60,62,64,66,-1,68,70,72,74,76,78,80,82,84,86,-1,88,90,92,94,-1,-1,-1,-1,-1,-1,-1,-1,-1,-1,-1,-1,-1,-1,-1,-1,-1,-1,-1,-1,-1,-1,-1,-1,-1,-1,-1,-1,-1,-1,-1,-1,-1,-1,-1,-1,-1,-1,-1,-1,-1,-1],"split_conditions":[3.2840498E-2,-3.19835E-1,-1.20955E0,4.7813502E-1,5.94545E-1,4.31635E-1,-2.7014E-1,6.833E-1,-1.1994216E-1,-1.0329499E0,4.6847E-2,-5.7168E-1,1.99215E-1,4.7839E-4,6.919E-1,4.6058467E-1,1.270879E-1,-9.7038E-2,-4.90015E-1,-8.426E-1,-6.0092002E-2,6.1901502E-2,2.77605E-1,-7.2128996E-2,1.8653E-1,4.88615E-1,3.7723E-1,2.9488498E-1,-2.00175E-1,-2.25685E-1,-1.4149453E-1,-8.0496E-2,1.09065E0,-6.36175E-2,-8.0426E-1,1.3191E-1,5.6957997E-2,-1.17798045E-1,-1.7642501E-1,-7.0363E-1,2.6261E-1,4.580915E-2,-6.2593505E-2,-3.015E-1,-3.8731E-1,-3.5525E-1,2.89465E-1,-4.5246E-1,-1.350523E-1,-9.60495E-1,2.4533E-1,-4.1804E-1,-2.3304E-1,-3.6878856E-3,5.0306064E-1,1.5508318E-1,-6.745777E-2,-9.0240866E-2,1.4789206E-1,4.8427853E-1,1.3820326E-2,2.5367346E-1,-1.0596162E-1,-1.2699229E-1,2.7840304E-1,4.2508638E-1,7.401724E-2,8.475136E-2,4.9821225E-1,1.9333602E-1,-7.2829574E-2,3.6677355E-1,-1.203086E-1,4.501808E-1,2.3279218E-3,-2.454626E-2,3.312461E-1,-1.1941046E-1,4.8262414E-1,5.4159563E-2,-1.2956053E-1,2.0826E-1,-1.3669868E-1,4.1198668E-1,-9.7736046E-2,-4.8953876E-2,4.4216597E-1,1.3246846E-1,-1.4831588E-1,-9.74794E-2,2.0986566E-1,1.551031E-2,4.9753195E-1,2.5961208E-1,-1.5926479E-1],"split_indices":[13832,15920,13284,13324,5267,13019,3263,338,0,1985,256,8277,9165,9506,5557,0,0,5185,2185,3144,3132,3117,20842,18930,5888,1533,5774,6652,10804,3990,0,9193,2719,773,2369,5436,310,0,283,12804,20034,4736,2727,13257,133,14286,60,11585,0,6027,4437,1076,4348,0,0,0,0,0,0,0,0,0,0,0,0,0,0,0,0,0,0,0,0,0,0,0,0,0,0,0,0,0,0,0,0,0,0,0,0,0,0,0,0,0,0],"split_type":[0,0,0,0,0,0,0,0,0,0,0,0,0,0,0,0,0,0,0,0,0,0,0,0,0,0,0,0,0,0,0,0,0,0,0,0,0,0,0,0,0,0,0,0,0,0,0,0,0,0,0,0,0,0,0,0,0,0,0,0,0,0,0,0,0,0,0,0,0,0,0,0,0,0,0,0,0,0,0,0,0,0,0,0,0,0,0,0,0,0,0,0,0,0,0],"sum_hessian":[9.029148E2,5.68732E2,3.341828E2,8.603714E0,5.601283E2,1.5527943E2,1.7890337E2,6.6320944E0,1.97162E0,4.5439816E2,1.0573012E2,8.757597E1,6.770347E1,5.060506E1,1.282983E2,5.118729E0,1.5133649E0,1.1276715E1,4.4312146E2,5.9693916E1,4.60362E1,9.259165E0,7.831681E1,4.2622036E1,2.508143E1,3.2159813E1,1.8445251E1,1.1486814E2,1.3430155E1,7.9824157E0,3.2942996E0,8.4224266E1,3.588972E2,5.6385894E0,5.405533E1,1.4700452E1,3.133575E1,1.7854757E0,7.4736886E0,6.979295E1,8.523857E0,8.085643E0,3.4536392E1,2.1695469E1,3.385961E0,2.6770592E1,5.3892198E0,1.57522955E1,2.692955E0,8.219303E1,3.267511E1,5.793109E0,7.637046E0,3.1193953E0,4.8630204E0,3.322755E1,5.0996716E1,3.4539642E2,1.3500765E1,2.8510551E0,2.7875342E0,4.173514E0,4.9881813E1,1.2237838E1,2.462614E0,1.5844016E1,1.54917345E1,1.8046393E0,5.6690493E0,9.434608E0,6.0358345E1,6.701428E0,1.8224294E0,6.5338335E0,1.5518098E0,2.9046732E1,5.4896603E0,1.822759E0,1.987271E1,1.0035448E0,2.3824162E0,5.996257E0,2.0774334E1,4.230552E0,1.1586678E0,2.4822211E0,1.3270075E1,6.0987434E0,7.609429E1,1.7727516E1,1.4947592E1,1.3611044E0,4.432005E0,1.3247633E0,6.3122826E0],"tree_param":{"num_deleted":"0","num_feature":"40000","num_nodes":"95","size_leaf_vector":"0"}},{"base_weights":[-2.8986333E-2,-4.37866E-1,5.0742596E-2,6.475763E-1,-4.740645E-1,-1.7188999E-1,1.4014827E-1,1.3753386E0,-3.9154E-1,-5.0514793E-1,4.144225E-1,2.3559517E-1,-2.5324374E-1,4.84223E-1,7.063977E-2,5.667055E-1,-5.251358E-1,1.0735083E0,-4.039879E-1,6.0391617E-1,-3.162995E-1,-3.704477E-1,8.877407E-2,3.0706579E-2,7.834649E-1,-1.5799439E-1,1.6632013E-1,1.7241931E-1,6.793533E-1,-5.4596835E-1,5.391806E-1,2.4820471E-1,1.6332989E0,8.14218E-1,-5.702855E-1,6.6761357E-1,-4.1330057E-1,-2.8005773E-1,4.9386504E-1,-3.989176E-1,5.0753456E-1,1.1046304E0,1.581421E-1,-2.171491E-1,1.128116E0,2.890928E-1,-1.24611154E-1,-5.6732255E-1,3.069861E-1,1.1556957E0,-3.12778E-1,1.0501646E0,-2.3566474E-1,-4.7781046E-2,9.87384E-1,-4.4085902E-1,8.199909E-1,6.263922E-1,-5.3579295E-1,-1.8316765E-1,9.6768373E-1,8.121853E-1,-5.3994966E-1,1.2775035E0,-5.323993E-2,1.3210315E0,-3.3136725E-1,-4.034011E-1,8.617968E-1,-2.607505E-1,9.744515E-1,-3.2688823E-1,1.5456887E0,6.146275E-1,1.1738464E-1,7.982147E-1,-2.1626383E-1],"categories":[],"categories_nodes":[],"categories_segments":[],"categories_sizes":[],"default_left":[1,1,1,1,1,1,1,0,0,1,1,1,1,1,1,1,1,0,0,1,1,1,1,1,1,1,1,0,0,1,1,1,0,0,0,1,1,1,1,1,1,1,1,1,1,1,1,0,0,0,0,0,0,0,0,0,0,0,0,0,0,0,0,0,0,0,0,0,0,0,0,0,0,0,0,0,0],"id":9,"left_children":[1,3,5,7,9,11,13,-1,-1,15,17,19,21,23,25,27,29,-1,-1,31,33,35,37,39,41,43,45,-1,-1,47,49,51,-1,-1,-1,53,55,57,59,61,63,65,67,69,71,73,75,-1,-1,-1,-1,-1,-1,-1,-1,-1,-1,-1,-1,-1,-1,-1,-1,-1,-1,-1,-1,-1,-1,-1,-1,-1,-1,-1,-1,-1,-1],"loss_changes":[2.9308004E1,6.0707436E0,1.5005444E1,4.438248E0,4.1457825E0,7.2235293E0,1.28220415E1,0E0,0E0,3.2577324E0,3.3288388E0,7.6069174E0,7.2731676E0,1.2213423E1,9.835005E0,1.6572773E-2,3.3133278E0,0E0,0E0,7.732126E0,4.845586E0,6.2685566E0,7.1463947E0,7.759022E0,1.072768E1,1.0348036E1,1.1343988E1,0E0,0E0,2.6155968E0,1.9987019E0,7.114146E0,0E0,0E0,0E0,1.3564126E0,4.7795925E0,6.1747913E0,7.464185E0,3.8484554E0,7.806849E0,1.1531086E1,8.087339E0,6.8937564E0,4.1511755E0,1.2389294E1,8.178105E0,0E0,0E0,0E0,0E0,0E0,0E0,0E0,0E0,0E0,0E0,0E0,0E0,0E0,0E0,0E0,0E0,0E0,0E0,0E0,0E0,0E0,0E0,0E0,0E0,0E0,0E0,0E0,0E0,0E0,0E0],"parents":[2147483647,0,0,1,1,2,2,3,3,4,4,5,5,6,6,9,9,10,10,11,11,12,12,13,13,14,14,15,15,16,16,19,19,20,20,21,21,22,22,23,23,24,24,25,25,26,26,29,29,30,30,31,31,35,35,36,36,37,37,38,38,39,39,40,40,41,41,42,42,43,43,44,44,45,45,46,46],"right_children":[2,4,6,8,10,12,14,-1,-1,16,18,20,22,24,26,28,30,-1,-1,32,34,36,38,40,42,44,46,-1,-1,48,50,52,-1,-1,-1,54,56,58,60,62,64,66,68,70,72,74,76,-1,-1,-1,-1,-1,-1,-1,-1,-1,-1,-1,-1,-1,-1,-1,-1,-1,-1,-1,-1,-1,-1,-1,-1,-1,-1,-1,-1,-1,-1],"split_conditions":[-9.0585E-2,-9.1909003E-1,-4.7580497E-3,-2.5114E-1,6.6739E-1,-4.9331498E-1,-6.52485E-1,4.126016E-1,-1.17462E-1,-8.7016E-1,-8.433E-4,-2.26495E-1,1.1931E-1,6.57145E-2,-2.0525E-1,-1.5292001E-1,8.0015004E-1,3.2205248E-1,-1.2119638E-1,1.05475E0,-6.92715E-1,-6.60055E-1,7.3676E-2,1.5630001E-1,5.48795E-1,8.8351E-1,2.76335E-1,5.1725794E-2,2.03806E-1,1.037E0,-3.6228502E-1,-4.9348003E-1,4.8998967E-1,2.442654E-1,-1.7108566E-1,-4.60125E-2,1.06055E0,-4.97205E-1,-2.8199E-1,-6.273E-1,-5.30035E-1,5.26905E-2,-2.2519E-2,1.1753E0,-2.0967501E-1,-1.1585E-1,-6.67875E-1,-1.7019677E-1,9.209583E-2,3.4670871E-1,-9.38334E-2,3.1504938E-1,-7.069942E-2,-1.43343145E-2,2.962152E-1,-1.3225771E-1,2.4599726E-1,1.8791766E-1,-1.6073789E-1,-5.4950297E-2,2.9030514E-1,2.4365559E-1,-1.619849E-1,3.8325107E-1,-1.597198E-2,3.9630947E-1,-9.9410184E-2,-1.2102034E-1,2.5853905E-1,-7.822515E-2,2.9233545E-1,-9.806647E-2,4.6370664E-1,1.8438825E-1,3.5215393E-2,2.3946442E-1,-6.487915E-2],"split_indices":[22284,16826,13293,950,1622,3216,4803,0,0,5207,2096,8703,12323,2035,3851,1,20379,0,0,15753,12256,11728,1216,633,1431,1535,8524,0,0,1037,9,13439,0,0,0,92,10802,4241,8540,6551,8103,9794,10443,3905,65,1434,2286,0,0,0,0,0,0,0,0,0,0,0,0,0,0,0,0,0,0,0,0,0,0,0,0,0,0,0,0,0,0],"split_type":[0,0,0,0,0,0,0,0,0,0,0,0,0,0,0,0,0,0,0,0,0,0,0,0,0,0,0,0,0,0,0,0,0,0,0,0,0,0,0,0,0,0,0,0,0,0,0,0,0,0,0,0,0,0,0,0,0,0,0,0,0,0,0,0,0,0,0,0,0,0,0,0,0,0,0,0,0],"sum_hessian":[8.9734973E2,1.4569247E2,7.516572E2,4.156831E0,1.4153564E2,2.1510164E2,5.365556E2,2.2543757E0,1.902455E0,1.371683E2,4.3673344E0,3.5482212E1,1.7961943E2,8.917301E1,4.473826E2,2.0103576E0,1.3515794E2,2.246486E0,2.1208487E0,2.1223743E1,1.4258468E1,1.3371451E2,4.5904915E1,3.5887016E1,5.3286E1,1.3179619E2,3.155864E2,1.009065E0,1.0012925E0,1.3304088E2,2.1170685E0,1.6695574E1,4.5281696E0,2.2110589E0,1.2047408E1,4.723125E0,1.2899138E2,2.4189363E1,2.171555E1,1.8963875E1,1.6923143E1,3.4698418E1,1.8587582E1,1.2679539E2,5.000802E0,2.2193599E2,9.365041E1,1.3011818E2,2.9227061E0,1.0214127E0,1.0956557E0,5.8422856E0,1.0853288E1,1.7217594E0,3.0013654E0,1.2680051E2,2.1908784E0,5.003863E0,1.9185501E1,9.193093E0,1.2522457E1,1.4816278E0,1.7482246E1,6.59281E0,1.0330333E1,3.0223825E1,4.474592E0,1.0575019E1,8.012562E0,1.23073235E2,3.7221491E0,1.1635747E0,3.8372273E0,7.574831E1,1.4618768E2,7.7643337E0,8.588608E1],"tree_param":{"num_deleted":"0","num_feature":"40000","num_nodes":"77","size_leaf_vector":"0"}},{"base_weights":[4.0058568E-2,1.1708891E-1,-4.1682318E-1,2.699983E-1,-2.8200548E-2,-4.6026418E-1,3.8540584E-1,3.7240756E-1,-1.24259084E-1,-7.062999E-2,8.34727E-1,-4.9399158E-1,6.167907E-1,1.1676916E0,-4.5028955E-1,1.445187E-1,5.492337E-1,-2.91991E-1,7.032661E-1,1.9827023E-1,-1.7358132E-1,-2.2191042E-1,1.2596322E0,-5.396375E-1,2.7288E-1,2.4386859E-2,9.031065E-1,-3.0517998E-1,3.3848393E-1,6.693034E-2,6.7197865E-1,-5.2398986E-1,3.321818E-1,-1.3717061E-1,1.4383067E0,6.168265E-1,-6.396943E-2,-3.0306444E-1,1.3853493E-1,-4.9195546E-1,4.561921E-1,-3.4733376E-1,1.4516037E0,-5.634149E-1,4.926231E-1,1.0712938E0,-4.5871556E-1,7.320954E-1,-4.513612E-1,2.1787651E-1,1.3022302E0,-2.1367468E-1,8.6656904E-1,8.0710924E-1,1.2034765E-1,-5.830237E-1,8.334749E-1,8.6638117E-1,-5.368407E-1,7.4591905E-1,-5.089608E-1,3.8569117E-1,1.632543E0,8.028917E-1,-3.9267188E-1,-2.6028392E-1,6.123762E-1,-3.3133453E-1,7.4893326E-1,6.3014126E-1,-9.4680324E-2,1.5695164E0,1.0921718E-1,-5.8036935E-1,4.16024E-1,9.806799E-2,6.63648E-1],"categories":[],"categories_nodes":[],"categories_segments":[],"categories_sizes":[],"default_left":[1,1,1,1,1,1,1,1,1,1,1,1,1,0,0,1,1,1,1,1,1,1,1,1,1,0,0,1,1,1,1,1,1,1,1,1,1,1,1,0,0,0,1,1,1,0,0,0,0,0,0,0,0,0,0,0,0,0,0,0,0,0,0,0,0,0,0,0,0,0,0,0,0,0,0,0,0],"id":10,"left_children":[1,3,5,7,9,11,13,15,17,19,21,23,25,-1,-1,27,29,31,33,35,37,39,41,43,45,-1,-1,47,49,51,53,55,57,59,61,63,65,67,69,-1,-1,-1,71,73,75,-1,-1,-1,-1,-1,-1,-1,-1,-1,-1,-1,-1,-1,-1,-1,-1,-1,-1,-1,-1,-1,-1,-1,-1,-1,-1,-1,-1,-1,-1,-1,-1],"loss_changes":[3.1977905E1,1.7272346E1,4.746567E0,1.5337671E1,1.4682314E1,4.8393764E0,5.2846475E0,1.2045403E1,1.1148674E1,1.0598542E1,8.718261E0,4.4037E0,6.963078E-1,0E0,0E0,1.1688597E1,9.963913E0,9.76907E0,8.586755E0,1.1687144E1,1.1215759E1,1.3672336E0,4.6857643E0,3.1026611E0,4.8695264E0,0E0,0E0,6.4791074E0,1.0557397E1,8.130362E0,9.940651E0,4.388074E0,9.084388E0,2.7596514E0,8.693323E-1,8.010774E0,8.942236E0,6.0691433E0,9.432919E0,0E0,0E0,0E0,1.7757206E0,2.1175232E0,1.4579576E-1,0E0,0E0,0E0,0E0,0E0,0E0,0E0,0E0,0E0,0E0,0E0,0E0,0E0,0E0,0E0,0E0,0E0,0E0,0E0,0E0,0E0,0E0,0E0,0E0,0E0,0E0,0E0,0E0,0E0,0E0,0E0,0E0],"parents":[2147483647,0,0,1,1,2,2,3,3,4,4,5,5,6,6,7,7,8,8,9,9,10,10,11,11,12,12,15,15,16,16,17,17,18,18,19,19,20,20,21,21,22,22,23,23,24,24,27,27,28,28,29,29,30,30,31,31,32,32,33,33,34,34,35,35,36,36,37,37,38,38,42,42,43,43,44,44],"right_children":[2,4,6,8,10,12,14,16,18,20,22,24,26,-1,-1,28,30,32,34,36,38,40,42,44,46,-1,-1,48,50,52,54,56,58,60,62,64,66,68,70,-1,-1,-1,72,74,76,-1,-1,-1,-1,-1,-1,-1,-1,-1,-1,-1,-1,-1,-1,-1,-1,-1,-1,-1,-1,-1,-1,-1,-1,-1,-1,-1,-1,-1,-1,-1,-1],"split_conditions":[2.0194E-2,-1.17400005E-1,8.6229503E-1,-7.6731E-1,6.73925E-1,1.1649001E0,-3.3241E-2,-2.7726E-1,5.2723503E-1,-3.7514E-1,2.8092E-2,8.7793E-1,1.2131E-1,3.503075E-1,-1.3508686E-1,-2.3333001E-1,-8.6142495E-3,1.03157E-1,1.1367E-2,7.97425E-2,1.9587499E-1,3.7167E-1,-8.3342505E-1,9.3062E-1,-2.5507998E-1,7.316058E-3,2.7093196E-1,-3.3461E-1,3.0671E-1,4.2125E-1,4.2088002E-1,8.3897E-1,-7.6305E-3,-2.7473E-1,-2.46185E-1,-5.6552E-1,4.20575E-2,8.1333494E-1,-1.7576501E-1,-1.4758664E-1,1.3685764E-1,-1.0420013E-1,4.6313E-1,1.2148E0,-2.36865E-1,3.2138816E-1,-1.3761467E-1,2.1962863E-1,-1.3540837E-1,6.536295E-2,3.9066908E-1,-6.4102404E-2,2.5997072E-1,2.4213278E-1,3.6104295E-2,-1.7490712E-1,2.5004247E-1,2.5991437E-1,-1.6105221E-1,2.2377573E-1,-1.5268824E-1,1.1570735E-1,4.897629E-1,2.4086751E-1,-1.1780157E-1,-7.808518E-2,1.8371287E-1,-9.9400364E-2,2.2467999E-1,1.8904239E-1,-2.8404098E-2,4.7085494E-1,3.2765158E-2,-1.7411081E-1,1.248072E-1,2.9420398E-2,1.9909441E-1],"split_indices":[21602,96,4738,8055,5872,10898,1011,8540,5832,8909,5557,16624,17,0,0,163,1298,11711,3779,8912,276,200,5869,13240,6529,0,0,2135,10682,4192,2465,5779,9193,32,21,4484,10744,6922,6979,0,0,0,2414,5805,4,0,0,0,0,0,0,0,0,0,0,0,0,0,0,0,0,0,0,0,0,0,0,0,0,0,0,0,0,0,0,0,0],"split_type":[0,0,0,0,0,0,0,0,0,0,0,0,0,0,0,0,0,0,0,0,0,0,0,0,0,0,0,0,0,0,0,0,0,0,0,0,0,0,0,0,0,0,0,0,0,0,0,0,0,0,0,0,0,0,0,0,0,0,0,0,0,0,0,0,0,0,0,0,0,0,0,0,0,0,0,0,0],"sum_hessian":[9.0623755E2,7.761263E2,1.301113E2,3.7772867E2,3.983976E2,1.23832016E2,6.2792807E0,2.998876E2,7.784106E1,3.8060187E2,1.7795732E1,1.2059693E2,3.2350829E0,3.0380883E0,3.241192E0,1.3181944E2,1.6806816E2,6.52605E1,1.2580563E1,1.05117615E2,2.7548425E2,5.240818E0,1.2554914E1,1.1410167E2,6.49527E0,1.4076822E0,1.8274006E0,3.9550415E1,9.226903E1,3.440915E1,1.3365901E2,4.7693714E1,1.756678E1,6.2489595E0,6.331603E0,3.9970013E1,6.5147606E1,1.9472891E2,8.075534E1,3.9444904E0,1.2963276E0,1.2534187E0,1.1301496E1,1.11976555E2,2.125109E0,2.883781E0,3.6114886E0,4.390203E0,3.5160213E1,8.309609E1,9.172937E0,2.6013437E1,8.395713E0,1.06987595E2,2.6671413E1,4.6252766E1,1.4409497E0,1.088108E1,6.685701E0,1.5532746E0,4.695685E0,1.4514596E0,4.8801436E0,3.3922302E1,6.047709E0,5.0968708E1,1.4178895E1,1.9030006E2,4.428851E0,2.5435848E1,5.5319496E1,1.0233413E1,1.0680828E0,1.10471695E2,1.5048625E0,1.1183907E0,1.0067184E0],"tree_param":{"num_deleted":"0","num_feature":"40000","num_nodes":"77","size_leaf_vector":"0"}},{"base_weights":[-6.409942E-2,-2.8253978E-1,6.10823E-1,4.8490185E-1,-3.5438552E-1,8.2013845E-1,4.0778843E-1,6.541347E-1,-3.0871165E-1,-3.817009E-1,3.0915436E-1,-1.0155344E-2,8.675512E-1,1.4902125E-1,6.771508E-1,-3.727495E-1,7.7087414E-1,-5.448556E-1,6.6052073E-1,-3.9757618E-1,5.095158E-1,1.2060634E0,-1.2684914E-1,-5.098004E-1,7.551504E-1,-4.0774602E-1,8.952791E-1,-3.8064808E-1,3.6419436E-1,-1.3912059E-2,8.272421E-1,-2.0934015E-3,-4.802082E-1,8.918205E-1,-2.0230806E-1,-4.2842582E-1,3.917456E-2,1.4212989E0,-2.0359662E-1,-3.4830305E-1,1.6185962E0,6.3121134E-1,-4.7340262E-1,9.378889E-1,7.218826E-2,6.713506E-1,-5.909191E-1,7.2508436E-1,1.1614454E-2,-4.95383E-1,3.6373028E-1,9.21471E-1,-1.4732274E-1,9.772528E-1,-4.2270565E-1,-4.6506628E-1,3.030497E-1,-4.488552E-1,3.414152E-1,-1.2339513E-1,1.2580129E0,4.7367436E-1,1.6483018E0,-4.751924E-1,5.3001654E-1,5.07284E-1,1.7761691E0,9.205619E-1,-3.1155276E-1,1.2724125E-1,-5.3875625E-1,9.715007E-1,-5.0732844E-2,-2.9667076E-1,2.1562786E-1,9.172595E-1,-1.0673108E-1,-5.5768514E-1,3.541841E-1,6.3315344E-1,1.5044297E-1,9.872974E-1,-3.7775627E-1,2.803857E-1,-4.3411648E-1],"categories":[],"categories_nodes":[],"categories_segments":[],"categories_sizes":[],"default_left":[1,1,1,1,1,1,1,1,1,1,1,1,1,1,1,1,1,0,0,1,1,1,1,0,0,0,1,1,1,1,1,0,0,1,1,1,1,1,1,0,1,1,1,1,1,0,0,1,1,0,1,1,1,0,0,0,0,0,0,0,0,0,0,0,0,0,0,0,0,0,0,0,0,0,0,0,0,0,0,0,0,0,0,0,0],"id":11,"left_children":[1,3,5,7,9,11,13,15,17,19,21,23,25,27,29,31,33,-1,-1,35,37,39,41,-1,-1,-1,43,45,47,49,51,-1,-1,53,55,57,59,61,63,-1,65,67,69,71,73,-1,-1,75,77,-1,79,81,83,-1,-1,-1,-1,-1,-1,-1,-1,-1,-1,-1,-1,-1,-1,-1,-1,-1,-1,-1,-1,-1,-1,-1,-1,-1,-1,-1,-1,-1,-1,-1,-1],"loss_changes":[1.2491569E2,3.545492E1,8.4713745E0,7.6157055E0,1.0733925E1,3.986206E0,7.3689995E0,5.7800465E0,2.7360206E0,8.168076E0,9.425163E0,2.849894E0,3.7451935E0,6.514339E0,5.4286613E0,2.1213484E-1,5.0613155E0,0E0,0E0,7.4772263E0,6.9809656E0,5.59807E0,4.7279725E0,0E0,0E0,0E0,3.2244034E0,4.079691E0,5.118446E0,2.0534515E0,4.0776253E0,0E0,0E0,4.576044E0,8.5785645E-1,8.288414E0,7.5751743E0,2.1778011E-1,1.5767722E0,0E0,2.1645737E-1,1.8466051E0,5.451622E-1,3.0121536E0,3.6573967E-1,0E0,0E0,3.2782183E0,4.370461E0,0E0,2.696756E-1,3.7321625E0,6.91687E-1,0E0,0E0,0E0,0E0,0E0,0E0,0E0,0E0,0E0,0E0,0E0,0E0,0E0,0E0,0E0,0E0,0E0,0E0,0E0,0E0,0E0,0E0,0E0,0E0,0E0,0E0,0E0,0E0,0E0,0E0,0E0,0E0],"parents":[2147483647,0,0,1,1,2,2,3,3,4,4,5,5,6,6,7,7,8,8,9,9,10,10,11,11,12,12,13,13,14,14,15,15,16,16,19,19,20,20,21,21,22,22,26,26,27,27,28,28,29,29,30,30,33,33,34,34,35,35,36,36,37,37,38,38,40,40,41,41,42,42,43,43,44,44,47,47,48,48,50,50,51,51,52,52],"right_children":[2,4,6,8,10,12,14,16,18,20,22,24,26,28,30,32,34,-1,-1,36,38,40,42,-1,-1,-1,44,46,48,50,52,-1,-1,54,56,58,60,62,64,-1,66,68,70,72,74,-1,-1,76,78,-1,80,82,84,-1,-1,-1,-1,-1,-1,-1,-1,-1,-1,-1,-1,-1,-1,-1,-1,-1,-1,-1,-1,-1,-1,-1,-1,-1,-1,-1,-1,-1,-1,-1,-1],"split_conditions":[1.4986E-3,-1.42975E-1,-3.7614003E-2,3.78385E-1,3.8361E-1,-4.35005E-1,1.94045E-1,-2.7713E0,7.4055004E-1,6.0772E-1,-2.3230499E-1,3.53515E-1,-6.4394E-1,-1.24475E0,-2.54775E0,3.33235E-2,1.1068499E0,-1.6345668E-1,1.9815622E-1,7.14255E-2,1.8303001E-1,-7.075E-1,-5.07215E-1,-1.5294012E-1,2.2654513E-1,-1.2232381E-1,1.0262E0,-8.6022E-1,-8.1114E-3,-6.83975E-1,2.3199001E-1,-6.280205E-4,-1.4406246E-1,5.2731E-1,7.7713E-1,3.25905E-1,4.29145E-1,-6.548E-2,3.9398E-1,-1.0449092E-1,-6.1122E-1,3.0835497E-1,-5.23615E-1,7.0778E-1,1.6075501E-1,2.0140518E-1,-1.7727573E-1,1.31025E-1,1.9878E-2,-1.486149E-1,-7.3634505E-2,5.7112E-1,-9.7174E-1,2.9317585E-1,-1.268117E-1,-1.3951989E-1,9.091492E-2,-1.3465656E-1,1.0242456E-1,-3.701854E-2,3.774039E-1,1.4210232E-1,4.9449056E-1,-1.4255773E-1,1.5900497E-1,1.521852E-1,5.3285074E-1,2.7616858E-1,-9.3465835E-2,3.817238E-2,-1.6162688E-1,2.9145023E-1,-1.5219853E-2,-8.900123E-2,6.468836E-2,2.7517787E-1,-3.2019325E-2,-1.6730554E-1,1.0625523E-1,1.8994604E-1,4.5132894E-2,2.9618925E-1,-1.13326885E-1,8.4115714E-2,-1.3023496E-1],"split_indices":[23166,20254,28262,13174,13869,30458,17332,4255,1517,2162,9846,106,12298,4384,6355,17,5561,0,0,17004,4964,2594,11704,0,0,0,27602,10343,5860,5649,344,0,0,4181,32,10255,6477,37,274,0,130,952,1154,48,101,0,0,6990,17510,0,101,11736,103,0,0,0,0,0,0,0,0,0,0,0,0,0,0,0,0,0,0,0,0,0,0,0,0,0,0,0,0,0,0,0,0],"split_type":[0,0,0,0,0,0,0,0,0,0,0,0,0,0,0,0,0,0,0,0,0,0,0,0,0,0,0,0,0,0,0,0,0,0,0,0,0,0,0,0,0,0,0,0,0,0,0,0,0,0,0,0,0,0,0,0,0,0,0,0,0,0,0,0,0,0,0,0,0,0,0,0,0,0,0,0,0,0,0,0,0,0,0,0,0],"sum_hessian":[8.451159E2,6.389118E2,2.0620409E2,5.4200787E1,5.8471106E2,1.0003503E2,1.0616905E2,4.481915E1,9.381637E0,5.6200037E2,2.271064E1,5.4462323E0,9.45888E1,5.4941696E1,5.122736E1,4.3512177E0,4.0467934E1,7.89576E0,1.4858762E0,5.5270886E2,9.2915325E0,6.851056E0,1.5859583E1,3.4970043E0,1.949228E0,1.7211726E0,9.286762E1,1.564962E1,3.9292076E1,9.302644E0,4.1924713E1,1.2070913E0,3.1441262E0,3.606892E1,4.3990135E0,5.162621E2,3.6446804E1,3.6419086E0,5.649624E0,1.4695799E0,5.3814764E0,4.7179704E0,1.1141613E1,8.816407E1,4.703552E0,2.241662E0,1.3407958E1,1.8895111E1,2.0396967E1,3.9521348E0,5.3505087E0,3.827815E1,3.6465664E0,3.4108734E1,1.9601847E0,2.9466476E0,1.4523659E0,5.033223E2,1.2939776E1,3.2950584E1,3.496217E0,1.3003284E0,2.3415802E0,4.380243E0,1.269381E0,1.1922525E0,4.189224E0,3.6280189E0,1.0899518E0,1.0003905E0,1.0141222E1,8.528191E1,2.882153E0,1.0178525E0,3.6856995E0,1.526557E1,3.6295407E0,7.426795E0,1.2970172E1,1.4943316E0,3.8561773E0,3.6660786E1,1.6173607E0,1.4726622E0,2.173904E0],"tree_param":{"num_deleted":"0","num_feature":"40000","num_nodes":"85","size_leaf_vector":"0"}},{"base_weights":[3.7816204E-2,-1.9892743E-1,1.4152364E-1,4.300723E-1,-2.4449964E-1,3.449819E-1,3.0723812E-2,9.559734E-1,-4.0464544E-1,-2.829075E-1,4.2820787E-1,5.7893224E-2,5.247969E-1,1.864326E-1,-1.6911077E-1,-2.0918638E-1,1.3573078E0,-5.1930654E-1,2.0313786E-1,1.7422362E-1,-3.4009725E-1,9.1395175E-1,-4.8799795E-1,-1.704857E-1,5.0713927E-1,-9.585005E-2,6.4694613E-1,3.6905926E-1,-1.202509E-1,-3.252487E-1,1.9464128E-1,-3.8673446E-1,1.5673749E-1,3.9588195E-1,1.5059968E0,5.349422E-1,-3.8694862E-1,1.9064678E-1,-3.872213E-1,-1.8436998E-1,1.3802503E0,5.597971E-1,-3.4642574E-1,9.126213E-1,-2.294538E-1,-3.0906996E-1,1.2173657E0,1.0545706E-1,8.5743916E-1,7.29953E-1,1.7447953E-1,1.7378858E-1,-4.2842272E-1,1.143342E0,-3.6586878E-1,-8.9583695E-2,8.41489E-1,-4.5375255E-1,7.8646487E-1,-5.4626626E-1,5.6036794E-1,-4.4732094E-1,8.6426723E-1,9.1970754E-1,-4.046811E-1,-3.8639194E-1,1.6583738E-1,1.5117301E0,4.3269733E-1,-6.562719E-2,1.3840696E0,9.3373275E-1,-4.3910325E-1,-7.3344395E-2,1.2872977E0,-5.5679893E-1,7.3219717E-1,9.676371E-1,-5.2753466E-1,1.176431E0,-8.839631E-2,9.5359325E-1,-2.7597818E-1,9.4027644E-1,-1.4053234E-1,-3.9913576E-2,6.7942804E-1,9.202137E-1,-8.2218684E-2,6.946431E-1,-5.127824E-1,-4.0599203E-1,7.6884395E-1,-3.2604447E-1,6.77821E-1,-3.1757632E-1,1.2449471E0],"categories":[],"categories_nodes":[],"categories_segments":[],"categories_sizes":[],"default_left":[1,1,1,1,1,1,1,1,1,1,1,1,1,1,1,1,1,0,0,1,1,1,0,1,1,1,1,1,1,1,1,0,0,0,0,1,1,1,1,1,1,1,1,1,1,1,0,1,1,1,1,1,1,0,1,1,1,0,0,0,0,0,0,0,0,0,0,0,0,0,0,0,0,0,0,0,0,0,0,0,0,0,0,0,0,0,0,0,0,0,0,0,0,0,0,0,0],"id":12,"left_children":[1,3,5,7,9,11,13,15,17,19,21,23,25,27,29,31,33,-1,-1,35,37,39,-1,41,43,45,47,49,51,53,55,-1,-1,-1,-1,57,59,61,63,65,67,69,71,73,75,77,-1,79,81,83,85,87,89,-1,91,93,95,-1,-1,-1,-1,-1,-1,-1,-1,-1,-1,-1,-1,-1,-1,-1,-1,-1,-1,-1,-1,-1,-1,-1,-1,-1,-1,-1,-1,-1,-1,-1,-1,-1,-1,-1,-1,-1,-1,-1,-1],"loss_changes":[2.2347076E1,8.054695E0,1.425284E1,8.770392E0,6.818904E0,1.148064E1,1.2811936E1,5.9017315E0,6.688739E-1,6.4860363E0,6.854143E0,9.012492E0,1.0446941E1,1.3000874E1,1.0309427E1,3.168762E-1,7.0028687E-1,0E0,0E0,5.8741407E0,5.5470295E0,5.2520676E0,0E0,7.7009506E0,9.042126E0,6.927562E0,1.297007E1,1.0071497E1,7.9664874E0,7.9704113E0,1.0151492E1,0E0,0E0,0E0,0E0,4.6991873E0,2.0469708E0,8.34363E0,4.9660053E0,3.322438E-1,2.1395302E-1,6.1356306E0,6.069361E0,7.214697E0,3.9644177E0,6.347188E0,0E0,6.9998074E0,9.240215E0,9.389095E0,1.0384618E1,8.7283325E0,4.41245E0,0E0,5.95529E0,7.294246E0,8.264082E0,0E0,0E0,0E0,0E0,0E0,0E0,0E0,0E0,0E0,0E0,0E0,0E0,0E0,0E0,0E0,0E0,0E0,0E0,0E0,0E0,0E0,0E0,0E0,0E0,0E0,0E0,0E0,0E0,0E0,0E0,0E0,0E0,0E0,0E0,0E0,0E0,0E0,0E0,0E0,0E0],"parents":[2147483647,0,0,1,1,2,2,3,3,4,4,5,5,6,6,7,7,8,8,9,9,10,10,11,11,12,12,13,13,14,14,15,15,16,16,19,19,20,20,21,21,23,23,24,24,25,25,26,26,27,27,28,28,29,29,30,30,35,35,36,36,37,37,38,38,39,39,40,40,41,41,42,42,43,43,44,44,45,45,47,47,48,48,49,49,50,50,51,51,52,52,54,54,55,55,56,56],"right_children":[2,4,6,8,10,12,14,16,18,20,22,24,26,28,30,32,34,-1,-1,36,38,40,-1,42,44,46,48,50,52,54,56,-1,-1,-1,-1,58,60,62,64,66,68,70,72,74,76,78,-1,80,82,84,86,88,90,-1,92,94,96,-1,-1,-1,-1,-1,-1,-1,-1,-1,-1,-1,-1,-1,-1,-1,-1,-1,-1,-1,-1,-1,-1,-1,-1,-1,-1,-1,-1,-1,-1,-1,-1,-1,-1,-1,-1,-1,-1,-1,-1],"split_conditions":[-2.50905E-2,-4.79255E-1,-5.39295E-2,1.47075E-1,6.82715E-1,-1.095E-1,1.36535E-1,5.1124997E-2,2.0388499E-1,-6.0377E-1,1.43325E-1,1.03595E-1,-8.75155E-2,1.81395E-1,1.0665E-1,8.2114005E-1,-6.6208005E-1,-1.5579197E-1,6.094136E-2,4.22505E-2,-5.01485E-1,-1.486505E-1,-1.463994E-1,-5.1161003E-1,-2.41775E-2,1.017335E-1,-3.67865E-1,-2.20115E0,1.00975E-1,-9.4024503E-1,3.2551003E-1,-1.16020344E-1,4.702125E-2,1.1876459E-1,4.5179906E-1,2.7318E-2,6.6475E-1,3.21865E-1,-8.8410497E-1,4.18805E-1,6.598E-1,2.448E-1,-7.96795E-1,-4.4027E-3,5.50445E-1,-5.89205E-1,3.6520973E-1,-1.5191E-1,6.4530504E-1,2.59575E-1,1.63775E-1,-1.7945E-1,-9.07405E-1,3.4300262E-1,7.73945E-1,5.7725E-1,7.684E-3,-1.3612577E-1,2.3593947E-1,-1.6387989E-1,1.6811039E-1,-1.3419628E-1,2.5928017E-1,2.7591228E-1,-1.2140433E-1,-1.15917586E-1,4.9751215E-2,4.5351905E-1,1.298092E-1,-1.9688157E-2,4.152209E-1,2.8011984E-1,-1.3173097E-1,-2.200332E-2,3.8618934E-1,-1.6703969E-1,2.1965916E-1,2.9029116E-1,-1.582604E-1,3.529293E-1,-2.6518894E-2,2.8607798E-1,-8.279346E-2,2.8208295E-1,-4.2159706E-2,-1.1974073E-2,2.0382842E-1,2.7606413E-1,-2.4665607E-2,2.0839293E-1,-1.5383473E-1,-1.21797614E-1,2.306532E-1,-9.7813345E-2,2.033463E-1,-9.52729E-2,3.7348413E-1],"split_indices":[16126,4233,3132,4274,14734,3850,4757,8559,5662,5606,14133,3596,14585,2157,447,210,943,0,0,6551,3548,14699,0,6606,1240,12062,8204,9755,7637,595,165,0,0,0,0,3138,1399,7517,16848,328,402,12720,3215,10793,1724,3308,0,7901,1732,11632,2581,613,6003,0,4930,7705,8752,0,0,0,0,0,0,0,0,0,0,0,0,0,0,0,0,0,0,0,0,0,0,0,0,0,0,0,0,0,0,0,0,0,0,0,0,0,0,0,0],"split_type":[0,0,0,0,0,0,0,0,0,0,0,0,0,0,0,0,0,0,0,0,0,0,0,0,0,0,0,0,0,0,0,0,0,0,0,0,0,0,0,0,0,0,0,0,0,0,0,0,0,0,0,0,0,0,0,0,0,0,0,0,0,0,0,0,0,0,0,0,0,0,0,0,0,0,0,0,0,0,0,0,0,0,0,0,0,0,0,0,0,0,0,0,0,0,0,0,0],"sum_hessian":[9.080442E2,2.763267E2,6.3171747E2,1.809787E1,2.5822882E2,2.2198318E2,4.0973428E2,1.1013634E1,7.0842357E0,2.4482985E2,1.3398971E1,8.599978E1,1.3598341E2,2.303305E2,1.7940378E2,2.9443445E0,8.069289E0,6.0823464E0,1.0018895E0,2.6996235E1,2.178336E2,8.758139E0,4.6408324E0,5.742678E1,2.8572996E1,2.2397224E1,1.1358618E2,1.442361E2,8.609441E1,1.25597725E2,5.3806057E1,1.9441581E0,1.0001864E0,1.5713556E0,6.4979334E0,1.6461567E1,1.0534668E1,1.7515553E1,2.0031805E2,2.7903488E0,5.9677896E0,1.0725632E1,4.670115E1,1.8274317E1,1.0298679E1,1.9926508E1,2.4707153E0,3.2214928E1,8.1371254E1,4.956141E1,9.467469E1,4.428056E1,4.181385E1,2.649776E0,1.2294795E2,3.797941E1,1.5826649E1,3.175433E0,1.3286135E1,9.380441E0,1.154228E0,9.168377E0,8.347177E0,1.9595928E0,1.9835846E2,1.7040315E0,1.0863173E0,4.7177625E0,1.250027E0,6.6217213E0,4.1039104E0,2.5400639E0,4.4161087E1,5.2536125E0,1.3020704E1,7.997376E0,2.301303E0,2.41047E0,1.7516039E1,4.160564E0,2.8054363E1,7.515417E1,6.2170906E0,3.9852276E1,9.709135E0,6.710425E1,2.7570442E1,1.0646044E1,3.3634518E1,2.4159834E0,3.9397865E1,1.19369286E2,3.5786698E0,2.947301E1,8.506398E0,4.1415515E0,1.1685098E1],"tree_param":{"num_deleted":"0","num_feature":"40000","num_nodes":"97","size_leaf_vector":"0"}},{"base_weights":[2.9830958E-3,1.6563377E-1,-8.221247E-2,1.09907545E-1,6.4716035E-1,-2.5237763E-1,-2.1046335E-3,4.455986E-2,5.6473243E-1,-4.8121065E-1,8.253982E-1,2.8856182E-1,-3.3151683E-1,-2.3310384E-1,1.03384346E-1,8.549054E-1,6.4306725E-3,-2.6544657E-1,7.5762147E-1,-8.623459E-2,1.0712055E0,9.843893E-1,-1.07554354E-1,-3.9357102E-1,2.0138723E-1,-3.1697077E-1,6.586646E-1,3.7214762E-1,-3.1657323E-2,-1.4323014E-1,1.4237134E0,3.5923615E-1,-1.05286054E-1,-5.087607E-1,5.544284E-1,9.1888237E-1,-2.703473E-1,-4.859172E-1,5.9295213E-1,-3.5700136E-1,1.1887184E0,1.4227247E0,-3.959875E-1,6.1074525E-1,-4.774134E-1,-4.26224E-1,4.569628E-1,-2.0879085E-1,1.2381524E0,1.0515076E0,-3.6139604E-1,-4.2931485E-1,1.0492483E0,-7.5763576E-2,6.144343E-1,1.1578416E0,-7.75489E-2,2.9806376E-1,-4.1970196E-1,1.5723376E0,4.6477407E-1,7.640422E-1,-7.776157E-2,-2.2540204E-1,2.0390838E-1,2.4146141E-2,1.1031523E0,1.6440336E-1,-4.3810844E-1,-3.0707978E-2,1.2989072E0,4.9942213E-1,1.5504128E0,9.964924E-1,-3.5862604E-1,-5.47439E-1,1.2321485E-1,4.2182842E-1,-4.619084E-1,-4.032896E-1,9.987677E-1,-5.358302E-1,4.8471138E-1,1.6280406E0,8.279859E-2,-4.378977E-1,2.5982642E-1,-4.9924016E-2,1.3398067E0,4.5273122E-1,-4.7641468E-1,7.951408E-1,-1.5930201E-1,4.5071715E-3,1.436046E0,1.6224101E-1,-2.7084756E-1],"categories":[],"categories_nodes":[],"categories_segments":[],"categories_sizes":[],"default_left":[1,1,1,1,1,1,1,1,1,0,1,1,1,1,1,1,1,1,1,1,1,1,1,1,1,1,1,1,1,1,1,1,1,0,0,1,1,0,0,0,1,1,0,1,1,1,1,1,1,0,1,0,1,1,1,1,1,0,0,0,0,0,0,0,0,0,0,0,0,0,0,0,0,0,0,0,0,0,0,0,0,0,0,0,0,0,0,0,0,0,0,0,0,0,0,0,0],"id":13,"left_children":[1,3,5,7,9,11,13,15,17,-1,19,21,23,25,27,29,31,33,35,37,39,41,43,45,47,49,51,53,55,57,59,61,63,-1,-1,65,67,-1,-1,-1,69,71,-1,73,75,77,79,81,83,-1,85,-1,87,89,91,93,95,-1,-1,-1,-1,-1,-1,-1,-1,-1,-1,-1,-1,-1,-1,-1,-1,-1,-1,-1,-1,-1,-1,-1,-1,-1,-1,-1,-1,-1,-1,-1,-1,-1,-1,-1,-1,-1,-1,-1,-1],"loss_changes":[1.2250684E1,8.083296E0,7.908516E0,8.105874E0,6.6954184E0,8.045534E0,9.661534E0,7.418926E0,5.6908197E0,0E0,6.235113E0,6.785878E0,5.4519005E0,9.504837E0,9.891145E0,6.3302975E0,9.122769E0,1.7192013E0,4.902977E0,2.1196902E0,4.060526E0,5.942581E0,4.634025E0,4.2456856E0,7.746004E0,7.328041E0,5.1289167E0,9.933966E0,1.0029877E1,7.1385413E-1,2.6188374E-1,9.905843E0,6.5764318E0,0E0,0E0,4.0124397E0,4.060734E-1,0E0,0E0,0E0,2.7607079E0,4.685974E-2,0E0,2.598871E0,5.44863E-1,4.4613895E0,3.1412222E0,3.3150773E0,2.1785283E0,0E0,5.409768E0,0E0,2.7469301E0,7.1763005E0,8.408987E0,2.1840754E0,8.214055E0,0E0,0E0,0E0,0E0,0E0,0E0,0E0,0E0,0E0,0E0,0E0,0E0,0E0,0E0,0E0,0E0,0E0,0E0,0E0,0E0,0E0,0E0,0E0,0E0,0E0,0E0,0E0,0E0,0E0,0E0,0E0,0E0,0E0,0E0,0E0,0E0,0E0,0E0,0E0,0E0],"parents":[2147483647,0,0,1,1,2,2,3,3,4,4,5,5,6,6,7,7,8,8,10,10,11,11,12,12,13,13,14,14,15,15,16,16,17,17,18,18,19,19,20,20,21,21,22,22,23,23,24,24,25,25,26,26,27,27,28,28,29,29,30,30,31,31,32,32,35,35,36,36,40,40,41,41,43,43,44,44,45,45,46,46,47,47,48,48,50,50,52,52,53,53,54,54,55,55,56,56],"right_children":[2,4,6,8,10,12,14,16,18,-1,20,22,24,26,28,30,32,34,36,38,40,42,44,46,48,50,52,54,56,58,60,62,64,-1,-1,66,68,-1,-1,-1,70,72,-1,74,76,78,80,82,84,-1,86,-1,88,90,92,94,96,-1,-1,-1,-1,-1,-1,-1,-1,-1,-1,-1,-1,-1,-1,-1,-1,-1,-1,-1,-1,-1,-1,-1,-1,-1,-1,-1,-1,-1,-1,-1,-1,-1,-1,-1,-1,-1,-1,-1,-1],"split_conditions":[-8.0634E-2,4.9547E-1,-5.014E-3,3.8726997E-1,-1.8217501E-1,-6.3844E-1,-1.26795E-1,-7.3572505E-1,-9.57275E-2,-1.443632E-1,-1.08115E-1,4.0460998E-1,4.41675E-1,7.02265E-1,-9.68175E-1,-2.7508998E-1,-4.0491998E-1,4.66545E-1,2.7725E-1,4.97315E-1,-3.2326502E-1,-1.008825E-1,-1.76375E-1,9.7195005E-1,5.33095E-1,-1.0644E0,-8.6006E-2,-3.19435E-2,-9.36555E-1,-6.6558003E-1,3.68985E-1,4.9541503E-2,6.2458503E-1,-1.5262821E-1,1.6632852E-1,-2.7298498E-1,-2.108665E-1,-1.4577517E-1,1.7788565E-1,-1.0710041E-1,-2.35755E-1,-8.82695E-1,-1.1879626E-1,2.0003E-1,4.98655E-1,-1.89155E0,-2.6293498E-1,4.7896498E-1,-1.22375E-2,3.1545228E-1,3.88895E-1,-1.2879446E-1,-2.63345E0,-3.6383E-1,4.55635E-1,-3.60905E-1,4.5100498E-1,8.941913E-2,-1.259106E-1,4.717013E-1,1.3943222E-1,2.2921267E-1,-2.3328472E-2,-6.762061E-2,6.117252E-2,7.243843E-3,3.309457E-1,4.932101E-2,-1.3143253E-1,-9.212393E-3,3.8967216E-1,1.4982665E-1,4.6512386E-1,2.9894772E-1,-1.07587814E-1,-1.642317E-1,3.6964457E-2,1.2654853E-1,-1.3857253E-1,-1.2098688E-1,2.996303E-1,-1.6074906E-1,1.4541341E-1,4.8841217E-1,2.4839578E-2,-1.3136932E-1,7.794793E-2,-1.4977206E-2,4.01942E-1,1.3581938E-1,-1.4292441E-1,2.3854224E-1,-4.7790606E-2,1.3521515E-3,4.3081382E-1,4.8672307E-2,-8.125427E-2],"split_indices":[11893,14452,3599,451,2911,8104,7392,11863,2317,0,314,8861,2823,13667,2049,2739,13206,449,11200,298,15848,1029,5286,1321,3552,4444,2835,6808,1339,94,69,7910,3831,0,0,6900,34,0,0,0,1632,73,0,393,332,12684,4126,7032,240,0,1073,0,2055,5188,510,623,9253,0,0,0,0,0,0,0,0,0,0,0,0,0,0,0,0,0,0,0,0,0,0,0,0,0,0,0,0,0,0,0,0,0,0,0,0,0,0,0,0],"split_type":[0,0,0,0,0,0,0,0,0,0,0,0,0,0,0,0,0,0,0,0,0,0,0,0,0,0,0,0,0,0,0,0,0,0,0,0,0,0,0,0,0,0,0,0,0,0,0,0,0,0,0,0,0,0,0,0,0,0,0,0,0,0,0,0,0,0,0,0,0,0,0,0,0,0,0,0,0,0,0,0,0,0,0,0,0,0,0,0,0,0,0,0,0,0,0,0,0],"sum_hessian":[8.82089E2,3.0288794E2,5.7920105E2,2.7257193E2,3.0316017E1,1.847034E2,3.9449765E2,2.3928958E2,3.3282337E1,3.903608E0,2.6412409E1,2.3235529E1,1.6146788E2,1.2329568E2,2.7120197E2,9.790675E0,2.294989E2,6.204123E0,2.7078215E1,5.74711E0,2.0665298E1,7.8902383E0,1.534529E1,1.4486095E2,1.660692E1,1.1328616E2,1.000951E1,9.0109E1,1.8109296E2,3.8256593E0,5.965016E0,5.466121E1,1.7483769E2,5.076914E0,1.1272092E0,2.3498106E1,3.5801091E0,3.7971516E0,1.9499584E0,1.4161384E0,1.924916E1,5.9652944E0,1.9249437E0,4.994408E0,1.0350883E1,1.3998561E2,4.875337E0,1.247143E1,4.135491E0,2.8492296E0,1.10436935E2,2.617961E0,7.3915496E0,3.1873083E1,5.823592E1,5.8270574E0,1.752659E2,1.4435004E0,2.382159E0,4.610742E0,1.3542736E0,2.7987259E1,2.667395E1,1.2611535E2,4.8722343E1,4.2061024E0,1.9292004E1,1.0024053E0,2.577704E0,1.6550052E0,1.7594154E1,1.3214263E0,4.643868E0,3.552689E0,1.4417188E0,9.349417E0,1.0014663E0,5.2155356E0,1.3477008E2,1.9827982E0,2.8925388E0,8.629375E0,3.8420546E0,2.786145E0,1.3493458E0,9.859087E1,1.1846065E1,1.7185426E0,5.673007E0,1.3687738E1,1.8185345E1,4.7187572E1,1.1048345E1,1.3299148E0,4.497143E0,7.829743E1,9.6968475E1],"tree_param":{"num_deleted":"0","num_feature":"40000","num_nodes":"97","size_leaf_vector":"0"}},{"base_weights":[-2.1805374E-2,4.0560894E-2,-4.1910127E-1,1.330598E-1,-1.392577E-1,-4.55086E-1,6.4471585E-1,5.198854E-1,8.53968E-2,-1.87135E-1,5.341969E-1,5.371314E-1,-4.9273452E-1,1.1472797E0,-3.1697154E-1,-5.5530477E-1,7.1150476E-1,5.632118E-1,4.9234636E-2,-3.2528055E-1,4.722148E-3,-1.5584858E-1,1.2767676E0,1.3808684E-2,7.8131306E-1,-5.2404404E-1,5.675063E-1,2.5107387E-2,1.0291743E0,8.8567907E-1,-1.9098757E-1,1.0957647E-1,-2.6409218E-1,6.317868E-1,-3.7089863E-1,-1.4396127E-1,4.0751126E-1,-5.1523614E-1,5.1700866E-1,1.9598447E-1,1.6008433E0,4.067167E-1,-5.490725E-1,7.270914E-2,7.781236E-1,1.082253E0,-4.0243638E-1,6.237405E-2,1.2952214E0,1.0956169E0,-4.5002896E-1,4.8702684E-1,-5.3983104E-1,-2.3938796E-1,1.7367299E-1,4.2776105E-1,-3.999969E-1,1.0126567E0,-3.701394E-1,-4.1771188E-1,4.8236245E-1,2.0975795E-1,-3.6837634E-1,-1.1879377E-1,7.9557794E-1,6.6213477E-1,2.459667E-2,4.5917162E-1,-5.657654E-1],"categories":[],"categories_nodes":[],"categories_segments":[],"categories_sizes":[],"default_left":[1,1,1,1,1,1,1,1,1,1,1,1,1,0,0,0,1,1,1,1,1,1,1,0,0,1,1,1,1,1,1,1,1,1,1,1,1,0,0,0,0,1,1,0,0,0,0,0,0,0,0,0,0,0,0,0,0,0,0,0,0,0,0,0,0,0,0,0,0],"id":14,"left_children":[1,3,5,7,9,11,13,15,17,19,21,23,25,-1,-1,-1,27,29,31,33,35,37,39,-1,-1,41,43,45,47,49,51,53,55,57,59,61,63,-1,-1,-1,-1,65,67,-1,-1,-1,-1,-1,-1,-1,-1,-1,-1,-1,-1,-1,-1,-1,-1,-1,-1,-1,-1,-1,-1,-1,-1,-1,-1],"loss_changes":[2.1741192E1,1.2638214E1,4.8505955E0,9.202075E0,8.425249E0,4.588068E0,2.4461718E0,1.1689231E1,7.7078476E0,6.4104004E0,9.113464E0,5.910053E-1,4.0162125E0,0E0,0E0,0E0,1.0214769E1,7.806424E0,7.918494E0,6.3726635E0,6.1798363E0,2.6624837E0,2.659398E0,0E0,0E0,2.770298E0,3.2832575E-1,7.614696E0,8.170933E0,6.711214E0,2.6820173E0,7.8837986E0,6.5347004E0,2.9569135E0,5.5870876E0,6.061889E0,5.776121E0,0E0,0E0,0E0,0E0,3.1921482E-1,2.0589066E0,0E0,0E0,0E0,0E0,0E0,0E0,0E0,0E0,0E0,0E0,0E0,0E0,0E0,0E0,0E0,0E0,0E0,0E0,0E0,0E0,0E0,0E0,0E0,0E0,0E0,0E0],"parents":[2147483647,0,0,1,1,2,2,3,3,4,4,5,5,6,6,7,7,8,8,9,9,10,10,11,11,12,12,16,16,17,17,18,18,19,19,20,20,21,21,22,22,25,25,26,26,27,27,28,28,29,29,30,30,31,31,32,32,33,33,34,34,35,35,36,36,41,41,42,42],"right_children":[2,4,6,8,10,12,14,16,18,20,22,24,26,-1,-1,-1,28,30,32,34,36,38,40,-1,-1,42,44,46,48,50,52,54,56,58,60,62,64,-1,-1,-1,-1,66,68,-1,-1,-1,-1,-1,-1,-1,-1,-1,-1,-1,-1,-1,-1,-1,-1,-1,-1,-1,-1,-1,-1,-1,-1,-1,-1],"split_conditions":[9.498E-3,5.32615E-2,6.9282496E-1,-2.4265E-1,5.55555E-1,-9.0241003E-1,3.6284E-1,-9.3457E-2,-8.06615E-1,-9.6148E-2,4.677E-1,-3.5513997E-1,9.36355E-1,3.4418392E-1,-9.509147E-2,-1.6659144E-1,-6.9998994E-2,6.8762496E-2,3.86725E-1,-8.1633496E-1,1.9256E-1,1.13041E-1,-2.1228501E-1,4.1426057E-3,2.3439392E-1,-9.4826996E-1,4.48295E-1,-5.29705E-1,-1.64695E-1,3.0554998E-1,-5.3708005E-1,-2.59445E-1,-5.8842504E-1,2.3056E-1,6.65975E-1,2.80755E-2,-2.82835E-3,-1.5457085E-1,1.5510261E-1,5.8795344E-2,4.80253E-1,1.6155499E-1,-1.662E0,2.1812744E-2,2.3343709E-1,3.2467592E-1,-1.20730914E-1,1.8712217E-2,3.8856646E-1,3.286851E-1,-1.350087E-1,1.4610806E-1,-1.6194932E-1,-7.181639E-2,5.21019E-2,1.2832832E-1,-1.1999907E-1,3.03797E-1,-1.1104182E-1,-1.2531357E-1,1.4470874E-1,6.292739E-2,-1.10512905E-1,-3.563813E-2,2.3867339E-1,1.9864044E-1,7.3790015E-3,1.3775149E-1,-1.6972962E-1],"split_indices":[22564,11834,10703,6898,7096,576,11,9301,4085,439,5398,49,642,0,0,0,7314,3596,9334,4781,5991,644,3105,0,0,691,135,3397,6637,1151,6423,5552,8897,1240,6978,1911,10134,0,0,0,0,1,23078,0,0,0,0,0,0,0,0,0,0,0,0,0,0,0,0,0,0,0,0,0,0,0,0,0,0],"split_type":[0,0,0,0,0,0,0,0,0,0,0,0,0,0,0,0,0,0,0,0,0,0,0,0,0,0,0,0,0,0,0,0,0,0,0,0,0,0,0,0,0,0,0,0,0,0,0,0,0,0,0,0,0,0,0,0,0,0,0,0,0,0,0,0,0,0,0,0,0],"sum_hessian":[8.7575806E2,7.5771265E2,1.1804545E2,5.005098E2,2.5720282E2,1.1473658E2,3.3088686E0,5.381862E1,4.466912E2,2.4080557E2,1.6397245E1,3.709398E0,1.1102718E2,2.0464418E0,1.2624269E0,7.853591E0,4.5965027E1,3.0402653E1,4.1628854E2,1.3959537E2,1.0121021E2,8.908761E0,7.488484E0,1.5162872E0,2.1931107E0,1.08333755E2,2.6934266E0,1.4883936E1,3.1081093E1,2.1174782E1,9.227871E0,3.496095E2,6.667903E1,5.766419E0,1.3382895E2,7.43921E1,2.6818111E1,5.959774E0,2.9489875E0,2.097645E0,5.3908386E0,2.4374998E0,1.05896255E2,1.2058282E0,1.4875984E0,3.8451307E0,1.1038805E1,6.9736586E0,2.4107433E1,1.8454044E1,2.720738E0,3.0003169E0,6.2275543E0,5.3826096E1,2.957834E2,1.0595053E1,5.608398E1,4.1703877E0,1.5960313E0,1.2735235E2,6.4765964E0,2.8902224E1,4.5489876E1,1.1676311E1,1.51418E1,1.0217474E0,1.4157525E0,1.2929963E0,1.04603264E2],"tree_param":{"num_deleted":"0","num_feature":"40000","num_nodes":"69","size_leaf_vector":"0"}},{"base_weights":[3.2730043E-2,-3.6710513E-1,9.955262E-2,-4.098078E-1,4.9178702E-1,1.9855475E-1,-6.772526E-2,-4.3712562E-1,6.7887074E-1,-3.8192713E-1,9.780848E-1,3.0286995E-1,-5.6860674E-2,-1.721351E-1,2.4196652E-1,6.4700747E-1,-4.6514094E-1,1.9551314E-2,4.4990477E-1,-1.4407139E-1,5.5162656E-1,-2.2458683E-1,5.7603097E-1,-2.6428428E-1,4.7108757E-1,8.255851E-1,1.3074893E-1,6.043736E-1,-4.931254E-1,-2.1478584E-1,3.677638E-1,-2.567941E-1,5.0681925E-1,-2.5307557E-1,3.9909944E-1,-3.5281646E-1,8.9636475E-1,8.099915E-2,-3.4056512E-1,-4.7997788E-1,9.646831E-1,-4.4805226E-1,8.886638E-1,3.9466154E-2,8.1696993E-1,5.8397576E-2,8.359362E-1,5.972577E-1,-5.1581544E-1,4.2896402E-1,-3.7637755E-1,6.393342E-1,-2.7231815E-1,-5.0951624E-1,7.070215E-1,1.8193917E-1,6.3768435E-1,-3.1807274E-1,7.989311E-1,-3.371471E-1,8.5357004E-1,-4.8923236E-1,1.3768277E-1,-1.9161715E-1,1.1652544E0,3.5742846E-1,-4.0458098E-1,4.7052932E-1,-3.873126E-1,-7.643055E-2,1.1818789E0,8.353947E-1,-5.8136266E-1,7.098897E-1,-2.9478264E-1,-3.8359072E-2,1.0948219E0],"categories":[],"categories_nodes":[],"categories_segments":[],"categories_sizes":[],"default_left":[1,1,1,1,1,1,1,1,0,0,0,1,1,1,1,1,1,1,1,1,1,1,1,1,1,0,0,1,1,1,1,1,1,1,1,1,1,1,1,0,1,1,0,1,1,0,0,0,0,0,0,0,0,0,0,0,0,0,0,0,0,0,0,0,0,0,0,0,0,0,0,0,0,0,0,0,0],"id":15,"left_children":[1,3,5,7,9,11,13,15,-1,-1,-1,17,19,21,23,25,27,29,31,33,35,37,39,41,43,-1,-1,45,47,49,51,53,55,57,59,61,63,65,67,-1,69,71,-1,73,75,-1,-1,-1,-1,-1,-1,-1,-1,-1,-1,-1,-1,-1,-1,-1,-1,-1,-1,-1,-1,-1,-1,-1,-1,-1,-1,-1,-1,-1,-1,-1,-1],"loss_changes":[2.380571E1,4.8816376E0,1.2649846E1,3.9281864E0,3.1345744E0,1.279529E1,9.238887E0,3.937254E0,0E0,0E0,0E0,1.4182993E1,7.504248E0,8.499998E0,8.491343E0,2.0865512E-1,3.8084984E0,9.66208E0,9.149204E0,7.393515E0,5.849492E0,7.117614E0,6.3135524E0,5.295666E0,7.434868E0,0E0,0E0,3.8609755E-1,3.1495628E0,7.529557E0,8.450143E0,4.592804E0,8.721184E0,7.310238E0,7.30582E0,4.4307214E-1,4.064807E0,7.6405163E0,5.687937E0,0E0,2.5216904E0,4.0106144E0,0E0,5.430887E0,6.628786E0,0E0,0E0,0E0,0E0,0E0,0E0,0E0,0E0,0E0,0E0,0E0,0E0,0E0,0E0,0E0,0E0,0E0,0E0,0E0,0E0,0E0,0E0,0E0,0E0,0E0,0E0,0E0,0E0,0E0,0E0,0E0,0E0],"parents":[2147483647,0,0,1,1,2,2,3,3,4,4,5,5,6,6,7,7,11,11,12,12,13,13,14,14,15,15,16,16,17,17,18,18,19,19,20,20,21,21,22,22,23,23,24,24,27,27,28,28,29,29,30,30,31,31,32,32,33,33,34,34,35,35,36,36,37,37,38,38,40,40,41,41,43,43,44,44],"right_children":[2,4,6,8,10,12,14,16,-1,-1,-1,18,20,22,24,26,28,30,32,34,36,38,40,42,44,-1,-1,46,48,50,52,54,56,58,60,62,64,66,68,-1,70,72,-1,74,76,-1,-1,-1,-1,-1,-1,-1,-1,-1,-1,-1,-1,-1,-1,-1,-1,-1,-1,-1,-1,-1,-1,-1,-1,-1,-1,-1,-1,-1,-1,-1,-1],"split_conditions":[-9.442E-4,9.9885E-1,-1.4345E0,1.10095E0,6.2074E-1,-1.91455E-1,4.7593498E-1,-1.2899001E0,2.0366123E-1,-1.1457814E-1,2.9342544E-1,-2.0938E-1,5.9451E-1,4.22805E-1,-3.5997498E-1,-3.19005E-1,-1.0165E0,1.8154E-1,-7.4812996E-1,2.3095E-1,-2.6705998E-1,-6.9054496E-1,-1.252E-1,2.59895E-1,-5.3094E-2,2.4767555E-1,3.922468E-2,-5.37E-2,-1.54375E0,-3.5116E-1,2.7104002E-1,5.9882E-1,-3.50995E-1,6.3155496E-1,-1.26328E-2,1.69823E-1,-2.6407498E-1,2.28585E-1,-6.6639996E-1,-1.4399336E-1,-9.047E-2,-5.2079E-1,2.6659915E-1,-2.72035E-1,2.5741E-1,1.7519273E-2,2.5078088E-1,1.7917731E-1,-1.5474464E-1,1.2868921E-1,-1.1291327E-1,1.9180027E-1,-8.169545E-2,-1.5285487E-1,2.1210645E-1,5.4581754E-2,1.9130531E-1,-9.542183E-2,2.3967935E-1,-1.0114413E-1,2.5607103E-1,-1.4676972E-1,4.130483E-2,-5.7485145E-2,3.4957632E-1,1.0722854E-1,-1.213743E-1,1.411588E-1,-1.1619378E-1,-2.2929166E-2,3.5456368E-1,2.5061843E-1,-1.7440881E-1,2.1296692E-1,-8.843479E-2,-1.1507722E-2,3.284466E-1],"split_indices":[20843,18007,9955,7930,16659,5394,524,18078,0,0,0,163,1016,6578,1206,8,16515,10807,10997,1804,8850,3294,3847,2978,3190,0,0,4,2749,750,4452,5499,9668,5922,2348,6,1856,508,4491,0,1898,8848,0,8136,7961,0,0,0,0,0,0,0,0,0,0,0,0,0,0,0,0,0,0,0,0,0,0,0,0,0,0,0,0,0,0,0,0],"split_type":[0,0,0,0,0,0,0,0,0,0,0,0,0,0,0,0,0,0,0,0,0,0,0,0,0,0,0,0,0,0,0,0,0,0,0,0,0,0,0,0,0,0,0,0,0,0,0,0,0,0,0,0,0,0,0,0,0,0,0,0,0,0,0,0,0,0,0,0,0,0,0,0,0,0,0,0,0],"sum_hessian":[8.886307E2,1.2660307E2,7.620276E2,1.2110481E2,5.4982657E0,4.785905E2,2.834371E2,1.1872419E2,2.3806214E0,2.0427506E0,3.4555151E0,3.3967624E2,1.3891426E2,2.1230466E2,7.113246E1,2.4341228E0,1.1629007E2,1.1644108E2,2.2323515E2,1.2216792E2,1.6746342E1,1.9904968E2,1.3254971E1,2.2115044E1,4.9017414E1,1.3633573E0,1.0707654E0,2.4400256E0,1.13850044E2,6.983038E1,4.66107E1,1.6376667E1,2.0685849E2,1.0219365E2,1.997427E1,4.6150436E0,1.2131299E1,5.4844357E1,1.4420532E2,3.5027227E0,9.752248E0,1.9602064E1,2.51298E0,2.2301638E1,2.6715778E1,1.0995967E0,1.3404288E0,1.8046397E0,1.120454E2,1.367946E1,5.615092E1,3.2726746E1,1.3883955E1,1.3348033E1,3.0286334E0,6.008479E1,1.467737E2,9.6904175E1,5.2894754E0,7.7222724E0,1.2251998E1,3.612837E0,1.0022066E0,2.4609942E0,9.670304E0,3.5116997E1,1.9727362E1,7.3643537E0,1.3684097E2,1.7951962E0,7.9570513E0,1.3489075E0,1.8253157E1,7.0457344E0,1.5255903E1,6.7619605E0,1.9953817E1],"tree_param":{"num_deleted":"0","num_feature":"40000","num_nodes":"77","size_leaf_vector":"0"}},{"base_weights":[-6.1654326E-2,3.873539E-1,-3.0265749E-1,1.9981042E-1,5.907954E-1,5.91253E-1,-3.42696E-1,1.06244765E-1,7.5201607E-1,6.481885E-1,1.2921403E-1,-4.3750548E-1,7.362082E-1,4.4164392E-1,-3.6671668E-1,-1.5086722E-2,5.273802E-1,8.43766E-1,-3.408618E-1,7.0151246E-1,1.0372411E-1,5.1039195E-1,-4.271551E-1,-3.7052888E-1,8.4428656E-1,-8.511813E-2,1.3070124E0,6.9816375E-1,-3.8175923E-1,-2.5744504E-1,2.367351E-1,7.1770096E-1,-1.2909265E-1,5.572514E-2,9.571914E-1,7.3944473E-1,-2.8331807E-2,3.8693586E-1,-2.966934E-1,7.8385425E-1,-8.876296E-2,2.4860073E-2,-5.232486E-1,1.263377E-1,9.358322E-1,8.848783E-1,-5.0446504E-1,1.1749076E0,-3.8324672E-1,-3.9313573E-1,1.142707E0,-3.530904E-1,5.620451E-1,5.789082E-1,-7.149368E-2,8.480946E-1,-6.480137E-2,2.9906055E-1,-4.9595478E-1,-7.08215E-3,1.018189E-1,3.0726162E-1,9.9509364E-1,7.8548014E-1,1.9763443E-1,-4.446384E-1,3.2580093E-1,5.553545E-1,1.0474759E-1,-4.3647668E-1,-3.864462E-2,8.473874E-2,-2.9929623E-1,1.3175756E0,4.02606E-1,7.30814E-1,-4.0514302E-1,1.08340256E-1,1.6100305E0],"categories":[],"categories_nodes":[],"categories_segments":[],"categories_sizes":[],"default_left":[1,1,1,1,1,1,1,1,1,1,1,0,1,1,1,1,1,1,0,1,1,1,1,0,1,1,0,1,1,1,1,1,1,1,1,1,1,1,1,0,1,0,0,0,0,0,0,1,0,1,1,0,0,0,0,0,0,0,0,0,0,0,0,0,0,0,0,0,0,0,0,0,0,0,0,0,0,0,0],"id":16,"left_children":[1,3,5,7,9,11,13,15,17,19,21,-1,23,25,27,29,31,33,-1,35,37,39,41,-1,43,45,-1,47,49,51,53,55,57,59,61,63,65,67,69,-1,71,-1,-1,-1,-1,-1,-1,73,-1,75,77,-1,-1,-1,-1,-1,-1,-1,-1,-1,-1,-1,-1,-1,-1,-1,-1,-1,-1,-1,-1,-1,-1,-1,-1,-1,-1,-1,-1],"loss_changes":[8.567372E1,1.0434883E1,1.8636623E1,7.4339857E0,3.4173546E0,3.6694956E0,9.461578E0,6.4217153E0,2.3839283E0,3.3326569E0,3.5824678E0,0E0,2.7108135E0,7.004121E0,7.9470673E0,6.0675426E0,3.603807E0,1.6963463E0,0E0,2.973751E0,1.434409E0,1.6867447E0,3.1681335E-1,0E0,1.1022205E0,4.651681E0,0E0,4.0758257E0,8.660278E0,4.166909E0,5.1869307E0,2.293459E0,1.2735542E0,1.09254895E-2,1.14258766E-1,2.3745651E0,1.0637213E0,2.863772E-1,1.774362E-1,0E0,1.7115813E-1,0E0,0E0,0E0,0E0,0E0,0E0,3.4399986E-2,0E0,6.6482544E0,1.6445208E0,0E0,0E0,0E0,0E0,0E0,0E0,0E0,0E0,0E0,0E0,0E0,0E0,0E0,0E0,0E0,0E0,0E0,0E0,0E0,0E0,0E0,0E0,0E0,0E0,0E0,0E0,0E0,0E0],"parents":[2147483647,0,0,1,1,2,2,3,3,4,4,5,5,6,6,7,7,8,8,9,9,10,10,12,12,13,13,14,14,15,15,16,16,17,17,19,19,20,20,21,21,22,22,24,24,25,25,27,27,28,28,29,29,30,30,31,31,32,32,33,33,34,34,35,35,36,36,37,37,38,38,40,40,47,47,49,49,50,50],"right_children":[2,4,6,8,10,12,14,16,18,20,22,-1,24,26,28,30,32,34,-1,36,38,40,42,-1,44,46,-1,48,50,52,54,56,58,60,62,64,66,68,70,-1,72,-1,-1,-1,-1,-1,-1,74,-1,76,78,-1,-1,-1,-1,-1,-1,-1,-1,-1,-1,-1,-1,-1,-1,-1,-1,-1,-1,-1,-1,-1,-1,-1,-1,-1,-1,-1,-1],"split_conditions":[-4.42135E-4,1.90925E-2,-1.7784E-1,-9.1103E-3,7.382E-1,-4.32635E-1,-1.8042E-1,-7.25955E-1,4.1974002E-1,3.14105E-1,-3.33085E-1,-1.3125165E-1,-4.4245E-1,2.6906502E-1,-1.25235E0,-2.39075E-1,1.7217E-1,-4.5082E-1,-1.0225854E-1,7.10955E-1,2.5484002E-1,9.8964006E-2,-4.56435E-1,-1.1115867E-1,-7.99635E-1,-3.69895E-1,3.9210376E-1,2.31285E-1,1.0272E0,7.36045E-1,8.920801E-2,6.6267E-1,6.183E-2,2.1467501E-1,-6.89915E-1,8.58075E-1,6.27425E-1,-2.17575E-1,1.459995E-1,2.3515628E-1,-4.9793E-1,7.4580223E-3,-1.5697458E-1,3.7901312E-2,2.8074968E-1,2.654635E-1,-1.5133952E-1,-8.43725E-2,-1.1497402E-1,-8.6336005E-1,2.2758E-1,-1.05927125E-1,1.6861354E-1,1.7367247E-1,-2.1448104E-2,2.544284E-1,-1.9440413E-2,8.971817E-2,-1.4878644E-1,-2.124645E-3,3.054567E-2,9.217849E-2,2.985281E-1,2.3564406E-1,5.929033E-2,-1.3339153E-1,9.7740285E-2,1.6660635E-1,3.142428E-2,-1.3094302E-1,-1.15933865E-2,2.5421623E-2,-8.978887E-2,3.952727E-1,1.2078181E-1,2.192442E-1,-1.2154291E-1,3.2502078E-2,4.830092E-1],"split_indices":[19984,26366,24855,7184,15359,11463,14553,3055,11292,17827,4269,0,18934,6896,516,94,10544,20169,0,12793,12320,2116,31,0,23088,10715,0,6112,465,721,17435,119,528,1,423,24019,425,4,1,0,18,0,0,0,0,0,0,726,0,6959,107,0,0,0,0,0,0,0,0,0,0,0,0,0,0,0,0,0,0,0,0,0,0,0,0,0,0,0,0],"split_type":[0,0,0,0,0,0,0,0,0,0,0,0,0,0,0,0,0,0,0,0,0,0,0,0,0,0,0,0,0,0,0,0,0,0,0,0,0,0,0,0,0,0,0,0,0,0,0,0,0,0,0,0,0,0,0,0,0,0,0,0,0,0,0,0,0,0,0,0,0,0,0,0,0,0,0,0,0,0,0],"sum_hessian":[7.896347E2,2.755869E2,5.140478E2,1.4442772E2,1.3115921E2,2.1447104E1,4.926007E2,1.24521255E2,1.9906462E1,1.16294815E2,1.4864395E1,2.3994954E0,1.904761E1,1.4121141E1,4.7847955E2,9.7418594E1,2.7102667E1,1.8574986E1,1.3314766E0,1.0565836E2,1.063645E1,8.870028E0,5.9943676E0,1.4785647E0,1.7569044E1,9.338378E0,4.7827635E0,6.0323057E0,4.7244727E2,4.96307E1,4.7787895E1,2.0938913E1,6.1637535E0,2.5248036E0,1.6050182E1,1.00425766E2,5.232595E0,6.249736E0,4.386714E0,5.878661E0,2.9913664E0,1.1808847E0,4.8134828E0,2.2560415E0,1.5313003E1,2.4835393E0,6.854839E0,4.126614E0,1.9056917E0,4.696843E2,2.7629554E0,4.4953197E1,4.6775002E0,2.2230755E1,2.555714E1,1.787625E1,3.0626628E0,2.9295654E0,3.234188E0,1.4268852E0,1.0979184E0,1.3862432E0,1.46639385E1,9.2146706E1,8.279059E0,2.2876916E0,2.9449036E0,3.307619E0,2.9421167E0,2.3968863E0,1.9898274E0,1.9674684E0,1.023898E0,2.8872182E0,1.2393956E0,4.33188E0,4.6535242E2,1.2431711E0,1.5197843E0],"tree_param":{"num_deleted":"0","num_feature":"40000","num_nodes":"79","size_leaf_vector":"0"}},{"base_weights":[3.2812726E-2,-3.6647657E-1,8.018076E-2,-4.2898735E-1,3.5466626E-1,1.3702275E-1,-2.2834405E-1,-4.6524358E-1,6.4403695E-1,-3.9741307E-1,7.363729E-1,2.1982037E-1,-9.815309E-2,-3.973568E-1,3.0431507E-2,-5.03316E-1,4.3986055E-1,8.6684126E-1,9.470346E-2,-2.6883492E-1,2.6887417E-1,-1.606421E-1,6.7397416E-1,4.1613713E-1,-4.7523046E-1,5.9480953E-1,-2.0522003E-1,2.9265904E-1,-5.544823E-1,8.2204604E-1,-3.007874E-1,-4.207076E-1,4.8834977E-1,3.5573924E-1,-7.237048E-2,-2.5725308E-1,2.80573E-1,-4.2817646E-1,9.771304E-1,1.1194837E0,-4.51534E-1,6.005342E-1,-5.359516E-1,-4.4018784E-1,8.868057E-1,-3.3431214E-1,9.0542084E-1,-3.4984073E-1,6.234476E-1,1.2949839E-1,-5.650995E-1,6.522521E-1,-5.029646E-1,7.770514E-1,-3.7350786E-1,4.4026783E-1,-2.5006786E-2,-1.5937014E-1,8.4422106E-1,7.139169E-1,-3.0593663E-1,-3.268381E-1,6.3986975E-1,-3.5442442E-1,1.212166E0,9.063753E-1,-2.4019545E-2,-5.899662E-1,4.6013886E-1,1.1590395E0,-1.6593318E-1,-4.1203994E-1,8.941687E-1],"categories":[],"categories_nodes":[],"categories_segments":[],"categories_sizes":[],"default_left":[1,1,1,1,1,1,1,1,0,0,1,1,1,1,1,1,1,0,0,1,1,1,1,1,1,1,1,1,1,0,0,1,1,1,1,1,1,0,1,0,0,1,1,0,1,1,0,0,0,0,0,0,0,0,0,0,0,0,0,0,0,0,0,0,0,0,0,0,0,0,0,0,0],"id":17,"left_children":[1,3,5,7,9,11,13,15,-1,-1,17,19,21,23,25,27,29,-1,-1,31,33,35,37,39,41,43,45,47,49,-1,-1,51,53,55,57,59,61,-1,63,-1,-1,65,67,-1,69,71,-1,-1,-1,-1,-1,-1,-1,-1,-1,-1,-1,-1,-1,-1,-1,-1,-1,-1,-1,-1,-1,-1,-1,-1,-1,-1,-1],"loss_changes":[1.6876259E1,4.4185104E0,1.400997E1,3.7054577E0,2.6170282E0,1.3139994E1,5.4521217E0,3.159542E0,0E0,0E0,3.9689016E-1,1.2023638E1,8.605911E0,4.968745E0,6.781263E0,3.513647E0,1.3725622E0,0E0,0E0,5.493519E0,1.347155E1,7.051801E0,4.8885493E0,4.8461814E0,4.842062E0,4.9250827E0,5.473583E0,1.4135246E0,6.371689E-1,0E0,0E0,3.7559814E0,2.31695E0,1.1653038E1,7.540188E0,6.5940657E0,6.732646E0,0E0,3.8087902E0,0E0,0E0,8.1807435E-1,3.8241196E0,0E0,3.6414251E0,3.5233622E0,0E0,0E0,0E0,0E0,0E0,0E0,0E0,0E0,0E0,0E0,0E0,0E0,0E0,0E0,0E0,0E0,0E0,0E0,0E0,0E0,0E0,0E0,0E0,0E0,0E0,0E0,0E0],"parents":[2147483647,0,0,1,1,2,2,3,3,4,4,5,5,6,6,7,7,10,10,11,11,12,12,13,13,14,14,15,15,16,16,19,19,20,20,21,21,22,22,23,23,24,24,25,25,26,26,27,27,28,28,31,31,32,32,33,33,34,34,35,35,36,36,38,38,41,41,42,42,44,44,45,45],"right_children":[2,4,6,8,10,12,14,16,-1,-1,18,20,22,24,26,28,30,-1,-1,32,34,36,38,40,42,44,46,48,50,-1,-1,52,54,56,58,60,62,-1,64,-1,-1,66,68,-1,70,72,-1,-1,-1,-1,-1,-1,-1,-1,-1,-1,-1,-1,-1,-1,-1,-1,-1,-1,-1,-1,-1,-1,-1,-1,-1,-1,-1],"split_conditions":[-5.179E-3,6.37925E-1,2.0184499E-1,8.6376E-1,1.7754999E-1,3.7536E-1,5.0313E-2,1.05775E0,1.932111E-1,-1.1922393E-1,1.84391E-1,-1.33395E-1,2.94935E-1,-6.1264503E-1,-1.28065E-1,-8.8941E-1,-8.181525E-2,2.6005238E-1,2.8411038E-2,5.9984E-1,3.8935E-1,6.534E-1,-5.857E-2,2.7800001E-2,-8.6456E-1,-2.265945E-2,5.47495E-1,7.4028E-2,-8.4333503E-1,2.4661382E-1,-9.023622E-2,-7.17275E-1,-2.1386E-1,4.4550002E-1,5.9175503E-1,-8.3341503E-1,1.1942E-1,-1.2845294E-1,-1.02095E-1,3.358451E-1,-1.3546021E-1,1.356235E-1,5.7637E-1,-1.3205636E-1,1.74695E-1,7.32815E-1,2.7162626E-1,-1.0495222E-1,1.8703428E-1,3.8849518E-2,-1.6952986E-1,1.9567563E-1,-1.508894E-1,2.3311542E-1,-1.1205236E-1,1.3208036E-1,-7.502036E-3,-4.7811043E-2,2.5326633E-1,2.1417508E-1,-9.178099E-2,-9.8051436E-2,1.9196093E-1,-1.0632733E-1,3.636498E-1,2.719126E-1,-7.205864E-3,-1.7698985E-1,1.3804166E-1,3.4771186E-1,-4.9779955E-2,-1.2361199E-1,2.682506E-1],"split_indices":[24655,11642,4740,20790,15999,1232,4896,17511,0,0,3,17850,8303,809,5232,19069,174,0,0,19305,1432,1428,10867,237,3840,10674,11234,529,5074,0,0,5891,8471,4632,2383,5615,2317,0,11731,0,0,72,12244,0,1770,4697,0,0,0,0,0,0,0,0,0,0,0,0,0,0,0,0,0,0,0,0,0,0,0,0,0,0,0],"split_type":[0,0,0,0,0,0,0,0,0,0,0,0,0,0,0,0,0,0,0,0,0,0,0,0,0,0,0,0,0,0,0,0,0,0,0,0,0,0,0,0,0,0,0,0,0,0,0,0,0,0,0,0,0,0,0,0,0,0,0,0,0,0,0,0,0,0,0,0,0,0,0,0,0],"sum_hessian":[8.897306E2,9.3641525E1,7.9608905E2,8.654471E1,7.0968204E0,6.727068E2,1.2338228E2,8.426395E1,2.2807615E0,2.3754015E0,4.721419E0,4.975879E2,1.7511888E2,7.431184E1,4.907044E1,8.128853E1,2.9754174E0,3.632018E0,1.0894009E0,4.4984917E1,4.5260297E2,1.6274013E2,1.2378768E1,6.112707E0,6.819913E1,1.400494E1,3.50655E1,4.6246576E0,7.666387E1,1.8901634E0,1.0852541E0,3.78396E1,7.145317E0,3.6073425E2,9.1868706E1,1.3384877E2,2.8891344E1,2.5814152E0,9.797353E0,3.2157543E0,2.8969526E0,3.168819E0,6.503031E1,2.9700198E0,1.1034921E1,3.204037E1,3.0251276E0,1.5521934E0,3.0724642E0,1.0006839E0,7.5663185E1,2.2009513E0,3.5638645E1,5.426102E0,1.7192147E0,2.9507007E2,6.566419E1,8.465927E1,7.2094345E0,5.737101E0,1.2811168E2,1.0771635E1,1.8119709E1,1.3936875E0,8.403666E0,1.8242536E0,1.3445654E0,6.2072075E1,2.9582367E0,8.687416E0,2.3475041E0,3.075881E1,1.281561E0],"tree_param":{"num_deleted":"0","num_feature":"40000","num_nodes":"73","size_leaf_vector":"0"}},{"base_weights":[4.6670116E-3,-4.3598752E-2,2.5272202E-1,5.5362016E-2,-1.8993607E-1,-1.1766001E-1,4.1321567E-1,2.5121546E-1,-4.35682E-2,-2.5320366E-1,1.6089973E-1,1.5293002E-1,-5.1675946E-1,1.5406544E-2,5.887701E-1,3.28925E-1,-3.8955063E-1,3.031171E-1,-1.2008043E-1,6.787423E-2,-3.2807007E-1,-1.0325381E-1,6.5006196E-1,-3.3008924E-1,5.190488E-1,-5.581553E-1,8.622302E-2,-2.4635026E-1,7.473841E-1,7.874411E-1,1.1745151E-1,-1.0480914E-1,4.5595467E-1,-5.566772E-1,6.430571E-1,6.303245E-1,-2.2141798E-1,1.6592604E-1,-2.3260492E-1,7.0162547E-1,-1.5453164E-1,-3.7464592E-1,2.2913983E-1,1.0975659E0,-3.0519295E-1,-4.3629938E-1,9.1731036E-1,6.868396E-1,-5.347682E-1,-4.187036E-1,7.4024475E-1,3.814275E-1,-5.1741576E-1,1.018108E0,-3.4255433E-1,1.1635417E0,4.5388025E-1,5.0588524E-1,-4.4636667E-1,7.149792E-1,-3.489309E-1,5.604063E-1,-1.8980265E-1,-3.4971374E-1,8.326887E-1,-4.635622E-1,8.8857543E-1,5.305449E-1,-1.6926907E-1,-3.377393E-1,2.046322E-1,1.1627533E0,-4.653224E-2,5.4133415E-1,-3.8624966E-1,-3.9710924E-1,7.3155683E-1,-4.337521E-1,8.969666E-1,-4.2953575E-1,7.547609E-1,-3.313498E-1,1.0808275E0,-3.402327E-1,9.0025777E-1,7.6919115E-1,-4.1389894E-1,-5.586814E-1,6.9529735E-2,-3.221021E-1,1.2673273E0,7.541365E-1,-1.21351175E-1,7.7186435E-1,-4.1867262E-1,-5.237734E-1,9.526497E-2],"categories":[],"categories_nodes":[],"categories_segments":[],"categories_sizes":[],"default_left":[1,1,1,1,1,1,1,1,1,1,1,1,1,1,1,1,1,1,1,1,1,1,1,1,1,0,0,1,1,1,1,1,1,0,0,1,1,1,1,1,1,1,1,0,1,0,1,0,0,0,1,1,1,0,0,1,1,1,1,0,0,0,0,0,0,0,0,0,0,0,0,0,0,0,0,0,0,0,0,0,0,0,0,0,0,0,0,0,0,0,0,0,0,0,0,0,0],"id":18,"left_children":[1,3,5,7,9,11,13,15,17,19,21,23,25,27,29,31,33,35,37,39,41,43,45,47,49,-1,-1,51,53,55,57,59,61,-1,-1,63,65,67,69,71,73,75,77,-1,79,-1,81,-1,-1,-1,83,85,87,-1,-1,89,91,93,95,-1,-1,-1,-1,-1,-1,-1,-1,-1,-1,-1,-1,-1,-1,-1,-1,-1,-1,-1,-1,-1,-1,-1,-1,-1,-1,-1,-1,-1,-1,-1,-1,-1,-1,-1,-1,-1,-1],"loss_changes":[1.0299455E1,1.0440433E1,8.377821E0,8.350939E0,6.4951124E0,4.7376895E0,6.8335514E0,7.32841E0,7.6447735E0,5.9535103E0,5.8866415E0,4.8541355E0,4.8890495E-1,6.1288247E0,6.27046E0,7.1831093E0,3.1360803E0,9.0886965E0,7.6237187E0,6.8012805E0,5.283127E0,7.635951E0,5.0250926E0,2.8709722E0,3.515008E0,0E0,0E0,4.21438E0,2.833428E0,5.446905E0,4.8961835E0,6.283283E0,6.8753376E0,0E0,0E0,6.711096E0,5.9946623E0,8.29434E0,7.863517E0,4.371907E0,6.0088034E0,4.892359E0,7.5025663E0,0E0,3.82424E0,0E0,3.0342932E0,0E0,0E0,0E0,2.5303159E0,2.6913629E0,4.484539E-1,0E0,0E0,3.7613163E0,4.734307E0,3.5434504E0,4.3687677E-1,0E0,0E0,0E0,0E0,0E0,0E0,0E0,0E0,0E0,0E0,0E0,0E0,0E0,0E0,0E0,0E0,0E0,0E0,0E0,0E0,0E0,0E0,0E0,0E0,0E0,0E0,0E0,0E0,0E0,0E0,0E0,0E0,0E0,0E0,0E0,0E0,0E0,0E0],"parents":[2147483647,0,0,1,1,2,2,3,3,4,4,5,5,6,6,7,7,8,8,9,9,10,10,11,11,12,12,13,13,14,14,15,15,16,16,17,17,18,18,19,19,20,20,21,21,22,22,23,23,24,24,27,27,28,28,29,29,30,30,31,31,32,32,35,35,36,36,37,37,38,38,39,39,40,40,41,41,42,42,44,44,46,46,50,50,51,51,52,52,55,55,56,56,57,57,58,58],"right_children":[2,4,6,8,10,12,14,16,18,20,22,24,26,28,30,32,34,36,38,40,42,44,46,48,50,-1,-1,52,54,56,58,60,62,-1,-1,64,66,68,70,72,74,76,78,-1,80,-1,82,-1,-1,-1,84,86,88,-1,-1,90,92,94,96,-1,-1,-1,-1,-1,-1,-1,-1,-1,-1,-1,-1,-1,-1,-1,-1,-1,-1,-1,-1,-1,-1,-1,-1,-1,-1,-1,-1,-1,-1,-1,-1,-1,-1,-1,-1,-1,-1],"split_conditions":[2.8407001E-1,3.4073502E-1,4.26975E-1,-1.36055E0,3.1435502E-1,1.331E-1,-9.7159505E-2,3.1542E-1,-4.8650998E-1,-7.64345E-1,6.6955E-1,2.15235E-1,7.1004E-1,2.5323E-1,3.0873E-1,-4.4374502E-1,9.15225E-1,8.50755E-1,-3.0743498E-1,-5.5183E-1,1.904E0,-5.48205E-1,-5.4654498E-2,-6.3818E-1,7.0343E-2,-1.674466E-1,2.5866907E-2,-2.47795E-1,2.24525E-1,2.8584498E-1,3.63125E-2,-2.63105E-1,3.9151502E-1,-1.6700317E-1,1.9291714E-1,-1.8656E-1,7.5866497E-1,3.77645E-3,3.6517E-1,-4.4892E-1,-5.1154006E-1,8.7192E-1,-2.3307499E-2,3.2926977E-1,8.55035E-1,-1.3088982E-1,-4.7324E-2,2.0605189E-1,-1.6043048E-1,-1.2561108E-1,-3.2314E-1,-2.1437499E-1,8.5833E-1,3.054324E-1,-1.02766305E-1,-4.5753998E-1,2.31825E-1,1.4319E-1,5.31095E-1,2.1449377E-1,-1.0467927E-1,1.681219E-1,-5.6940798E-2,-1.0491413E-1,2.4980661E-1,-1.3906866E-1,2.6657265E-1,1.5916348E-1,-5.0780725E-2,-1.01321794E-1,6.138966E-2,3.4882602E-1,-1.3959672E-2,1.6240025E-1,-1.158749E-1,-1.1913278E-1,2.1946706E-1,-1.3012563E-1,2.6909E-1,-1.2886073E-1,2.2642829E-1,-9.940494E-2,3.2424825E-1,-1.0206982E-1,2.7007735E-1,2.3075736E-1,-1.24169685E-1,-1.6760443E-1,2.0858921E-2,-9.663063E-2,3.801982E-1,2.2624096E-1,-3.6405355E-2,2.3155932E-1,-1.256018E-1,-1.5713201E-1,2.8579492E-2],"split_indices":[17899,7998,10761,6984,11250,13607,11708,745,2163,73,2966,13707,2148,17491,15124,468,4359,8153,1847,3969,5658,7692,12020,20768,3019,0,0,14030,5677,519,5356,3534,2981,0,0,719,7420,4110,7056,6340,5339,7687,4287,0,4193,0,3512,0,0,0,8492,3387,10807,0,0,26623,13110,18251,3420,0,0,0,0,0,0,0,0,0,0,0,0,0,0,0,0,0,0,0,0,0,0,0,0,0,0,0,0,0,0,0,0,0,0,0,0,0,0],"split_type":[0,0,0,0,0,0,0,0,0,0,0,0,0,0,0,0,0,0,0,0,0,0,0,0,0,0,0,0,0,0,0,0,0,0,0,0,0,0,0,0,0,0,0,0,0,0,0,0,0,0,0,0,0,0,0,0,0,0,0,0,0,0,0,0,0,0,0,0,0,0,0,0,0,0,0,0,0,0,0,0,0,0,0,0,0,0,0,0,0,0,0,0,0,0,0,0,0],"sum_hessian":[8.5833435E2,7.192159E2,1.3911853E2,4.29433E2,2.8978284E2,4.2138817E1,9.6979706E1,1.4360231E2,2.858307E2,2.4574498E2,4.4037872E1,2.548009E1,1.6658728E1,3.0026638E1,6.695307E1,1.2850447E2,1.5097843E1,5.1141457E1,2.3468922E2,4.6483906E1,1.9926108E2,2.9108074E1,1.4929797E1,1.1028559E1,1.445153E1,1.56581135E1,1.0006155E0,2.2606094E1,7.4205437E0,4.6627747E1,2.0325323E1,2.9149702E1,9.935477E1,1.3391365E1,1.7064786E0,3.137063E1,1.9770826E1,6.613008E1,1.6855914E2,1.1515496E1,3.496841E1,1.841925E2,1.5068567E1,3.5518808E0,2.5556192E1,2.8227584E0,1.21070385E1,1.453129E0,9.57543E0,2.5877876E0,1.1863744E1,6.6945715E0,1.5911522E1,5.996907E0,1.4236364E0,2.0746809E1,2.588094E1,1.2095244E1,8.230079E0,6.2460346E0,2.2903667E1,8.563537E1,1.3719402E1,5.244359E0,2.612627E1,1.6708298E1,3.0625288E0,3.1395674E1,3.473441E1,1.3606876E2,3.2490395E1,6.781534E0,4.733962E0,8.4016075E0,2.6566803E1,1.8115486E2,3.0376432E0,7.7381244E0,7.3304424E0,2.3405287E1,2.1509056E0,1.2830371E0,1.0824001E1,1.385044E0,1.04787E1,4.522483E0,2.1720886E0,1.4911324E1,1.0001985E0,1.2173579E0,1.9529451E1,1.6800493E1,9.080446E0,9.521289E0,2.5739553E0,7.2298093E0,1.0002694E0],"tree_param":{"num_deleted":"0","num_feature":"40000","num_nodes":"97","size_leaf_vector":"0"}},{"base_weights":[-1.5943225E-2,3.471906E-2,-4.0067226E-1,1.2205259E-1,-1.0938559E-1,-4.7292233E-1,1.8258248E-1,6.294966E-2,4.0635678E-1,3.952044E-1,-1.5833637E-1,-5.0932914E-1,4.8950285E-1,8.050152E-1,-4.7490895E-1,3.1657088E-1,-2.2327185E-2,2.2843626E-1,9.3993485E-1,-9.049662E-2,8.9126164E-1,1.1835056E-1,-2.5518143E-1,-5.3999454E-1,2.9660532E-1,1.6722541E-2,7.3686516E-1,-8.90748E-3,1.0867869E0,-2.840743E-1,4.712677E-1,-7.06542E-2,5.864656E-1,6.5899205E-1,-8.520375E-3,1.2627479E0,-1.5415041E-1,-4.546017E-1,5.878323E-1,1.3158547E0,3.3869117E-2,4.4998357E-1,-1.49835E-1,5.994886E-1,-2.8870302E-1,-5.5996907E-1,2.857331E-1,7.299812E-2,3.7885138E-1,8.4218526E-1,-4.4329524E-1,-5.257724E-1,5.5045307E-1,7.498381E-1,-1.02103025E-1,8.1814015E-1,-4.915535E-1,9.030812E-1,-8.2442954E-2,-4.0464947E-1,3.6990446E-1,1.4617679E0,1.2702742E-1,2.9207247E-1,-4.3369856E-1,4.339291E-2,-5.267889E-1,-3.241469E-1,9.2121226E-1,-4.2038012E-1,5.5672604E-1,-7.060492E-2,7.921164E-1,6.184001E-1,-3.2271585E-1,-4.154835E-1,1.0900588E0,4.8628747E-1,-3.2732758E-1],"categories":[],"categories_nodes":[],"categories_segments":[],"categories_sizes":[],"default_left":[1,1,1,1,1,1,1,1,1,1,1,1,1,1,0,1,1,1,1,1,1,1,1,1,1,0,